FANN_FLO_2.1
num_layers=3
learning_rate=0.700000
connection_rate=1.000000
network_type=0
learning_momentum=0.000000
training_algorithm=2
train_error_function=1
train_stop_function=1
cascade_output_change_fraction=0.010000
quickprop_decay=-0.000100
quickprop_mu=1.750000
rprop_increase_factor=1.200000
rprop_decrease_factor=0.500000
rprop_delta_min=0.000000
rprop_delta_max=50.000000
rprop_delta_zero=0.100000
cascade_output_stagnation_epochs=12
cascade_candidate_change_fraction=0.010000
cascade_candidate_stagnation_epochs=12
cascade_max_out_epochs=150
cascade_min_out_epochs=50
cascade_max_cand_epochs=150
cascade_min_cand_epochs=50
cascade_num_candidate_groups=2
bit_fail_limit=9.99999977648258209229e-03
cascade_candidate_limit=1.00000000000000000000e+03
cascade_weight_multiplier=4.00000005960464477539e-01
cascade_activation_functions_count=10
cascade_activation_functions=3 5 7 8 10 11 14 15 16 17 
cascade_activation_steepnesses_count=4
cascade_activation_steepnesses=2.50000000000000000000e-01 5.00000000000000000000e-01 7.50000000000000000000e-01 1.00000000000000000000e+00 
layer_sizes=309 309 9 
scale_included=0
neurons (num_inputs, activation_function, activation_steepness)=(0, 0, 0.00000000000000000000e+00) (0, 0, 0.00000000000000000000e+00) (0, 0, 0.00000000000000000000e+00) (0, 0, 0.00000000000000000000e+00) (0, 0, 0.00000000000000000000e+00) (0, 0, 0.00000000000000000000e+00) (0, 0, 0.00000000000000000000e+00) (0, 0, 0.00000000000000000000e+00) (0, 0, 0.00000000000000000000e+00) (0, 0, 0.00000000000000000000e+00) (0, 0, 0.00000000000000000000e+00) (0, 0, 0.00000000000000000000e+00) (0, 0, 0.00000000000000000000e+00) (0, 0, 0.00000000000000000000e+00) (0, 0, 0.00000000000000000000e+00) (0, 0, 0.00000000000000000000e+00) (0, 0, 0.00000000000000000000e+00) (0, 0, 0.00000000000000000000e+00) (0, 0, 0.00000000000000000000e+00) (0, 0, 0.00000000000000000000e+00) (0, 0, 0.00000000000000000000e+00) (0, 0, 0.00000000000000000000e+00) (0, 0, 0.00000000000000000000e+00) (0, 0, 0.00000000000000000000e+00) (0, 0, 0.00000000000000000000e+00) (0, 0, 0.00000000000000000000e+00) (0, 0, 0.00000000000000000000e+00) (0, 0, 0.00000000000000000000e+00) (0, 0, 0.00000000000000000000e+00) (0, 0, 0.00000000000000000000e+00) (0, 0, 0.00000000000000000000e+00) (0, 0, 0.00000000000000000000e+00) (0, 0, 0.00000000000000000000e+00) (0, 0, 0.00000000000000000000e+00) (0, 0, 0.00000000000000000000e+00) (0, 0, 0.00000000000000000000e+00) (0, 0, 0.00000000000000000000e+00) (0, 0, 0.00000000000000000000e+00) (0, 0, 0.00000000000000000000e+00) (0, 0, 0.00000000000000000000e+00) (0, 0, 0.00000000000000000000e+00) (0, 0, 0.00000000000000000000e+00) (0, 0, 0.00000000000000000000e+00) (0, 0, 0.00000000000000000000e+00) (0, 0, 0.00000000000000000000e+00) (0, 0, 0.00000000000000000000e+00) (0, 0, 0.00000000000000000000e+00) (0, 0, 0.00000000000000000000e+00) (0, 0, 0.00000000000000000000e+00) (0, 0, 0.00000000000000000000e+00) (0, 0, 0.00000000000000000000e+00) (0, 0, 0.00000000000000000000e+00) (0, 0, 0.00000000000000000000e+00) (0, 0, 0.00000000000000000000e+00) (0, 0, 0.00000000000000000000e+00) (0, 0, 0.00000000000000000000e+00) (0, 0, 0.00000000000000000000e+00) (0, 0, 0.00000000000000000000e+00) (0, 0, 0.00000000000000000000e+00) (0, 0, 0.00000000000000000000e+00) (0, 0, 0.00000000000000000000e+00) (0, 0, 0.00000000000000000000e+00) (0, 0, 0.00000000000000000000e+00) (0, 0, 0.00000000000000000000e+00) (0, 0, 0.00000000000000000000e+00) (0, 0, 0.00000000000000000000e+00) (0, 0, 0.00000000000000000000e+00) (0, 0, 0.00000000000000000000e+00) (0, 0, 0.00000000000000000000e+00) (0, 0, 0.00000000000000000000e+00) (0, 0, 0.00000000000000000000e+00) (0, 0, 0.00000000000000000000e+00) (0, 0, 0.00000000000000000000e+00) (0, 0, 0.00000000000000000000e+00) (0, 0, 0.00000000000000000000e+00) (0, 0, 0.00000000000000000000e+00) (0, 0, 0.00000000000000000000e+00) (0, 0, 0.00000000000000000000e+00) (0, 0, 0.00000000000000000000e+00) (0, 0, 0.00000000000000000000e+00) (0, 0, 0.00000000000000000000e+00) (0, 0, 0.00000000000000000000e+00) (0, 0, 0.00000000000000000000e+00) (0, 0, 0.00000000000000000000e+00) (0, 0, 0.00000000000000000000e+00) (0, 0, 0.00000000000000000000e+00) (0, 0, 0.00000000000000000000e+00) (0, 0, 0.00000000000000000000e+00) (0, 0, 0.00000000000000000000e+00) (0, 0, 0.00000000000000000000e+00) (0, 0, 0.00000000000000000000e+00) (0, 0, 0.00000000000000000000e+00) (0, 0, 0.00000000000000000000e+00) (0, 0, 0.00000000000000000000e+00) (0, 0, 0.00000000000000000000e+00) (0, 0, 0.00000000000000000000e+00) (0, 0, 0.00000000000000000000e+00) (0, 0, 0.00000000000000000000e+00) (0, 0, 0.00000000000000000000e+00) (0, 0, 0.00000000000000000000e+00) (0, 0, 0.00000000000000000000e+00) (0, 0, 0.00000000000000000000e+00) (0, 0, 0.00000000000000000000e+00) (0, 0, 0.00000000000000000000e+00) (0, 0, 0.00000000000000000000e+00) (0, 0, 0.00000000000000000000e+00) (0, 0, 0.00000000000000000000e+00) (0, 0, 0.00000000000000000000e+00) (0, 0, 0.00000000000000000000e+00) (0, 0, 0.00000000000000000000e+00) (0, 0, 0.00000000000000000000e+00) (0, 0, 0.00000000000000000000e+00) (0, 0, 0.00000000000000000000e+00) (0, 0, 0.00000000000000000000e+00) (0, 0, 0.00000000000000000000e+00) (0, 0, 0.00000000000000000000e+00) (0, 0, 0.00000000000000000000e+00) (0, 0, 0.00000000000000000000e+00) (0, 0, 0.00000000000000000000e+00) (0, 0, 0.00000000000000000000e+00) (0, 0, 0.00000000000000000000e+00) (0, 0, 0.00000000000000000000e+00) (0, 0, 0.00000000000000000000e+00) (0, 0, 0.00000000000000000000e+00) (0, 0, 0.00000000000000000000e+00) (0, 0, 0.00000000000000000000e+00) (0, 0, 0.00000000000000000000e+00) (0, 0, 0.00000000000000000000e+00) (0, 0, 0.00000000000000000000e+00) (0, 0, 0.00000000000000000000e+00) (0, 0, 0.00000000000000000000e+00) (0, 0, 0.00000000000000000000e+00) (0, 0, 0.00000000000000000000e+00) (0, 0, 0.00000000000000000000e+00) (0, 0, 0.00000000000000000000e+00) (0, 0, 0.00000000000000000000e+00) (0, 0, 0.00000000000000000000e+00) (0, 0, 0.00000000000000000000e+00) (0, 0, 0.00000000000000000000e+00) (0, 0, 0.00000000000000000000e+00) (0, 0, 0.00000000000000000000e+00) (0, 0, 0.00000000000000000000e+00) (0, 0, 0.00000000000000000000e+00) (0, 0, 0.00000000000000000000e+00) (0, 0, 0.00000000000000000000e+00) (0, 0, 0.00000000000000000000e+00) (0, 0, 0.00000000000000000000e+00) (0, 0, 0.00000000000000000000e+00) (0, 0, 0.00000000000000000000e+00) (0, 0, 0.00000000000000000000e+00) (0, 0, 0.00000000000000000000e+00) (0, 0, 0.00000000000000000000e+00) (0, 0, 0.00000000000000000000e+00) (0, 0, 0.00000000000000000000e+00) (0, 0, 0.00000000000000000000e+00) (0, 0, 0.00000000000000000000e+00) (0, 0, 0.00000000000000000000e+00) (0, 0, 0.00000000000000000000e+00) (0, 0, 0.00000000000000000000e+00) (0, 0, 0.00000000000000000000e+00) (0, 0, 0.00000000000000000000e+00) (0, 0, 0.00000000000000000000e+00) (0, 0, 0.00000000000000000000e+00) (0, 0, 0.00000000000000000000e+00) (0, 0, 0.00000000000000000000e+00) (0, 0, 0.00000000000000000000e+00) (0, 0, 0.00000000000000000000e+00) (0, 0, 0.00000000000000000000e+00) (0, 0, 0.00000000000000000000e+00) (0, 0, 0.00000000000000000000e+00) (0, 0, 0.00000000000000000000e+00) (0, 0, 0.00000000000000000000e+00) (0, 0, 0.00000000000000000000e+00) (0, 0, 0.00000000000000000000e+00) (0, 0, 0.00000000000000000000e+00) (0, 0, 0.00000000000000000000e+00) (0, 0, 0.00000000000000000000e+00) (0, 0, 0.00000000000000000000e+00) (0, 0, 0.00000000000000000000e+00) (0, 0, 0.00000000000000000000e+00) (0, 0, 0.00000000000000000000e+00) (0, 0, 0.00000000000000000000e+00) (0, 0, 0.00000000000000000000e+00) (0, 0, 0.00000000000000000000e+00) (0, 0, 0.00000000000000000000e+00) (0, 0, 0.00000000000000000000e+00) (0, 0, 0.00000000000000000000e+00) (0, 0, 0.00000000000000000000e+00) (0, 0, 0.00000000000000000000e+00) (0, 0, 0.00000000000000000000e+00) (0, 0, 0.00000000000000000000e+00) (0, 0, 0.00000000000000000000e+00) (0, 0, 0.00000000000000000000e+00) (0, 0, 0.00000000000000000000e+00) (0, 0, 0.00000000000000000000e+00) (0, 0, 0.00000000000000000000e+00) (0, 0, 0.00000000000000000000e+00) (0, 0, 0.00000000000000000000e+00) (0, 0, 0.00000000000000000000e+00) (0, 0, 0.00000000000000000000e+00) (0, 0, 0.00000000000000000000e+00) (0, 0, 0.00000000000000000000e+00) (0, 0, 0.00000000000000000000e+00) (0, 0, 0.00000000000000000000e+00) (0, 0, 0.00000000000000000000e+00) (0, 0, 0.00000000000000000000e+00) (0, 0, 0.00000000000000000000e+00) (0, 0, 0.00000000000000000000e+00) (0, 0, 0.00000000000000000000e+00) (0, 0, 0.00000000000000000000e+00) (0, 0, 0.00000000000000000000e+00) (0, 0, 0.00000000000000000000e+00) (0, 0, 0.00000000000000000000e+00) (0, 0, 0.00000000000000000000e+00) (0, 0, 0.00000000000000000000e+00) (0, 0, 0.00000000000000000000e+00) (0, 0, 0.00000000000000000000e+00) (0, 0, 0.00000000000000000000e+00) (0, 0, 0.00000000000000000000e+00) (0, 0, 0.00000000000000000000e+00) (0, 0, 0.00000000000000000000e+00) (0, 0, 0.00000000000000000000e+00) (0, 0, 0.00000000000000000000e+00) (0, 0, 0.00000000000000000000e+00) (0, 0, 0.00000000000000000000e+00) (0, 0, 0.00000000000000000000e+00) (0, 0, 0.00000000000000000000e+00) (0, 0, 0.00000000000000000000e+00) (0, 0, 0.00000000000000000000e+00) (0, 0, 0.00000000000000000000e+00) (0, 0, 0.00000000000000000000e+00) (0, 0, 0.00000000000000000000e+00) (0, 0, 0.00000000000000000000e+00) (0, 0, 0.00000000000000000000e+00) (0, 0, 0.00000000000000000000e+00) (0, 0, 0.00000000000000000000e+00) (0, 0, 0.00000000000000000000e+00) (0, 0, 0.00000000000000000000e+00) (0, 0, 0.00000000000000000000e+00) (0, 0, 0.00000000000000000000e+00) (0, 0, 0.00000000000000000000e+00) (0, 0, 0.00000000000000000000e+00) (0, 0, 0.00000000000000000000e+00) (0, 0, 0.00000000000000000000e+00) (0, 0, 0.00000000000000000000e+00) (0, 0, 0.00000000000000000000e+00) (0, 0, 0.00000000000000000000e+00) (0, 0, 0.00000000000000000000e+00) (0, 0, 0.00000000000000000000e+00) (0, 0, 0.00000000000000000000e+00) (0, 0, 0.00000000000000000000e+00) (0, 0, 0.00000000000000000000e+00) (0, 0, 0.00000000000000000000e+00) (0, 0, 0.00000000000000000000e+00) (0, 0, 0.00000000000000000000e+00) (0, 0, 0.00000000000000000000e+00) (0, 0, 0.00000000000000000000e+00) (0, 0, 0.00000000000000000000e+00) (0, 0, 0.00000000000000000000e+00) (0, 0, 0.00000000000000000000e+00) (0, 0, 0.00000000000000000000e+00) (0, 0, 0.00000000000000000000e+00) (0, 0, 0.00000000000000000000e+00) (0, 0, 0.00000000000000000000e+00) (0, 0, 0.00000000000000000000e+00) (0, 0, 0.00000000000000000000e+00) (0, 0, 0.00000000000000000000e+00) (0, 0, 0.00000000000000000000e+00) (0, 0, 0.00000000000000000000e+00) (0, 0, 0.00000000000000000000e+00) (0, 0, 0.00000000000000000000e+00) (0, 0, 0.00000000000000000000e+00) (0, 0, 0.00000000000000000000e+00) (0, 0, 0.00000000000000000000e+00) (0, 0, 0.00000000000000000000e+00) (0, 0, 0.00000000000000000000e+00) (0, 0, 0.00000000000000000000e+00) (0, 0, 0.00000000000000000000e+00) (0, 0, 0.00000000000000000000e+00) (0, 0, 0.00000000000000000000e+00) (0, 0, 0.00000000000000000000e+00) (0, 0, 0.00000000000000000000e+00) (0, 0, 0.00000000000000000000e+00) (0, 0, 0.00000000000000000000e+00) (0, 0, 0.00000000000000000000e+00) (0, 0, 0.00000000000000000000e+00) (0, 0, 0.00000000000000000000e+00) (0, 0, 0.00000000000000000000e+00) (0, 0, 0.00000000000000000000e+00) (0, 0, 0.00000000000000000000e+00) (0, 0, 0.00000000000000000000e+00) (0, 0, 0.00000000000000000000e+00) (0, 0, 0.00000000000000000000e+00) (0, 0, 0.00000000000000000000e+00) (0, 0, 0.00000000000000000000e+00) (0, 0, 0.00000000000000000000e+00) (0, 0, 0.00000000000000000000e+00) (0, 0, 0.00000000000000000000e+00) (0, 0, 0.00000000000000000000e+00) (0, 0, 0.00000000000000000000e+00) (0, 0, 0.00000000000000000000e+00) (0, 0, 0.00000000000000000000e+00) (0, 0, 0.00000000000000000000e+00) (0, 0, 0.00000000000000000000e+00) (0, 0, 0.00000000000000000000e+00) (0, 0, 0.00000000000000000000e+00) (0, 0, 0.00000000000000000000e+00) (0, 0, 0.00000000000000000000e+00) (0, 0, 0.00000000000000000000e+00) (309, 4, 9.99999977648258209229e-03) (309, 4, 9.99999977648258209229e-03) (309, 4, 9.99999977648258209229e-03) (309, 4, 9.99999977648258209229e-03) (309, 4, 9.99999977648258209229e-03) (309, 4, 9.99999977648258209229e-03) (309, 4, 9.99999977648258209229e-03) (309, 4, 9.99999977648258209229e-03) (309, 4, 9.99999977648258209229e-03) (309, 4, 9.99999977648258209229e-03) (309, 4, 9.99999977648258209229e-03) (309, 4, 9.99999977648258209229e-03) (309, 4, 9.99999977648258209229e-03) (309, 4, 9.99999977648258209229e-03) (309, 4, 9.99999977648258209229e-03) (309, 4, 9.99999977648258209229e-03) (309, 4, 9.99999977648258209229e-03) (309, 4, 9.99999977648258209229e-03) (309, 4, 9.99999977648258209229e-03) (309, 4, 9.99999977648258209229e-03) (309, 4, 9.99999977648258209229e-03) (309, 4, 9.99999977648258209229e-03) (309, 4, 9.99999977648258209229e-03) (309, 4, 9.99999977648258209229e-03) (309, 4, 9.99999977648258209229e-03) (309, 4, 9.99999977648258209229e-03) (309, 4, 9.99999977648258209229e-03) (309, 4, 9.99999977648258209229e-03) (309, 4, 9.99999977648258209229e-03) (309, 4, 9.99999977648258209229e-03) (309, 4, 9.99999977648258209229e-03) (309, 4, 9.99999977648258209229e-03) (309, 4, 9.99999977648258209229e-03) (309, 4, 9.99999977648258209229e-03) (309, 4, 9.99999977648258209229e-03) (309, 4, 9.99999977648258209229e-03) (309, 4, 9.99999977648258209229e-03) (309, 4, 9.99999977648258209229e-03) (309, 4, 9.99999977648258209229e-03) (309, 4, 9.99999977648258209229e-03) (309, 4, 9.99999977648258209229e-03) (309, 4, 9.99999977648258209229e-03) (309, 4, 9.99999977648258209229e-03) (309, 4, 9.99999977648258209229e-03) (309, 4, 9.99999977648258209229e-03) (309, 4, 9.99999977648258209229e-03) (309, 4, 9.99999977648258209229e-03) (309, 4, 9.99999977648258209229e-03) (309, 4, 9.99999977648258209229e-03) (309, 4, 9.99999977648258209229e-03) (309, 4, 9.99999977648258209229e-03) (309, 4, 9.99999977648258209229e-03) (309, 4, 9.99999977648258209229e-03) (309, 4, 9.99999977648258209229e-03) (309, 4, 9.99999977648258209229e-03) (309, 4, 9.99999977648258209229e-03) (309, 4, 9.99999977648258209229e-03) (309, 4, 9.99999977648258209229e-03) (309, 4, 9.99999977648258209229e-03) (309, 4, 9.99999977648258209229e-03) (309, 4, 9.99999977648258209229e-03) (309, 4, 9.99999977648258209229e-03) (309, 4, 9.99999977648258209229e-03) (309, 4, 9.99999977648258209229e-03) (309, 4, 9.99999977648258209229e-03) (309, 4, 9.99999977648258209229e-03) (309, 4, 9.99999977648258209229e-03) (309, 4, 9.99999977648258209229e-03) (309, 4, 9.99999977648258209229e-03) (309, 4, 9.99999977648258209229e-03) (309, 4, 9.99999977648258209229e-03) (309, 4, 9.99999977648258209229e-03) (309, 4, 9.99999977648258209229e-03) (309, 4, 9.99999977648258209229e-03) (309, 4, 9.99999977648258209229e-03) (309, 4, 9.99999977648258209229e-03) (309, 4, 9.99999977648258209229e-03) (309, 4, 9.99999977648258209229e-03) (309, 4, 9.99999977648258209229e-03) (309, 4, 9.99999977648258209229e-03) (309, 4, 9.99999977648258209229e-03) (309, 4, 9.99999977648258209229e-03) (309, 4, 9.99999977648258209229e-03) (309, 4, 9.99999977648258209229e-03) (309, 4, 9.99999977648258209229e-03) (309, 4, 9.99999977648258209229e-03) (309, 4, 9.99999977648258209229e-03) (309, 4, 9.99999977648258209229e-03) (309, 4, 9.99999977648258209229e-03) (309, 4, 9.99999977648258209229e-03) (309, 4, 9.99999977648258209229e-03) (309, 4, 9.99999977648258209229e-03) (309, 4, 9.99999977648258209229e-03) (309, 4, 9.99999977648258209229e-03) (309, 4, 9.99999977648258209229e-03) (309, 4, 9.99999977648258209229e-03) (309, 4, 9.99999977648258209229e-03) (309, 4, 9.99999977648258209229e-03) (309, 4, 9.99999977648258209229e-03) (309, 4, 9.99999977648258209229e-03) (309, 4, 9.99999977648258209229e-03) (309, 4, 9.99999977648258209229e-03) (309, 4, 9.99999977648258209229e-03) (309, 4, 9.99999977648258209229e-03) (309, 4, 9.99999977648258209229e-03) (309, 4, 9.99999977648258209229e-03) (309, 4, 9.99999977648258209229e-03) (309, 4, 9.99999977648258209229e-03) (309, 4, 9.99999977648258209229e-03) (309, 4, 9.99999977648258209229e-03) (309, 4, 9.99999977648258209229e-03) (309, 4, 9.99999977648258209229e-03) (309, 4, 9.99999977648258209229e-03) (309, 4, 9.99999977648258209229e-03) (309, 4, 9.99999977648258209229e-03) (309, 4, 9.99999977648258209229e-03) (309, 4, 9.99999977648258209229e-03) (309, 4, 9.99999977648258209229e-03) (309, 4, 9.99999977648258209229e-03) (309, 4, 9.99999977648258209229e-03) (309, 4, 9.99999977648258209229e-03) (309, 4, 9.99999977648258209229e-03) (309, 4, 9.99999977648258209229e-03) (309, 4, 9.99999977648258209229e-03) (309, 4, 9.99999977648258209229e-03) (309, 4, 9.99999977648258209229e-03) (309, 4, 9.99999977648258209229e-03) (309, 4, 9.99999977648258209229e-03) (309, 4, 9.99999977648258209229e-03) (309, 4, 9.99999977648258209229e-03) (309, 4, 9.99999977648258209229e-03) (309, 4, 9.99999977648258209229e-03) (309, 4, 9.99999977648258209229e-03) (309, 4, 9.99999977648258209229e-03) (309, 4, 9.99999977648258209229e-03) (309, 4, 9.99999977648258209229e-03) (309, 4, 9.99999977648258209229e-03) (309, 4, 9.99999977648258209229e-03) (309, 4, 9.99999977648258209229e-03) (309, 4, 9.99999977648258209229e-03) (309, 4, 9.99999977648258209229e-03) (309, 4, 9.99999977648258209229e-03) (309, 4, 9.99999977648258209229e-03) (309, 4, 9.99999977648258209229e-03) (309, 4, 9.99999977648258209229e-03) (309, 4, 9.99999977648258209229e-03) (309, 4, 9.99999977648258209229e-03) (309, 4, 9.99999977648258209229e-03) (309, 4, 9.99999977648258209229e-03) (309, 4, 9.99999977648258209229e-03) (309, 4, 9.99999977648258209229e-03) (309, 4, 9.99999977648258209229e-03) (309, 4, 9.99999977648258209229e-03) (309, 4, 9.99999977648258209229e-03) (309, 4, 9.99999977648258209229e-03) (309, 4, 9.99999977648258209229e-03) (309, 4, 9.99999977648258209229e-03) (309, 4, 9.99999977648258209229e-03) (309, 4, 9.99999977648258209229e-03) (309, 4, 9.99999977648258209229e-03) (309, 4, 9.99999977648258209229e-03) (309, 4, 9.99999977648258209229e-03) (309, 4, 9.99999977648258209229e-03) (309, 4, 9.99999977648258209229e-03) (309, 4, 9.99999977648258209229e-03) (309, 4, 9.99999977648258209229e-03) (309, 4, 9.99999977648258209229e-03) (309, 4, 9.99999977648258209229e-03) (309, 4, 9.99999977648258209229e-03) (309, 4, 9.99999977648258209229e-03) (309, 4, 9.99999977648258209229e-03) (309, 4, 9.99999977648258209229e-03) (309, 4, 9.99999977648258209229e-03) (309, 4, 9.99999977648258209229e-03) (309, 4, 9.99999977648258209229e-03) (309, 4, 9.99999977648258209229e-03) (309, 4, 9.99999977648258209229e-03) (309, 4, 9.99999977648258209229e-03) (309, 4, 9.99999977648258209229e-03) (309, 4, 9.99999977648258209229e-03) (309, 4, 9.99999977648258209229e-03) (309, 4, 9.99999977648258209229e-03) (309, 4, 9.99999977648258209229e-03) (309, 4, 9.99999977648258209229e-03) (309, 4, 9.99999977648258209229e-03) (309, 4, 9.99999977648258209229e-03) (309, 4, 9.99999977648258209229e-03) (309, 4, 9.99999977648258209229e-03) (309, 4, 9.99999977648258209229e-03) (309, 4, 9.99999977648258209229e-03) (309, 4, 9.99999977648258209229e-03) (309, 4, 9.99999977648258209229e-03) (309, 4, 9.99999977648258209229e-03) (309, 4, 9.99999977648258209229e-03) (309, 4, 9.99999977648258209229e-03) (309, 4, 9.99999977648258209229e-03) (309, 4, 9.99999977648258209229e-03) (309, 4, 9.99999977648258209229e-03) (309, 4, 9.99999977648258209229e-03) (309, 4, 9.99999977648258209229e-03) (309, 4, 9.99999977648258209229e-03) (309, 4, 9.99999977648258209229e-03) (309, 4, 9.99999977648258209229e-03) (309, 4, 9.99999977648258209229e-03) (309, 4, 9.99999977648258209229e-03) (309, 4, 9.99999977648258209229e-03) (309, 4, 9.99999977648258209229e-03) (309, 4, 9.99999977648258209229e-03) (309, 4, 9.99999977648258209229e-03) (309, 4, 9.99999977648258209229e-03) (309, 4, 9.99999977648258209229e-03) (309, 4, 9.99999977648258209229e-03) (309, 4, 9.99999977648258209229e-03) (309, 4, 9.99999977648258209229e-03) (309, 4, 9.99999977648258209229e-03) (309, 4, 9.99999977648258209229e-03) (309, 4, 9.99999977648258209229e-03) (309, 4, 9.99999977648258209229e-03) (309, 4, 9.99999977648258209229e-03) (309, 4, 9.99999977648258209229e-03) (309, 4, 9.99999977648258209229e-03) (309, 4, 9.99999977648258209229e-03) (309, 4, 9.99999977648258209229e-03) (309, 4, 9.99999977648258209229e-03) (309, 4, 9.99999977648258209229e-03) (309, 4, 9.99999977648258209229e-03) (309, 4, 9.99999977648258209229e-03) (309, 4, 9.99999977648258209229e-03) (309, 4, 9.99999977648258209229e-03) (309, 4, 9.99999977648258209229e-03) (309, 4, 9.99999977648258209229e-03) (309, 4, 9.99999977648258209229e-03) (309, 4, 9.99999977648258209229e-03) (309, 4, 9.99999977648258209229e-03) (309, 4, 9.99999977648258209229e-03) (309, 4, 9.99999977648258209229e-03) (309, 4, 9.99999977648258209229e-03) (309, 4, 9.99999977648258209229e-03) (309, 4, 9.99999977648258209229e-03) (309, 4, 9.99999977648258209229e-03) (309, 4, 9.99999977648258209229e-03) (309, 4, 9.99999977648258209229e-03) (309, 4, 9.99999977648258209229e-03) (309, 4, 9.99999977648258209229e-03) (309, 4, 9.99999977648258209229e-03) (309, 4, 9.99999977648258209229e-03) (309, 4, 9.99999977648258209229e-03) (309, 4, 9.99999977648258209229e-03) (309, 4, 9.99999977648258209229e-03) (309, 4, 9.99999977648258209229e-03) (309, 4, 9.99999977648258209229e-03) (309, 4, 9.99999977648258209229e-03) (309, 4, 9.99999977648258209229e-03) (309, 4, 9.99999977648258209229e-03) (309, 4, 9.99999977648258209229e-03) (309, 4, 9.99999977648258209229e-03) (309, 4, 9.99999977648258209229e-03) (309, 4, 9.99999977648258209229e-03) (309, 4, 9.99999977648258209229e-03) (309, 4, 9.99999977648258209229e-03) (309, 4, 9.99999977648258209229e-03) (309, 4, 9.99999977648258209229e-03) (309, 4, 9.99999977648258209229e-03) (309, 4, 9.99999977648258209229e-03) (309, 4, 9.99999977648258209229e-03) (309, 4, 9.99999977648258209229e-03) (309, 4, 9.99999977648258209229e-03) (309, 4, 9.99999977648258209229e-03) (309, 4, 9.99999977648258209229e-03) (309, 4, 9.99999977648258209229e-03) (309, 4, 9.99999977648258209229e-03) (309, 4, 9.99999977648258209229e-03) (309, 4, 9.99999977648258209229e-03) (309, 4, 9.99999977648258209229e-03) (309, 4, 9.99999977648258209229e-03) (309, 4, 9.99999977648258209229e-03) (309, 4, 9.99999977648258209229e-03) (309, 4, 9.99999977648258209229e-03) (309, 4, 9.99999977648258209229e-03) (309, 4, 9.99999977648258209229e-03) (309, 4, 9.99999977648258209229e-03) (309, 4, 9.99999977648258209229e-03) (309, 4, 9.99999977648258209229e-03) (309, 4, 9.99999977648258209229e-03) (309, 4, 9.99999977648258209229e-03) (309, 4, 9.99999977648258209229e-03) (309, 4, 9.99999977648258209229e-03) (309, 4, 9.99999977648258209229e-03) (309, 4, 9.99999977648258209229e-03) (309, 4, 9.99999977648258209229e-03) (309, 4, 9.99999977648258209229e-03) (309, 4, 9.99999977648258209229e-03) (309, 4, 9.99999977648258209229e-03) (309, 4, 9.99999977648258209229e-03) (309, 4, 9.99999977648258209229e-03) (309, 4, 9.99999977648258209229e-03) (309, 4, 9.99999977648258209229e-03) (309, 4, 9.99999977648258209229e-03) (309, 4, 9.99999977648258209229e-03) (309, 4, 9.99999977648258209229e-03) (309, 4, 9.99999977648258209229e-03) (309, 4, 9.99999977648258209229e-03) (309, 4, 9.99999977648258209229e-03) (309, 4, 9.99999977648258209229e-03) (309, 4, 9.99999977648258209229e-03) (309, 4, 9.99999977648258209229e-03) (309, 4, 9.99999977648258209229e-03) (309, 4, 9.99999977648258209229e-03) (0, 4, 9.99999977648258209229e-03) (309, 4, 9.99999977648258209229e-03) (309, 4, 9.99999977648258209229e-03) (309, 4, 9.99999977648258209229e-03) (309, 4, 9.99999977648258209229e-03) (309, 4, 9.99999977648258209229e-03) (309, 4, 9.99999977648258209229e-03) (309, 4, 9.99999977648258209229e-03) (309, 4, 9.99999977648258209229e-03) (0, 4, 9.99999977648258209229e-03) 
connections (connected_to_neuron, weight)=(0, 1.50000000000000000000e+03) (1, -1.50000000000000000000e+03) (2, -1.50000000000000000000e+03) (3, -1.50000000000000000000e+03) (4, -6.22926879882812500000e+02) (5, -1.49182604980468750000e+03) (6, -1.49999572753906250000e+03) (7, 3.47468292236328125000e+02) (8, -1.49998986816406250000e+03) (9, 5.63173156738281250000e+02) (10, 1.25183142089843750000e+03) (11, 1.47028686523437500000e+03) (12, 1.31760607910156250000e+03) (13, 1.47439697265625000000e+03) (14, 1.47450048828125000000e+03) (15, 1.50000000000000000000e+03) (16, 1.50000000000000000000e+03) (17, 1.50000000000000000000e+03) (18, 1.50000000000000000000e+03) (19, 1.50000000000000000000e+03) (20, 1.11458825683593750000e+03) (21, 1.50000000000000000000e+03) (22, 1.50000000000000000000e+03) (23, 1.50000000000000000000e+03) (24, 1.50000000000000000000e+03) (25, 1.50000000000000000000e+03) (26, 1.50000000000000000000e+03) (27, 1.40581604003906250000e+03) (28, 1.49839941406250000000e+03) (29, 1.50000000000000000000e+03) (30, 1.49999511718750000000e+03) (31, 1.50000000000000000000e+03) (32, 1.49904199218750000000e+03) (33, -5.76539916992187500000e+02) (34, -1.50000000000000000000e+03) (35, -1.50000000000000000000e+03) (36, -9.39643432617187500000e+02) (37, 6.96827621459960937500e+01) (38, 2.09560302734375000000e+02) (39, -1.50000000000000000000e+03) (40, -1.50000000000000000000e+03) (41, -1.50000000000000000000e+03) (42, -1.50000000000000000000e+03) (43, -1.50000000000000000000e+03) (44, -1.50000000000000000000e+03) (45, 1.50000000000000000000e+03) (46, 1.50000000000000000000e+03) (47, 1.50000000000000000000e+03) (48, 1.50000000000000000000e+03) (49, 1.50000000000000000000e+03) (50, 1.50000000000000000000e+03) (51, 1.50000000000000000000e+03) (52, 1.50000000000000000000e+03) (53, 1.50000000000000000000e+03) (54, 1.50000000000000000000e+03) (55, 1.50000000000000000000e+03) (56, 1.50000000000000000000e+03) (57, 1.50000000000000000000e+03) (58, 1.50000000000000000000e+03) (59, 1.50000000000000000000e+03) (60, 1.49044018554687500000e+03) (61, 1.49991772460937500000e+03) (62, 1.41934521484375000000e+03) (63, 1.49685253906250000000e+03) (64, 1.50000000000000000000e+03) (65, 1.50000000000000000000e+03) (66, 1.50000000000000000000e+03) (67, 1.50000000000000000000e+03) (68, 1.50000000000000000000e+03) (69, 1.50000000000000000000e+03) (70, 1.50000000000000000000e+03) (71, 1.42749682617187500000e+03) (72, 1.49026672363281250000e+03) (73, 1.49541296386718750000e+03) (74, 5.02551635742187500000e+02) (75, 1.50000000000000000000e+03) (76, 1.50000000000000000000e+03) (77, 1.50000000000000000000e+03) (78, 1.50000000000000000000e+03) (79, 1.50000000000000000000e+03) (80, 1.50000000000000000000e+03) (81, 1.50000000000000000000e+03) (82, 1.50000000000000000000e+03) (83, 1.50000000000000000000e+03) (84, 1.50000000000000000000e+03) (85, 1.50000000000000000000e+03) (86, 1.50000000000000000000e+03) (87, 1.50000000000000000000e+03) (88, 1.50000000000000000000e+03) (89, 1.50000000000000000000e+03) (90, 1.50000000000000000000e+03) (91, 1.50000000000000000000e+03) (92, 1.50000000000000000000e+03) (93, 1.50000000000000000000e+03) (94, 1.50000000000000000000e+03) (95, 1.50000000000000000000e+03) (96, 1.50000000000000000000e+03) (97, 1.50000000000000000000e+03) (98, 1.50000000000000000000e+03) (99, 1.50000000000000000000e+03) (100, 1.50000000000000000000e+03) (101, 1.50000000000000000000e+03) (102, 1.50000000000000000000e+03) (103, 1.50000000000000000000e+03) (104, 1.50000000000000000000e+03) (105, 1.42691662597656250000e+03) (106, 1.48709814453125000000e+03) (107, 1.50000000000000000000e+03) (108, 1.50000000000000000000e+03) (109, 1.50000000000000000000e+03) (110, 1.50000000000000000000e+03) (111, 1.50000000000000000000e+03) (112, 1.50000000000000000000e+03) (113, 1.44938317871093750000e+03) (114, 1.21576513671875000000e+03) (115, 1.50000000000000000000e+03) (116, 1.50000000000000000000e+03) (117, 1.50000000000000000000e+03) (118, 1.50000000000000000000e+03) (119, 1.50000000000000000000e+03) (120, 1.50000000000000000000e+03) (121, 1.50000000000000000000e+03) (122, 1.50000000000000000000e+03) (123, 1.50000000000000000000e+03) (124, 1.50000000000000000000e+03) (125, 1.50000000000000000000e+03) (126, 1.50000000000000000000e+03) (127, 1.50000000000000000000e+03) (128, 1.50000000000000000000e+03) (129, 1.50000000000000000000e+03) (130, 1.50000000000000000000e+03) (131, 1.50000000000000000000e+03) (132, 1.50000000000000000000e+03) (133, 1.50000000000000000000e+03) (134, 1.50000000000000000000e+03) (135, 1.50000000000000000000e+03) (136, 1.50000000000000000000e+03) (137, 1.50000000000000000000e+03) (138, 1.50000000000000000000e+03) (139, 1.50000000000000000000e+03) (140, 1.50000000000000000000e+03) (141, 1.50000000000000000000e+03) (142, 1.50000000000000000000e+03) (143, 1.50000000000000000000e+03) (144, 1.50000000000000000000e+03) (145, 1.50000000000000000000e+03) (146, 1.50000000000000000000e+03) (147, 1.50000000000000000000e+03) (148, 1.50000000000000000000e+03) (149, 1.50000000000000000000e+03) (150, 1.50000000000000000000e+03) (151, 1.50000000000000000000e+03) (152, 1.50000000000000000000e+03) (153, 1.50000000000000000000e+03) (154, 1.50000000000000000000e+03) (155, 1.50000000000000000000e+03) (156, 1.50000000000000000000e+03) (157, 1.50000000000000000000e+03) (158, 1.50000000000000000000e+03) (159, 1.50000000000000000000e+03) (160, 1.50000000000000000000e+03) (161, 1.50000000000000000000e+03) (162, 1.50000000000000000000e+03) (163, 1.50000000000000000000e+03) (164, 1.50000000000000000000e+03) (165, 1.50000000000000000000e+03) (166, 1.50000000000000000000e+03) (167, 1.50000000000000000000e+03) (168, 1.50000000000000000000e+03) (169, 1.50000000000000000000e+03) (170, 1.50000000000000000000e+03) (171, 1.50000000000000000000e+03) (172, 1.50000000000000000000e+03) (173, 1.50000000000000000000e+03) (174, 1.50000000000000000000e+03) (175, 1.50000000000000000000e+03) (176, 1.50000000000000000000e+03) (177, 1.50000000000000000000e+03) (178, 1.50000000000000000000e+03) (179, 1.50000000000000000000e+03) (180, 1.50000000000000000000e+03) (181, 1.50000000000000000000e+03) (182, 1.50000000000000000000e+03) (183, 1.50000000000000000000e+03) (184, 1.50000000000000000000e+03) (185, 1.50000000000000000000e+03) (186, 1.50000000000000000000e+03) (187, 1.50000000000000000000e+03) (188, 1.50000000000000000000e+03) (189, 1.50000000000000000000e+03) (190, 1.50000000000000000000e+03) (191, 1.50000000000000000000e+03) (192, 1.50000000000000000000e+03) (193, 1.50000000000000000000e+03) (194, 1.50000000000000000000e+03) (195, 1.50000000000000000000e+03) (196, 1.50000000000000000000e+03) (197, 1.50000000000000000000e+03) (198, 1.50000000000000000000e+03) (199, 1.50000000000000000000e+03) (200, 1.50000000000000000000e+03) (201, 1.50000000000000000000e+03) (202, 1.50000000000000000000e+03) (203, 1.50000000000000000000e+03) (204, 1.50000000000000000000e+03) (205, 1.50000000000000000000e+03) (206, 1.50000000000000000000e+03) (207, 1.50000000000000000000e+03) (208, 1.50000000000000000000e+03) (209, 1.50000000000000000000e+03) (210, 1.50000000000000000000e+03) (211, 1.50000000000000000000e+03) (212, 1.50000000000000000000e+03) (213, 1.50000000000000000000e+03) (214, 1.50000000000000000000e+03) (215, 1.50000000000000000000e+03) (216, 1.50000000000000000000e+03) (217, 1.50000000000000000000e+03) (218, 1.50000000000000000000e+03) (219, 1.50000000000000000000e+03) (220, 1.50000000000000000000e+03) (221, 1.50000000000000000000e+03) (222, 1.50000000000000000000e+03) (223, 1.50000000000000000000e+03) (224, 1.50000000000000000000e+03) (225, 1.50000000000000000000e+03) (226, 1.50000000000000000000e+03) (227, 1.50000000000000000000e+03) (228, 1.50000000000000000000e+03) (229, 1.50000000000000000000e+03) (230, 1.50000000000000000000e+03) (231, 1.50000000000000000000e+03) (232, 1.50000000000000000000e+03) (233, 1.50000000000000000000e+03) (234, 1.50000000000000000000e+03) (235, 1.50000000000000000000e+03) (236, 1.50000000000000000000e+03) (237, 1.50000000000000000000e+03) (238, 1.50000000000000000000e+03) (239, 1.50000000000000000000e+03) (240, 1.37014428710937500000e+03) (241, 1.50000000000000000000e+03) (242, 1.50000000000000000000e+03) (243, 1.48617626953125000000e+03) (244, 1.42075317382812500000e+03) (245, 1.47624462890625000000e+03) (246, 1.48905957031250000000e+03) (247, 1.03161987304687500000e+03) (248, 9.57895690917968750000e+02) (249, 1.50000000000000000000e+03) (250, 1.50000000000000000000e+03) (251, 1.49995483398437500000e+03) (252, 1.49993823242187500000e+03) (253, 1.50000000000000000000e+03) (254, 1.50000000000000000000e+03) (255, 1.49976025390625000000e+03) (256, 1.48094067382812500000e+03) (257, 1.49995080566406250000e+03) (258, 1.50000000000000000000e+03) (259, 1.49999902343750000000e+03) (260, 1.50000000000000000000e+03) (261, 1.49997229003906250000e+03) (262, 1.49738452148437500000e+03) (263, 1.49204553222656250000e+03) (264, 1.49582849121093750000e+03) (265, 1.50000000000000000000e+03) (266, 1.50000000000000000000e+03) (267, 1.50000000000000000000e+03) (268, 1.50000000000000000000e+03) (269, 1.50000000000000000000e+03) (270, 1.50000000000000000000e+03) (271, 1.50000000000000000000e+03) (272, 1.50000000000000000000e+03) (273, 1.50000000000000000000e+03) (274, 1.50000000000000000000e+03) (275, 1.50000000000000000000e+03) (276, 1.50000000000000000000e+03) (277, 1.50000000000000000000e+03) (278, 1.50000000000000000000e+03) (279, 1.50000000000000000000e+03) (280, 1.50000000000000000000e+03) (281, 1.50000000000000000000e+03) (282, 1.50000000000000000000e+03) (283, 1.50000000000000000000e+03) (284, 1.50000000000000000000e+03) (285, 1.50000000000000000000e+03) (286, 1.50000000000000000000e+03) (287, 1.50000000000000000000e+03) (288, 1.50000000000000000000e+03) (289, 1.50000000000000000000e+03) (290, 1.50000000000000000000e+03) (291, 1.50000000000000000000e+03) (292, 1.50000000000000000000e+03) (293, 1.50000000000000000000e+03) (294, 1.50000000000000000000e+03) (295, 1.50000000000000000000e+03) (296, 1.50000000000000000000e+03) (297, 1.50000000000000000000e+03) (298, 1.50000000000000000000e+03) (299, 1.50000000000000000000e+03) (300, 1.50000000000000000000e+03) (301, 1.50000000000000000000e+03) (302, 1.50000000000000000000e+03) (303, 1.50000000000000000000e+03) (304, 1.50000000000000000000e+03) (305, 1.50000000000000000000e+03) (306, 1.50000000000000000000e+03) (307, 1.50000000000000000000e+03) (308, 1.50000000000000000000e+03) (0, -9.40607666015625000000e+02) (1, 1.50000000000000000000e+03) (2, 1.50000000000000000000e+03) (3, 1.50000000000000000000e+03) (4, 8.41665649414062500000e+02) (5, 6.17837341308593750000e+02) (6, 1.50000000000000000000e+03) (7, 1.50000000000000000000e+03) (8, 5.97673278808593750000e+02) (9, 1.47459228515625000000e+03) (10, -1.48617285156250000000e+03) (11, -1.49965344238281250000e+03) (12, -1.44239746093750000000e+03) (13, -1.50000000000000000000e+03) (14, -1.50000000000000000000e+03) (15, -1.50000000000000000000e+03) (16, -1.50000000000000000000e+03) (17, -1.50000000000000000000e+03) (18, -1.50000000000000000000e+03) (19, -1.50000000000000000000e+03) (20, -1.50000000000000000000e+03) (21, -1.50000000000000000000e+03) (22, -1.50000000000000000000e+03) (23, -1.40709118652343750000e+03) (24, -1.48249169921875000000e+03) (25, -1.49331164550781250000e+03) (26, -1.49424401855468750000e+03) (27, -1.49986364746093750000e+03) (28, -1.49698266601562500000e+03) (29, -1.50000000000000000000e+03) (30, -1.04773547363281250000e+03) (31, -1.38092565917968750000e+03) (32, -1.39105920410156250000e+03) (33, 1.50000000000000000000e+03) (34, -2.42583618164062500000e+02) (35, 1.50000000000000000000e+03) (36, 6.26354248046875000000e+02) (37, -8.40676086425781250000e+02) (38, -3.47906372070312500000e+02) (39, 1.50000000000000000000e+03) (40, 1.50000000000000000000e+03) (41, 1.50000000000000000000e+03) (42, 1.50000000000000000000e+03) (43, 1.50000000000000000000e+03) (44, 1.50000000000000000000e+03) (45, -1.43376855468750000000e+03) (46, 1.50000000000000000000e+03) (47, 1.50000000000000000000e+03) (48, 1.50000000000000000000e+03) (49, 1.50000000000000000000e+03) (50, 1.50000000000000000000e+03) (51, 1.50000000000000000000e+03) (52, 1.50000000000000000000e+03) (53, 1.50000000000000000000e+03) (54, 1.50000000000000000000e+03) (55, 1.50000000000000000000e+03) (56, 1.50000000000000000000e+03) (57, 1.50000000000000000000e+03) (58, 1.50000000000000000000e+03) (59, 1.50000000000000000000e+03) (60, -1.33622680664062500000e+03) (61, -1.49399597167968750000e+03) (62, -1.18865014648437500000e+03) (63, -1.49946887207031250000e+03) (64, -1.46357189941406250000e+03) (65, -1.27311083984375000000e+03) (66, -1.50000000000000000000e+03) (67, -1.50000000000000000000e+03) (68, -1.45443151855468750000e+03) (69, -1.42357043457031250000e+03) (70, -1.36972619628906250000e+03) (71, -1.48841198730468750000e+03) (72, -1.47348718261718750000e+03) (73, -6.66168151855468750000e+02) (74, 4.02011680603027343750e+01) (75, 1.50000000000000000000e+03) (76, 1.50000000000000000000e+03) (77, 1.50000000000000000000e+03) (78, 1.50000000000000000000e+03) (79, 1.50000000000000000000e+03) (80, 1.50000000000000000000e+03) (81, 1.50000000000000000000e+03) (82, 1.50000000000000000000e+03) (83, 1.50000000000000000000e+03) (84, 1.50000000000000000000e+03) (85, 1.50000000000000000000e+03) (86, 1.50000000000000000000e+03) (87, 1.50000000000000000000e+03) (88, 1.50000000000000000000e+03) (89, 1.50000000000000000000e+03) (90, 1.50000000000000000000e+03) (91, 1.50000000000000000000e+03) (92, 1.50000000000000000000e+03) (93, 1.50000000000000000000e+03) (94, 1.50000000000000000000e+03) (95, 1.50000000000000000000e+03) (96, 1.50000000000000000000e+03) (97, 1.50000000000000000000e+03) (98, 1.50000000000000000000e+03) (99, 1.50000000000000000000e+03) (100, 1.50000000000000000000e+03) (101, 1.50000000000000000000e+03) (102, 1.50000000000000000000e+03) (103, 1.50000000000000000000e+03) (104, 1.50000000000000000000e+03) (105, -1.48457934570312500000e+03) (106, -1.49974108886718750000e+03) (107, -1.50000000000000000000e+03) (108, -1.42782153320312500000e+03) (109, -1.33588513183593750000e+03) (110, -1.44270471191406250000e+03) (111, -1.48385461425781250000e+03) (112, -1.50000000000000000000e+03) (113, -1.49977185058593750000e+03) (114, -1.50000000000000000000e+03) (115, -1.50000000000000000000e+03) (116, -1.50000000000000000000e+03) (117, -1.50000000000000000000e+03) (118, -1.50000000000000000000e+03) (119, -1.11439483642578125000e+02) (120, 1.50000000000000000000e+03) (121, 1.50000000000000000000e+03) (122, 1.50000000000000000000e+03) (123, 1.50000000000000000000e+03) (124, 1.50000000000000000000e+03) (125, 1.50000000000000000000e+03) (126, 1.50000000000000000000e+03) (127, 1.50000000000000000000e+03) (128, 1.50000000000000000000e+03) (129, 1.50000000000000000000e+03) (130, 1.50000000000000000000e+03) (131, 1.50000000000000000000e+03) (132, 1.50000000000000000000e+03) (133, 1.50000000000000000000e+03) (134, 1.50000000000000000000e+03) (135, 1.50000000000000000000e+03) (136, 1.50000000000000000000e+03) (137, 1.50000000000000000000e+03) (138, 1.50000000000000000000e+03) (139, 1.50000000000000000000e+03) (140, 1.50000000000000000000e+03) (141, 1.50000000000000000000e+03) (142, 1.50000000000000000000e+03) (143, 1.50000000000000000000e+03) (144, 1.50000000000000000000e+03) (145, 1.50000000000000000000e+03) (146, 1.50000000000000000000e+03) (147, 1.50000000000000000000e+03) (148, 1.50000000000000000000e+03) (149, 1.50000000000000000000e+03) (150, 1.50000000000000000000e+03) (151, 1.50000000000000000000e+03) (152, 1.50000000000000000000e+03) (153, 1.50000000000000000000e+03) (154, 1.50000000000000000000e+03) (155, 1.50000000000000000000e+03) (156, 1.50000000000000000000e+03) (157, 1.50000000000000000000e+03) (158, 1.50000000000000000000e+03) (159, 1.50000000000000000000e+03) (160, 1.50000000000000000000e+03) (161, 1.50000000000000000000e+03) (162, 1.50000000000000000000e+03) (163, 1.50000000000000000000e+03) (164, 1.50000000000000000000e+03) (165, 1.50000000000000000000e+03) (166, 1.50000000000000000000e+03) (167, 1.50000000000000000000e+03) (168, 1.50000000000000000000e+03) (169, 1.50000000000000000000e+03) (170, 1.50000000000000000000e+03) (171, 1.50000000000000000000e+03) (172, 1.50000000000000000000e+03) (173, 1.50000000000000000000e+03) (174, 1.50000000000000000000e+03) (175, 1.50000000000000000000e+03) (176, 1.50000000000000000000e+03) (177, 1.50000000000000000000e+03) (178, 1.50000000000000000000e+03) (179, 1.50000000000000000000e+03) (180, 1.50000000000000000000e+03) (181, 1.50000000000000000000e+03) (182, 1.50000000000000000000e+03) (183, 1.50000000000000000000e+03) (184, 1.50000000000000000000e+03) (185, 1.50000000000000000000e+03) (186, 1.50000000000000000000e+03) (187, 1.50000000000000000000e+03) (188, 1.50000000000000000000e+03) (189, 1.50000000000000000000e+03) (190, 1.50000000000000000000e+03) (191, 1.50000000000000000000e+03) (192, 1.50000000000000000000e+03) (193, 1.50000000000000000000e+03) (194, 1.50000000000000000000e+03) (195, 1.50000000000000000000e+03) (196, 1.50000000000000000000e+03) (197, 1.50000000000000000000e+03) (198, 1.50000000000000000000e+03) (199, 1.50000000000000000000e+03) (200, 1.50000000000000000000e+03) (201, 1.50000000000000000000e+03) (202, 1.50000000000000000000e+03) (203, 1.50000000000000000000e+03) (204, 1.50000000000000000000e+03) (205, 1.50000000000000000000e+03) (206, 1.50000000000000000000e+03) (207, 1.50000000000000000000e+03) (208, 1.50000000000000000000e+03) (209, 1.50000000000000000000e+03) (210, 1.50000000000000000000e+03) (211, 1.50000000000000000000e+03) (212, 1.50000000000000000000e+03) (213, 1.50000000000000000000e+03) (214, 1.50000000000000000000e+03) (215, 1.50000000000000000000e+03) (216, 1.50000000000000000000e+03) (217, 1.50000000000000000000e+03) (218, 1.50000000000000000000e+03) (219, 1.50000000000000000000e+03) (220, 1.50000000000000000000e+03) (221, 1.50000000000000000000e+03) (222, 1.50000000000000000000e+03) (223, 1.50000000000000000000e+03) (224, 1.50000000000000000000e+03) (225, 1.50000000000000000000e+03) (226, 1.50000000000000000000e+03) (227, 1.50000000000000000000e+03) (228, 1.50000000000000000000e+03) (229, 1.50000000000000000000e+03) (230, 1.50000000000000000000e+03) (231, 1.50000000000000000000e+03) (232, 1.50000000000000000000e+03) (233, 1.50000000000000000000e+03) (234, 1.50000000000000000000e+03) (235, 1.50000000000000000000e+03) (236, 1.50000000000000000000e+03) (237, 1.45000000000000000000e+03) (238, 1.50000000000000000000e+03) (239, -7.00000000000000000000e+02) (240, -1.49998876953125000000e+03) (241, -1.50000000000000000000e+03) (242, -1.41458129882812500000e+03) (243, -1.47904760742187500000e+03) (244, -1.20945642089843750000e+03) (245, -1.47353320312500000000e+03) (246, -1.47960241699218750000e+03) (247, -1.48315576171875000000e+03) (248, -1.27202294921875000000e+03) (249, -1.43685937500000000000e+03) (250, -1.50000000000000000000e+03) (251, -1.46799682617187500000e+03) (252, -1.49948083496093750000e+03) (253, -1.34660461425781250000e+03) (254, -1.48460827636718750000e+03) (255, -1.46471203613281250000e+03) (256, -1.47280798339843750000e+03) (257, -1.42445434570312500000e+03) (258, -1.49349597167968750000e+03) (259, -1.49618615722656250000e+03) (260, -1.46404064941406250000e+03) (261, -1.34136462402343750000e+03) (262, -1.49960144042968750000e+03) (263, -1.45832141113281250000e+03) (264, -1.49983117675781250000e+03) (265, -1.50000000000000000000e+03) (266, -1.50000000000000000000e+03) (267, -1.50000000000000000000e+03) (268, -1.50000000000000000000e+03) (269, -1.50000000000000000000e+03) (270, -1.50000000000000000000e+03) (271, -1.50000000000000000000e+03) (272, -1.50000000000000000000e+03) (273, -1.50000000000000000000e+03) (274, -1.50000000000000000000e+03) (275, -1.50000000000000000000e+03) (276, -1.42847570800781250000e+03) (277, -1.42847570800781250000e+03) (278, -1.50000000000000000000e+03) (279, -1.50000000000000000000e+03) (280, -1.50000000000000000000e+03) (281, -1.50000000000000000000e+03) (282, -1.44312805175781250000e+03) (283, -1.50000000000000000000e+03) (284, -1.50000000000000000000e+03) (285, 1.50000000000000000000e+03) (286, 1.50000000000000000000e+03) (287, 1.50000000000000000000e+03) (288, 1.50000000000000000000e+03) (289, 1.50000000000000000000e+03) (290, 1.50000000000000000000e+03) (291, 1.50000000000000000000e+03) (292, 1.50000000000000000000e+03) (293, 1.50000000000000000000e+03) (294, 1.50000000000000000000e+03) (295, 1.50000000000000000000e+03) (296, 1.50000000000000000000e+03) (297, 1.50000000000000000000e+03) (298, 1.50000000000000000000e+03) (299, 1.50000000000000000000e+03) (300, 1.50000000000000000000e+03) (301, 1.50000000000000000000e+03) (302, 1.50000000000000000000e+03) (303, 1.50000000000000000000e+03) (304, 1.50000000000000000000e+03) (305, 1.50000000000000000000e+03) (306, 1.50000000000000000000e+03) (307, -1.43376855468750000000e+03) (308, -1.50000000000000000000e+03) (0, -9.40607666015625000000e+02) (1, 1.50000000000000000000e+03) (2, 1.50000000000000000000e+03) (3, 1.50000000000000000000e+03) (4, 8.41665649414062500000e+02) (5, 6.17837341308593750000e+02) (6, 1.50000000000000000000e+03) (7, 1.50000000000000000000e+03) (8, 5.97673278808593750000e+02) (9, 1.47459228515625000000e+03) (10, -1.48617285156250000000e+03) (11, -1.49965344238281250000e+03) (12, -1.44239746093750000000e+03) (13, -1.50000000000000000000e+03) (14, -1.50000000000000000000e+03) (15, -1.50000000000000000000e+03) (16, -1.50000000000000000000e+03) (17, -1.50000000000000000000e+03) (18, -1.50000000000000000000e+03) (19, -1.50000000000000000000e+03) (20, -1.50000000000000000000e+03) (21, -1.50000000000000000000e+03) (22, -1.50000000000000000000e+03) (23, -1.40709118652343750000e+03) (24, -1.48249169921875000000e+03) (25, -1.49331164550781250000e+03) (26, -1.49424401855468750000e+03) (27, -1.49986364746093750000e+03) (28, -1.49698266601562500000e+03) (29, -1.50000000000000000000e+03) (30, -1.04773547363281250000e+03) (31, -1.38092565917968750000e+03) (32, -1.39105920410156250000e+03) (33, 1.50000000000000000000e+03) (34, -2.42583618164062500000e+02) (35, 1.50000000000000000000e+03) (36, 6.26354248046875000000e+02) (37, -8.40676086425781250000e+02) (38, -3.47906372070312500000e+02) (39, 1.50000000000000000000e+03) (40, 1.50000000000000000000e+03) (41, 1.50000000000000000000e+03) (42, 1.50000000000000000000e+03) (43, 1.50000000000000000000e+03) (44, 1.50000000000000000000e+03) (45, -1.43376855468750000000e+03) (46, 1.50000000000000000000e+03) (47, 1.50000000000000000000e+03) (48, 1.50000000000000000000e+03) (49, 1.50000000000000000000e+03) (50, 1.50000000000000000000e+03) (51, 1.50000000000000000000e+03) (52, 1.50000000000000000000e+03) (53, 1.50000000000000000000e+03) (54, 1.50000000000000000000e+03) (55, 1.50000000000000000000e+03) (56, 1.50000000000000000000e+03) (57, 1.50000000000000000000e+03) (58, 1.50000000000000000000e+03) (59, 1.50000000000000000000e+03) (60, -1.33622680664062500000e+03) (61, -1.49399597167968750000e+03) (62, -1.18865014648437500000e+03) (63, -1.49946887207031250000e+03) (64, -1.46357189941406250000e+03) (65, -1.27311083984375000000e+03) (66, -1.50000000000000000000e+03) (67, -1.50000000000000000000e+03) (68, -1.45443151855468750000e+03) (69, -1.42357043457031250000e+03) (70, -1.36972619628906250000e+03) (71, -1.48841198730468750000e+03) (72, -1.47348718261718750000e+03) (73, -6.66168151855468750000e+02) (74, 4.02011680603027343750e+01) (75, 1.50000000000000000000e+03) (76, 1.50000000000000000000e+03) (77, 1.50000000000000000000e+03) (78, 1.50000000000000000000e+03) (79, 1.50000000000000000000e+03) (80, 1.50000000000000000000e+03) (81, 1.50000000000000000000e+03) (82, 1.50000000000000000000e+03) (83, 1.50000000000000000000e+03) (84, 1.50000000000000000000e+03) (85, 1.50000000000000000000e+03) (86, 1.50000000000000000000e+03) (87, 1.50000000000000000000e+03) (88, 1.50000000000000000000e+03) (89, 1.50000000000000000000e+03) (90, 1.50000000000000000000e+03) (91, 1.50000000000000000000e+03) (92, 1.50000000000000000000e+03) (93, 1.50000000000000000000e+03) (94, 1.50000000000000000000e+03) (95, 1.50000000000000000000e+03) (96, 1.50000000000000000000e+03) (97, 1.50000000000000000000e+03) (98, 1.50000000000000000000e+03) (99, 1.50000000000000000000e+03) (100, 1.50000000000000000000e+03) (101, 1.50000000000000000000e+03) (102, 1.50000000000000000000e+03) (103, 1.50000000000000000000e+03) (104, 1.50000000000000000000e+03) (105, -1.48457934570312500000e+03) (106, -1.49974108886718750000e+03) (107, -1.50000000000000000000e+03) (108, -1.42782153320312500000e+03) (109, -1.33588513183593750000e+03) (110, -1.44270471191406250000e+03) (111, -1.48385461425781250000e+03) (112, -1.50000000000000000000e+03) (113, -1.49977185058593750000e+03) (114, -1.50000000000000000000e+03) (115, -1.50000000000000000000e+03) (116, -1.50000000000000000000e+03) (117, -1.50000000000000000000e+03) (118, -1.50000000000000000000e+03) (119, -1.11439483642578125000e+02) (120, 1.50000000000000000000e+03) (121, 1.50000000000000000000e+03) (122, 1.50000000000000000000e+03) (123, 1.50000000000000000000e+03) (124, 1.50000000000000000000e+03) (125, 1.50000000000000000000e+03) (126, 1.50000000000000000000e+03) (127, 1.50000000000000000000e+03) (128, 1.50000000000000000000e+03) (129, 1.50000000000000000000e+03) (130, 1.50000000000000000000e+03) (131, 1.50000000000000000000e+03) (132, 1.50000000000000000000e+03) (133, 1.50000000000000000000e+03) (134, 1.50000000000000000000e+03) (135, 1.50000000000000000000e+03) (136, 1.50000000000000000000e+03) (137, 1.50000000000000000000e+03) (138, 1.50000000000000000000e+03) (139, 1.50000000000000000000e+03) (140, 1.50000000000000000000e+03) (141, 1.50000000000000000000e+03) (142, 1.50000000000000000000e+03) (143, 1.50000000000000000000e+03) (144, 1.50000000000000000000e+03) (145, 1.50000000000000000000e+03) (146, 1.50000000000000000000e+03) (147, 1.50000000000000000000e+03) (148, 1.50000000000000000000e+03) (149, 1.50000000000000000000e+03) (150, 1.50000000000000000000e+03) (151, 1.50000000000000000000e+03) (152, 1.50000000000000000000e+03) (153, 1.50000000000000000000e+03) (154, 1.50000000000000000000e+03) (155, 1.50000000000000000000e+03) (156, 1.50000000000000000000e+03) (157, 1.50000000000000000000e+03) (158, 1.50000000000000000000e+03) (159, 1.50000000000000000000e+03) (160, 1.50000000000000000000e+03) (161, 1.50000000000000000000e+03) (162, 1.50000000000000000000e+03) (163, 1.50000000000000000000e+03) (164, 1.50000000000000000000e+03) (165, 1.50000000000000000000e+03) (166, 1.50000000000000000000e+03) (167, 1.50000000000000000000e+03) (168, 1.50000000000000000000e+03) (169, 1.50000000000000000000e+03) (170, 1.50000000000000000000e+03) (171, 1.50000000000000000000e+03) (172, 1.50000000000000000000e+03) (173, 1.50000000000000000000e+03) (174, 1.50000000000000000000e+03) (175, 1.50000000000000000000e+03) (176, 1.50000000000000000000e+03) (177, 1.50000000000000000000e+03) (178, 1.50000000000000000000e+03) (179, 1.50000000000000000000e+03) (180, 1.50000000000000000000e+03) (181, 1.50000000000000000000e+03) (182, 1.50000000000000000000e+03) (183, 1.50000000000000000000e+03) (184, 1.50000000000000000000e+03) (185, 1.50000000000000000000e+03) (186, 1.50000000000000000000e+03) (187, 1.50000000000000000000e+03) (188, 1.50000000000000000000e+03) (189, 1.50000000000000000000e+03) (190, 1.50000000000000000000e+03) (191, 1.50000000000000000000e+03) (192, 1.50000000000000000000e+03) (193, 1.50000000000000000000e+03) (194, 1.50000000000000000000e+03) (195, 1.50000000000000000000e+03) (196, 1.50000000000000000000e+03) (197, 1.50000000000000000000e+03) (198, 1.50000000000000000000e+03) (199, 1.50000000000000000000e+03) (200, 1.50000000000000000000e+03) (201, 1.50000000000000000000e+03) (202, 1.50000000000000000000e+03) (203, 1.50000000000000000000e+03) (204, 1.50000000000000000000e+03) (205, 1.50000000000000000000e+03) (206, 1.50000000000000000000e+03) (207, 1.50000000000000000000e+03) (208, 1.50000000000000000000e+03) (209, 1.50000000000000000000e+03) (210, 1.50000000000000000000e+03) (211, 1.50000000000000000000e+03) (212, 1.50000000000000000000e+03) (213, 1.50000000000000000000e+03) (214, 1.50000000000000000000e+03) (215, 1.50000000000000000000e+03) (216, 1.50000000000000000000e+03) (217, 1.50000000000000000000e+03) (218, 1.50000000000000000000e+03) (219, 1.50000000000000000000e+03) (220, 1.50000000000000000000e+03) (221, 1.50000000000000000000e+03) (222, 1.50000000000000000000e+03) (223, 1.50000000000000000000e+03) (224, 1.50000000000000000000e+03) (225, 1.50000000000000000000e+03) (226, 1.50000000000000000000e+03) (227, 1.50000000000000000000e+03) (228, 1.50000000000000000000e+03) (229, 1.50000000000000000000e+03) (230, 1.50000000000000000000e+03) (231, 1.50000000000000000000e+03) (232, 1.50000000000000000000e+03) (233, 1.50000000000000000000e+03) (234, 1.50000000000000000000e+03) (235, 1.50000000000000000000e+03) (236, 1.50000000000000000000e+03) (237, 1.45000000000000000000e+03) (238, 1.50000000000000000000e+03) (239, -7.00000000000000000000e+02) (240, -1.49998876953125000000e+03) (241, -1.50000000000000000000e+03) (242, -1.41458129882812500000e+03) (243, -1.47904760742187500000e+03) (244, -1.20945642089843750000e+03) (245, -1.47353320312500000000e+03) (246, -1.47960241699218750000e+03) (247, -1.48315576171875000000e+03) (248, -1.27202294921875000000e+03) (249, -1.43685937500000000000e+03) (250, -1.50000000000000000000e+03) (251, -1.46799682617187500000e+03) (252, -1.49948083496093750000e+03) (253, -1.34660461425781250000e+03) (254, -1.48460827636718750000e+03) (255, -1.46471203613281250000e+03) (256, -1.47280798339843750000e+03) (257, -1.42445434570312500000e+03) (258, -1.49349597167968750000e+03) (259, -1.49618615722656250000e+03) (260, -1.46404064941406250000e+03) (261, -1.34136462402343750000e+03) (262, -1.49960144042968750000e+03) (263, -1.45832141113281250000e+03) (264, -1.49983117675781250000e+03) (265, -1.50000000000000000000e+03) (266, -1.50000000000000000000e+03) (267, -1.50000000000000000000e+03) (268, -1.50000000000000000000e+03) (269, -1.50000000000000000000e+03) (270, -1.50000000000000000000e+03) (271, -1.50000000000000000000e+03) (272, -1.50000000000000000000e+03) (273, -1.50000000000000000000e+03) (274, -1.50000000000000000000e+03) (275, -1.50000000000000000000e+03) (276, -1.42847570800781250000e+03) (277, -1.42847570800781250000e+03) (278, -1.50000000000000000000e+03) (279, -1.50000000000000000000e+03) (280, -1.50000000000000000000e+03) (281, -1.50000000000000000000e+03) (282, -1.44312805175781250000e+03) (283, -1.50000000000000000000e+03) (284, -1.50000000000000000000e+03) (285, 1.50000000000000000000e+03) (286, 1.50000000000000000000e+03) (287, 1.50000000000000000000e+03) (288, 1.50000000000000000000e+03) (289, 1.50000000000000000000e+03) (290, 1.50000000000000000000e+03) (291, 1.50000000000000000000e+03) (292, 1.50000000000000000000e+03) (293, 1.50000000000000000000e+03) (294, 1.50000000000000000000e+03) (295, 1.50000000000000000000e+03) (296, 1.50000000000000000000e+03) (297, 1.50000000000000000000e+03) (298, 1.50000000000000000000e+03) (299, 1.50000000000000000000e+03) (300, 1.50000000000000000000e+03) (301, 1.50000000000000000000e+03) (302, 1.50000000000000000000e+03) (303, 1.50000000000000000000e+03) (304, 1.50000000000000000000e+03) (305, 1.50000000000000000000e+03) (306, 1.50000000000000000000e+03) (307, -1.43376855468750000000e+03) (308, -1.50000000000000000000e+03) (0, -9.40607666015625000000e+02) (1, 1.50000000000000000000e+03) (2, 1.50000000000000000000e+03) (3, 1.50000000000000000000e+03) (4, 8.41665649414062500000e+02) (5, 6.17837341308593750000e+02) (6, 1.50000000000000000000e+03) (7, 1.50000000000000000000e+03) (8, 5.97673278808593750000e+02) (9, 1.47459228515625000000e+03) (10, -1.48617285156250000000e+03) (11, -1.49965344238281250000e+03) (12, -1.44239746093750000000e+03) (13, -1.50000000000000000000e+03) (14, -1.50000000000000000000e+03) (15, -1.50000000000000000000e+03) (16, -1.50000000000000000000e+03) (17, -1.50000000000000000000e+03) (18, -1.50000000000000000000e+03) (19, -1.50000000000000000000e+03) (20, -1.50000000000000000000e+03) (21, -1.50000000000000000000e+03) (22, -1.50000000000000000000e+03) (23, -1.40709118652343750000e+03) (24, -1.48249169921875000000e+03) (25, -1.49331164550781250000e+03) (26, -1.49424401855468750000e+03) (27, -1.49986364746093750000e+03) (28, -1.49698266601562500000e+03) (29, -1.50000000000000000000e+03) (30, -1.04773547363281250000e+03) (31, -1.38092565917968750000e+03) (32, -1.39105920410156250000e+03) (33, 1.50000000000000000000e+03) (34, -2.42583618164062500000e+02) (35, 1.50000000000000000000e+03) (36, 6.26354248046875000000e+02) (37, -8.40676086425781250000e+02) (38, -3.47906372070312500000e+02) (39, 1.50000000000000000000e+03) (40, 1.50000000000000000000e+03) (41, 1.50000000000000000000e+03) (42, 1.50000000000000000000e+03) (43, 1.50000000000000000000e+03) (44, 1.50000000000000000000e+03) (45, -1.43376855468750000000e+03) (46, 1.50000000000000000000e+03) (47, 1.50000000000000000000e+03) (48, 1.50000000000000000000e+03) (49, 1.50000000000000000000e+03) (50, 1.50000000000000000000e+03) (51, 1.50000000000000000000e+03) (52, 1.50000000000000000000e+03) (53, 1.50000000000000000000e+03) (54, 1.50000000000000000000e+03) (55, 1.50000000000000000000e+03) (56, 1.50000000000000000000e+03) (57, 1.50000000000000000000e+03) (58, 1.50000000000000000000e+03) (59, 1.50000000000000000000e+03) (60, -1.33622680664062500000e+03) (61, -1.49399597167968750000e+03) (62, -1.18865014648437500000e+03) (63, -1.49946887207031250000e+03) (64, -1.46357189941406250000e+03) (65, -1.27311083984375000000e+03) (66, -1.50000000000000000000e+03) (67, -1.50000000000000000000e+03) (68, -1.45443151855468750000e+03) (69, -1.42357043457031250000e+03) (70, -1.36972619628906250000e+03) (71, -1.48841198730468750000e+03) (72, -1.47348718261718750000e+03) (73, -6.66168151855468750000e+02) (74, 4.02011680603027343750e+01) (75, 1.50000000000000000000e+03) (76, 1.50000000000000000000e+03) (77, 1.50000000000000000000e+03) (78, 1.50000000000000000000e+03) (79, 1.50000000000000000000e+03) (80, 1.50000000000000000000e+03) (81, 1.50000000000000000000e+03) (82, 1.50000000000000000000e+03) (83, 1.50000000000000000000e+03) (84, 1.50000000000000000000e+03) (85, 1.50000000000000000000e+03) (86, 1.50000000000000000000e+03) (87, 1.50000000000000000000e+03) (88, 1.50000000000000000000e+03) (89, 1.50000000000000000000e+03) (90, 1.50000000000000000000e+03) (91, 1.50000000000000000000e+03) (92, 1.50000000000000000000e+03) (93, 1.50000000000000000000e+03) (94, 1.50000000000000000000e+03) (95, 1.50000000000000000000e+03) (96, 1.50000000000000000000e+03) (97, 1.50000000000000000000e+03) (98, 1.50000000000000000000e+03) (99, 1.50000000000000000000e+03) (100, 1.50000000000000000000e+03) (101, 1.50000000000000000000e+03) (102, 1.50000000000000000000e+03) (103, 1.50000000000000000000e+03) (104, 1.50000000000000000000e+03) (105, -1.48457934570312500000e+03) (106, -1.49974108886718750000e+03) (107, -1.50000000000000000000e+03) (108, -1.42782153320312500000e+03) (109, -1.33588513183593750000e+03) (110, -1.44270471191406250000e+03) (111, -1.48385461425781250000e+03) (112, -1.50000000000000000000e+03) (113, -1.49977185058593750000e+03) (114, -1.50000000000000000000e+03) (115, -1.50000000000000000000e+03) (116, -1.50000000000000000000e+03) (117, -1.50000000000000000000e+03) (118, -1.50000000000000000000e+03) (119, -1.11439483642578125000e+02) (120, 1.50000000000000000000e+03) (121, 1.50000000000000000000e+03) (122, 1.50000000000000000000e+03) (123, 1.50000000000000000000e+03) (124, 1.50000000000000000000e+03) (125, 1.50000000000000000000e+03) (126, 1.50000000000000000000e+03) (127, 1.50000000000000000000e+03) (128, 1.50000000000000000000e+03) (129, 1.50000000000000000000e+03) (130, 1.50000000000000000000e+03) (131, 1.50000000000000000000e+03) (132, 1.50000000000000000000e+03) (133, 1.50000000000000000000e+03) (134, 1.50000000000000000000e+03) (135, 1.50000000000000000000e+03) (136, 1.50000000000000000000e+03) (137, 1.50000000000000000000e+03) (138, 1.50000000000000000000e+03) (139, 1.50000000000000000000e+03) (140, 1.50000000000000000000e+03) (141, 1.50000000000000000000e+03) (142, 1.50000000000000000000e+03) (143, 1.50000000000000000000e+03) (144, 1.50000000000000000000e+03) (145, 1.50000000000000000000e+03) (146, 1.50000000000000000000e+03) (147, 1.50000000000000000000e+03) (148, 1.50000000000000000000e+03) (149, 1.50000000000000000000e+03) (150, 1.50000000000000000000e+03) (151, 1.50000000000000000000e+03) (152, 1.50000000000000000000e+03) (153, 1.50000000000000000000e+03) (154, 1.50000000000000000000e+03) (155, 1.50000000000000000000e+03) (156, 1.50000000000000000000e+03) (157, 1.50000000000000000000e+03) (158, 1.50000000000000000000e+03) (159, 1.50000000000000000000e+03) (160, 1.50000000000000000000e+03) (161, 1.50000000000000000000e+03) (162, 1.50000000000000000000e+03) (163, 1.50000000000000000000e+03) (164, 1.50000000000000000000e+03) (165, 1.50000000000000000000e+03) (166, 1.50000000000000000000e+03) (167, 1.50000000000000000000e+03) (168, 1.50000000000000000000e+03) (169, 1.50000000000000000000e+03) (170, 1.50000000000000000000e+03) (171, 1.50000000000000000000e+03) (172, 1.50000000000000000000e+03) (173, 1.50000000000000000000e+03) (174, 1.50000000000000000000e+03) (175, 1.50000000000000000000e+03) (176, 1.50000000000000000000e+03) (177, 1.50000000000000000000e+03) (178, 1.50000000000000000000e+03) (179, 1.50000000000000000000e+03) (180, 1.50000000000000000000e+03) (181, 1.50000000000000000000e+03) (182, 1.50000000000000000000e+03) (183, 1.50000000000000000000e+03) (184, 1.50000000000000000000e+03) (185, 1.50000000000000000000e+03) (186, 1.50000000000000000000e+03) (187, 1.50000000000000000000e+03) (188, 1.50000000000000000000e+03) (189, 1.50000000000000000000e+03) (190, 1.50000000000000000000e+03) (191, 1.50000000000000000000e+03) (192, 1.50000000000000000000e+03) (193, 1.50000000000000000000e+03) (194, 1.50000000000000000000e+03) (195, 1.50000000000000000000e+03) (196, 1.50000000000000000000e+03) (197, 1.50000000000000000000e+03) (198, 1.50000000000000000000e+03) (199, 1.50000000000000000000e+03) (200, 1.50000000000000000000e+03) (201, 1.50000000000000000000e+03) (202, 1.50000000000000000000e+03) (203, 1.50000000000000000000e+03) (204, 1.50000000000000000000e+03) (205, 1.50000000000000000000e+03) (206, 1.50000000000000000000e+03) (207, 1.50000000000000000000e+03) (208, 1.50000000000000000000e+03) (209, 1.50000000000000000000e+03) (210, 1.50000000000000000000e+03) (211, 1.50000000000000000000e+03) (212, 1.50000000000000000000e+03) (213, 1.50000000000000000000e+03) (214, 1.50000000000000000000e+03) (215, 1.50000000000000000000e+03) (216, 1.50000000000000000000e+03) (217, 1.50000000000000000000e+03) (218, 1.50000000000000000000e+03) (219, 1.50000000000000000000e+03) (220, 1.50000000000000000000e+03) (221, 1.50000000000000000000e+03) (222, 1.50000000000000000000e+03) (223, 1.50000000000000000000e+03) (224, 1.50000000000000000000e+03) (225, 1.50000000000000000000e+03) (226, 1.50000000000000000000e+03) (227, 1.50000000000000000000e+03) (228, 1.50000000000000000000e+03) (229, 1.50000000000000000000e+03) (230, 1.50000000000000000000e+03) (231, 1.50000000000000000000e+03) (232, 1.50000000000000000000e+03) (233, 1.50000000000000000000e+03) (234, 1.50000000000000000000e+03) (235, 1.50000000000000000000e+03) (236, 1.50000000000000000000e+03) (237, 1.45000000000000000000e+03) (238, 1.50000000000000000000e+03) (239, -7.00000000000000000000e+02) (240, -1.49998876953125000000e+03) (241, -1.50000000000000000000e+03) (242, -1.41458129882812500000e+03) (243, -1.47904760742187500000e+03) (244, -1.20945642089843750000e+03) (245, -1.47353320312500000000e+03) (246, -1.47960241699218750000e+03) (247, -1.48315576171875000000e+03) (248, -1.27202294921875000000e+03) (249, -1.43685937500000000000e+03) (250, -1.50000000000000000000e+03) (251, -1.46799682617187500000e+03) (252, -1.49948083496093750000e+03) (253, -1.34660461425781250000e+03) (254, -1.48460827636718750000e+03) (255, -1.46471203613281250000e+03) (256, -1.47280798339843750000e+03) (257, -1.42445434570312500000e+03) (258, -1.49349597167968750000e+03) (259, -1.49618615722656250000e+03) (260, -1.46404064941406250000e+03) (261, -1.34136462402343750000e+03) (262, -1.49960144042968750000e+03) (263, -1.45832141113281250000e+03) (264, -1.49983117675781250000e+03) (265, -1.50000000000000000000e+03) (266, -1.50000000000000000000e+03) (267, -1.50000000000000000000e+03) (268, -1.50000000000000000000e+03) (269, -1.50000000000000000000e+03) (270, -1.50000000000000000000e+03) (271, -1.50000000000000000000e+03) (272, -1.50000000000000000000e+03) (273, -1.50000000000000000000e+03) (274, -1.50000000000000000000e+03) (275, -1.50000000000000000000e+03) (276, -1.42847570800781250000e+03) (277, -1.42847570800781250000e+03) (278, -1.50000000000000000000e+03) (279, -1.50000000000000000000e+03) (280, -1.50000000000000000000e+03) (281, -1.50000000000000000000e+03) (282, -1.44312805175781250000e+03) (283, -1.50000000000000000000e+03) (284, -1.50000000000000000000e+03) (285, 1.50000000000000000000e+03) (286, 1.50000000000000000000e+03) (287, 1.50000000000000000000e+03) (288, 1.50000000000000000000e+03) (289, 1.50000000000000000000e+03) (290, 1.50000000000000000000e+03) (291, 1.50000000000000000000e+03) (292, 1.50000000000000000000e+03) (293, 1.50000000000000000000e+03) (294, 1.50000000000000000000e+03) (295, 1.50000000000000000000e+03) (296, 1.50000000000000000000e+03) (297, 1.50000000000000000000e+03) (298, 1.50000000000000000000e+03) (299, 1.50000000000000000000e+03) (300, 1.50000000000000000000e+03) (301, 1.50000000000000000000e+03) (302, 1.50000000000000000000e+03) (303, 1.50000000000000000000e+03) (304, 1.50000000000000000000e+03) (305, 1.50000000000000000000e+03) (306, 1.50000000000000000000e+03) (307, -1.43376855468750000000e+03) (308, -1.50000000000000000000e+03) (0, -9.40607666015625000000e+02) (1, 1.50000000000000000000e+03) (2, 1.50000000000000000000e+03) (3, 1.50000000000000000000e+03) (4, 8.41665649414062500000e+02) (5, 6.17837341308593750000e+02) (6, 1.50000000000000000000e+03) (7, 1.50000000000000000000e+03) (8, 5.97673278808593750000e+02) (9, 1.47459228515625000000e+03) (10, -1.48617285156250000000e+03) (11, -1.49965344238281250000e+03) (12, -1.44239746093750000000e+03) (13, -1.50000000000000000000e+03) (14, -1.50000000000000000000e+03) (15, -1.50000000000000000000e+03) (16, -1.50000000000000000000e+03) (17, -1.50000000000000000000e+03) (18, -1.50000000000000000000e+03) (19, -1.50000000000000000000e+03) (20, -1.50000000000000000000e+03) (21, -1.50000000000000000000e+03) (22, -1.50000000000000000000e+03) (23, -1.40709118652343750000e+03) (24, -1.48249169921875000000e+03) (25, -1.49331164550781250000e+03) (26, -1.49424401855468750000e+03) (27, -1.49986364746093750000e+03) (28, -1.49698266601562500000e+03) (29, -1.50000000000000000000e+03) (30, -1.04773547363281250000e+03) (31, -1.38092565917968750000e+03) (32, -1.39105920410156250000e+03) (33, 1.50000000000000000000e+03) (34, -2.42583618164062500000e+02) (35, 1.50000000000000000000e+03) (36, 6.26354248046875000000e+02) (37, -8.40676086425781250000e+02) (38, -3.47906372070312500000e+02) (39, 1.50000000000000000000e+03) (40, 1.50000000000000000000e+03) (41, 1.50000000000000000000e+03) (42, 1.50000000000000000000e+03) (43, 1.50000000000000000000e+03) (44, 1.50000000000000000000e+03) (45, -1.43376855468750000000e+03) (46, 1.50000000000000000000e+03) (47, 1.50000000000000000000e+03) (48, 1.50000000000000000000e+03) (49, 1.50000000000000000000e+03) (50, 1.50000000000000000000e+03) (51, 1.50000000000000000000e+03) (52, 1.50000000000000000000e+03) (53, 1.50000000000000000000e+03) (54, 1.50000000000000000000e+03) (55, 1.50000000000000000000e+03) (56, 1.50000000000000000000e+03) (57, 1.50000000000000000000e+03) (58, 1.50000000000000000000e+03) (59, 1.50000000000000000000e+03) (60, -1.33622680664062500000e+03) (61, -1.49399597167968750000e+03) (62, -1.18865014648437500000e+03) (63, -1.49946887207031250000e+03) (64, -1.46357189941406250000e+03) (65, -1.27311083984375000000e+03) (66, -1.50000000000000000000e+03) (67, -1.50000000000000000000e+03) (68, -1.45443151855468750000e+03) (69, -1.42357043457031250000e+03) (70, -1.36972619628906250000e+03) (71, -1.48841198730468750000e+03) (72, -1.47348718261718750000e+03) (73, -6.66168151855468750000e+02) (74, 4.02011680603027343750e+01) (75, 1.50000000000000000000e+03) (76, 1.50000000000000000000e+03) (77, 1.50000000000000000000e+03) (78, 1.50000000000000000000e+03) (79, 1.50000000000000000000e+03) (80, 1.50000000000000000000e+03) (81, 1.50000000000000000000e+03) (82, 1.50000000000000000000e+03) (83, 1.50000000000000000000e+03) (84, 1.50000000000000000000e+03) (85, 1.50000000000000000000e+03) (86, 1.50000000000000000000e+03) (87, 1.50000000000000000000e+03) (88, 1.50000000000000000000e+03) (89, 1.50000000000000000000e+03) (90, 1.50000000000000000000e+03) (91, 1.50000000000000000000e+03) (92, 1.50000000000000000000e+03) (93, 1.50000000000000000000e+03) (94, 1.50000000000000000000e+03) (95, 1.50000000000000000000e+03) (96, 1.50000000000000000000e+03) (97, 1.50000000000000000000e+03) (98, 1.50000000000000000000e+03) (99, 1.50000000000000000000e+03) (100, 1.50000000000000000000e+03) (101, 1.50000000000000000000e+03) (102, 1.50000000000000000000e+03) (103, 1.50000000000000000000e+03) (104, 1.50000000000000000000e+03) (105, -1.48457934570312500000e+03) (106, -1.49974108886718750000e+03) (107, -1.50000000000000000000e+03) (108, -1.42782153320312500000e+03) (109, -1.33588513183593750000e+03) (110, -1.44270471191406250000e+03) (111, -1.48385461425781250000e+03) (112, -1.50000000000000000000e+03) (113, -1.49977185058593750000e+03) (114, -1.50000000000000000000e+03) (115, -1.50000000000000000000e+03) (116, -1.50000000000000000000e+03) (117, -1.50000000000000000000e+03) (118, -1.50000000000000000000e+03) (119, -1.11439483642578125000e+02) (120, 1.50000000000000000000e+03) (121, 1.50000000000000000000e+03) (122, 1.50000000000000000000e+03) (123, 1.50000000000000000000e+03) (124, 1.50000000000000000000e+03) (125, 1.50000000000000000000e+03) (126, 1.50000000000000000000e+03) (127, 1.50000000000000000000e+03) (128, 1.50000000000000000000e+03) (129, 1.50000000000000000000e+03) (130, 1.50000000000000000000e+03) (131, 1.50000000000000000000e+03) (132, 1.50000000000000000000e+03) (133, 1.50000000000000000000e+03) (134, 1.50000000000000000000e+03) (135, 1.50000000000000000000e+03) (136, 1.50000000000000000000e+03) (137, 1.50000000000000000000e+03) (138, 1.50000000000000000000e+03) (139, 1.50000000000000000000e+03) (140, 1.50000000000000000000e+03) (141, 1.50000000000000000000e+03) (142, 1.50000000000000000000e+03) (143, 1.50000000000000000000e+03) (144, 1.50000000000000000000e+03) (145, 1.50000000000000000000e+03) (146, 1.50000000000000000000e+03) (147, 1.50000000000000000000e+03) (148, 1.50000000000000000000e+03) (149, 1.50000000000000000000e+03) (150, 1.50000000000000000000e+03) (151, 1.50000000000000000000e+03) (152, 1.50000000000000000000e+03) (153, 1.50000000000000000000e+03) (154, 1.50000000000000000000e+03) (155, 1.50000000000000000000e+03) (156, 1.50000000000000000000e+03) (157, 1.50000000000000000000e+03) (158, 1.50000000000000000000e+03) (159, 1.50000000000000000000e+03) (160, 1.50000000000000000000e+03) (161, 1.50000000000000000000e+03) (162, 1.50000000000000000000e+03) (163, 1.50000000000000000000e+03) (164, 1.50000000000000000000e+03) (165, 1.50000000000000000000e+03) (166, 1.50000000000000000000e+03) (167, 1.50000000000000000000e+03) (168, 1.50000000000000000000e+03) (169, 1.50000000000000000000e+03) (170, 1.50000000000000000000e+03) (171, 1.50000000000000000000e+03) (172, 1.50000000000000000000e+03) (173, 1.50000000000000000000e+03) (174, 1.50000000000000000000e+03) (175, 1.50000000000000000000e+03) (176, 1.50000000000000000000e+03) (177, 1.50000000000000000000e+03) (178, 1.50000000000000000000e+03) (179, 1.50000000000000000000e+03) (180, 1.50000000000000000000e+03) (181, 1.50000000000000000000e+03) (182, 1.50000000000000000000e+03) (183, 1.50000000000000000000e+03) (184, 1.50000000000000000000e+03) (185, 1.50000000000000000000e+03) (186, 1.50000000000000000000e+03) (187, 1.50000000000000000000e+03) (188, 1.50000000000000000000e+03) (189, 1.50000000000000000000e+03) (190, 1.50000000000000000000e+03) (191, 1.50000000000000000000e+03) (192, 1.50000000000000000000e+03) (193, 1.50000000000000000000e+03) (194, 1.50000000000000000000e+03) (195, 1.50000000000000000000e+03) (196, 1.50000000000000000000e+03) (197, 1.50000000000000000000e+03) (198, 1.50000000000000000000e+03) (199, 1.50000000000000000000e+03) (200, 1.50000000000000000000e+03) (201, 1.50000000000000000000e+03) (202, 1.50000000000000000000e+03) (203, 1.50000000000000000000e+03) (204, 1.50000000000000000000e+03) (205, 1.50000000000000000000e+03) (206, 1.50000000000000000000e+03) (207, 1.50000000000000000000e+03) (208, 1.50000000000000000000e+03) (209, 1.50000000000000000000e+03) (210, 1.50000000000000000000e+03) (211, 1.50000000000000000000e+03) (212, 1.50000000000000000000e+03) (213, 1.50000000000000000000e+03) (214, 1.50000000000000000000e+03) (215, 1.50000000000000000000e+03) (216, 1.50000000000000000000e+03) (217, 1.50000000000000000000e+03) (218, 1.50000000000000000000e+03) (219, 1.50000000000000000000e+03) (220, 1.50000000000000000000e+03) (221, 1.50000000000000000000e+03) (222, 1.50000000000000000000e+03) (223, 1.50000000000000000000e+03) (224, 1.50000000000000000000e+03) (225, 1.50000000000000000000e+03) (226, 1.50000000000000000000e+03) (227, 1.50000000000000000000e+03) (228, 1.50000000000000000000e+03) (229, 1.50000000000000000000e+03) (230, 1.50000000000000000000e+03) (231, 1.50000000000000000000e+03) (232, 1.50000000000000000000e+03) (233, 1.50000000000000000000e+03) (234, 1.50000000000000000000e+03) (235, 1.50000000000000000000e+03) (236, 1.50000000000000000000e+03) (237, 1.45000000000000000000e+03) (238, 1.50000000000000000000e+03) (239, -7.00000000000000000000e+02) (240, -1.49998876953125000000e+03) (241, -1.50000000000000000000e+03) (242, -1.41458129882812500000e+03) (243, -1.47904760742187500000e+03) (244, -1.20945642089843750000e+03) (245, -1.47353320312500000000e+03) (246, -1.47960241699218750000e+03) (247, -1.48315576171875000000e+03) (248, -1.27202294921875000000e+03) (249, -1.43685937500000000000e+03) (250, -1.50000000000000000000e+03) (251, -1.46799682617187500000e+03) (252, -1.49948083496093750000e+03) (253, -1.34660461425781250000e+03) (254, -1.48460827636718750000e+03) (255, -1.46471203613281250000e+03) (256, -1.47280798339843750000e+03) (257, -1.42445434570312500000e+03) (258, -1.49349597167968750000e+03) (259, -1.49618615722656250000e+03) (260, -1.46404064941406250000e+03) (261, -1.34136462402343750000e+03) (262, -1.49960144042968750000e+03) (263, -1.45832141113281250000e+03) (264, -1.49983117675781250000e+03) (265, -1.50000000000000000000e+03) (266, -1.50000000000000000000e+03) (267, -1.50000000000000000000e+03) (268, -1.50000000000000000000e+03) (269, -1.50000000000000000000e+03) (270, -1.50000000000000000000e+03) (271, -1.50000000000000000000e+03) (272, -1.50000000000000000000e+03) (273, -1.50000000000000000000e+03) (274, -1.50000000000000000000e+03) (275, -1.50000000000000000000e+03) (276, -1.42847570800781250000e+03) (277, -1.42847570800781250000e+03) (278, -1.50000000000000000000e+03) (279, -1.50000000000000000000e+03) (280, -1.50000000000000000000e+03) (281, -1.50000000000000000000e+03) (282, -1.44312805175781250000e+03) (283, -1.50000000000000000000e+03) (284, -1.50000000000000000000e+03) (285, 1.50000000000000000000e+03) (286, 1.50000000000000000000e+03) (287, 1.50000000000000000000e+03) (288, 1.50000000000000000000e+03) (289, 1.50000000000000000000e+03) (290, 1.50000000000000000000e+03) (291, 1.50000000000000000000e+03) (292, 1.50000000000000000000e+03) (293, 1.50000000000000000000e+03) (294, 1.50000000000000000000e+03) (295, 1.50000000000000000000e+03) (296, 1.50000000000000000000e+03) (297, 1.50000000000000000000e+03) (298, 1.50000000000000000000e+03) (299, 1.50000000000000000000e+03) (300, 1.50000000000000000000e+03) (301, 1.50000000000000000000e+03) (302, 1.50000000000000000000e+03) (303, 1.50000000000000000000e+03) (304, 1.50000000000000000000e+03) (305, 1.50000000000000000000e+03) (306, 1.50000000000000000000e+03) (307, -1.43376855468750000000e+03) (308, -1.50000000000000000000e+03) (0, 1.50000000000000000000e+03) (1, -1.50000000000000000000e+03) (2, -1.50000000000000000000e+03) (3, -1.50000000000000000000e+03) (4, -9.77239135742187500000e+02) (5, -1.49999572753906250000e+03) (6, -1.49999572753906250000e+03) (7, 4.79297241210937500000e+02) (8, -1.49998986816406250000e+03) (9, 1.83005493164062500000e+02) (10, 1.47731335449218750000e+03) (11, 1.48874438476562500000e+03) (12, 1.33144543457031250000e+03) (13, 1.47439697265625000000e+03) (14, 1.47573010253906250000e+03) (15, 1.50000000000000000000e+03) (16, 1.50000000000000000000e+03) (17, 1.50000000000000000000e+03) (18, 1.50000000000000000000e+03) (19, 1.50000000000000000000e+03) (20, 1.50000000000000000000e+03) (21, 1.50000000000000000000e+03) (22, 1.49915527343750000000e+03) (23, 1.50000000000000000000e+03) (24, 1.50000000000000000000e+03) (25, 1.50000000000000000000e+03) (26, 1.50000000000000000000e+03) (27, 1.47552636718750000000e+03) (28, 1.49839941406250000000e+03) (29, 1.50000000000000000000e+03) (30, 1.49998840332031250000e+03) (31, 1.50000000000000000000e+03) (32, 1.49961340332031250000e+03) (33, -4.85193603515625000000e+02) (34, -1.50000000000000000000e+03) (35, -1.50000000000000000000e+03) (36, -1.48624291992187500000e+03) (37, -1.25499084472656250000e+02) (38, 2.09560302734375000000e+02) (39, -1.50000000000000000000e+03) (40, -1.50000000000000000000e+03) (41, -1.50000000000000000000e+03) (42, -1.50000000000000000000e+03) (43, -1.50000000000000000000e+03) (44, -1.50000000000000000000e+03) (45, 1.50000000000000000000e+03) (46, 1.50000000000000000000e+03) (47, 1.50000000000000000000e+03) (48, 1.50000000000000000000e+03) (49, 1.50000000000000000000e+03) (50, 1.50000000000000000000e+03) (51, 1.50000000000000000000e+03) (52, 1.50000000000000000000e+03) (53, 1.50000000000000000000e+03) (54, 1.50000000000000000000e+03) (55, 1.50000000000000000000e+03) (56, 1.50000000000000000000e+03) (57, 1.50000000000000000000e+03) (58, 1.50000000000000000000e+03) (59, 1.50000000000000000000e+03) (60, 1.49679467773437500000e+03) (61, 1.48156237792968750000e+03) (62, 1.49687316894531250000e+03) (63, 1.49981970214843750000e+03) (64, 1.50000000000000000000e+03) (65, 1.50000000000000000000e+03) (66, 1.50000000000000000000e+03) (67, 1.50000000000000000000e+03) (68, 1.50000000000000000000e+03) (69, 1.50000000000000000000e+03) (70, 1.50000000000000000000e+03) (71, 1.49891503906250000000e+03) (72, 1.49070922851562500000e+03) (73, 1.49399230957031250000e+03) (74, 1.18277966308593750000e+03) (75, 1.50000000000000000000e+03) (76, 1.50000000000000000000e+03) (77, 1.50000000000000000000e+03) (78, 1.50000000000000000000e+03) (79, 1.50000000000000000000e+03) (80, 1.50000000000000000000e+03) (81, 1.50000000000000000000e+03) (82, 1.50000000000000000000e+03) (83, 1.50000000000000000000e+03) (84, 1.50000000000000000000e+03) (85, 1.50000000000000000000e+03) (86, 1.50000000000000000000e+03) (87, 1.50000000000000000000e+03) (88, 1.50000000000000000000e+03) (89, 1.50000000000000000000e+03) (90, 1.50000000000000000000e+03) (91, 1.50000000000000000000e+03) (92, 1.50000000000000000000e+03) (93, 1.50000000000000000000e+03) (94, 1.50000000000000000000e+03) (95, 1.50000000000000000000e+03) (96, 1.50000000000000000000e+03) (97, 1.50000000000000000000e+03) (98, 1.50000000000000000000e+03) (99, 1.50000000000000000000e+03) (100, 1.50000000000000000000e+03) (101, 1.50000000000000000000e+03) (102, 1.50000000000000000000e+03) (103, 1.50000000000000000000e+03) (104, 1.50000000000000000000e+03) (105, 1.47796386718750000000e+03) (106, 1.48158813476562500000e+03) (107, 1.50000000000000000000e+03) (108, 1.50000000000000000000e+03) (109, 1.50000000000000000000e+03) (110, 1.50000000000000000000e+03) (111, 1.50000000000000000000e+03) (112, 1.50000000000000000000e+03) (113, 1.37839636230468750000e+03) (114, 1.50000000000000000000e+03) (115, 1.50000000000000000000e+03) (116, 1.50000000000000000000e+03) (117, 1.50000000000000000000e+03) (118, 1.50000000000000000000e+03) (119, 1.50000000000000000000e+03) (120, 1.50000000000000000000e+03) (121, 1.50000000000000000000e+03) (122, 1.50000000000000000000e+03) (123, 1.50000000000000000000e+03) (124, 1.50000000000000000000e+03) (125, 1.50000000000000000000e+03) (126, 1.50000000000000000000e+03) (127, 1.50000000000000000000e+03) (128, 1.50000000000000000000e+03) (129, 1.50000000000000000000e+03) (130, 1.50000000000000000000e+03) (131, 1.50000000000000000000e+03) (132, 1.50000000000000000000e+03) (133, 1.50000000000000000000e+03) (134, 1.50000000000000000000e+03) (135, 1.50000000000000000000e+03) (136, 1.50000000000000000000e+03) (137, 1.50000000000000000000e+03) (138, 1.50000000000000000000e+03) (139, 1.50000000000000000000e+03) (140, 1.50000000000000000000e+03) (141, 1.50000000000000000000e+03) (142, 1.50000000000000000000e+03) (143, 1.50000000000000000000e+03) (144, 1.50000000000000000000e+03) (145, 1.50000000000000000000e+03) (146, 1.50000000000000000000e+03) (147, 1.50000000000000000000e+03) (148, 1.50000000000000000000e+03) (149, 1.50000000000000000000e+03) (150, 1.50000000000000000000e+03) (151, 1.50000000000000000000e+03) (152, 1.50000000000000000000e+03) (153, 1.50000000000000000000e+03) (154, 1.50000000000000000000e+03) (155, 1.50000000000000000000e+03) (156, 1.50000000000000000000e+03) (157, 1.50000000000000000000e+03) (158, 1.50000000000000000000e+03) (159, 1.50000000000000000000e+03) (160, 1.50000000000000000000e+03) (161, 1.50000000000000000000e+03) (162, 1.50000000000000000000e+03) (163, 1.50000000000000000000e+03) (164, 1.50000000000000000000e+03) (165, 1.50000000000000000000e+03) (166, 1.50000000000000000000e+03) (167, 1.50000000000000000000e+03) (168, 1.50000000000000000000e+03) (169, 1.50000000000000000000e+03) (170, 1.50000000000000000000e+03) (171, 1.50000000000000000000e+03) (172, 1.50000000000000000000e+03) (173, 1.50000000000000000000e+03) (174, 1.50000000000000000000e+03) (175, 1.50000000000000000000e+03) (176, 1.50000000000000000000e+03) (177, 1.50000000000000000000e+03) (178, 1.50000000000000000000e+03) (179, 1.50000000000000000000e+03) (180, 1.50000000000000000000e+03) (181, 1.50000000000000000000e+03) (182, 1.50000000000000000000e+03) (183, 1.50000000000000000000e+03) (184, 1.50000000000000000000e+03) (185, 1.50000000000000000000e+03) (186, 1.50000000000000000000e+03) (187, 1.50000000000000000000e+03) (188, 1.50000000000000000000e+03) (189, 1.50000000000000000000e+03) (190, 1.50000000000000000000e+03) (191, 1.50000000000000000000e+03) (192, 1.50000000000000000000e+03) (193, 1.50000000000000000000e+03) (194, 1.50000000000000000000e+03) (195, 1.50000000000000000000e+03) (196, 1.50000000000000000000e+03) (197, 1.50000000000000000000e+03) (198, 1.50000000000000000000e+03) (199, 1.50000000000000000000e+03) (200, 1.50000000000000000000e+03) (201, 1.50000000000000000000e+03) (202, 1.50000000000000000000e+03) (203, 1.50000000000000000000e+03) (204, 1.50000000000000000000e+03) (205, 1.50000000000000000000e+03) (206, 1.50000000000000000000e+03) (207, 1.50000000000000000000e+03) (208, 1.50000000000000000000e+03) (209, 1.50000000000000000000e+03) (210, 1.50000000000000000000e+03) (211, 1.50000000000000000000e+03) (212, 1.50000000000000000000e+03) (213, 1.50000000000000000000e+03) (214, 1.50000000000000000000e+03) (215, 1.50000000000000000000e+03) (216, 1.50000000000000000000e+03) (217, 1.50000000000000000000e+03) (218, 1.50000000000000000000e+03) (219, 1.50000000000000000000e+03) (220, 1.50000000000000000000e+03) (221, 1.50000000000000000000e+03) (222, 1.50000000000000000000e+03) (223, 1.50000000000000000000e+03) (224, 1.50000000000000000000e+03) (225, 1.50000000000000000000e+03) (226, 1.50000000000000000000e+03) (227, 1.50000000000000000000e+03) (228, 1.50000000000000000000e+03) (229, 1.50000000000000000000e+03) (230, 1.50000000000000000000e+03) (231, 1.50000000000000000000e+03) (232, 1.50000000000000000000e+03) (233, 1.50000000000000000000e+03) (234, 1.50000000000000000000e+03) (235, 1.50000000000000000000e+03) (236, 1.50000000000000000000e+03) (237, 1.50000000000000000000e+03) (238, 1.50000000000000000000e+03) (239, 1.50000000000000000000e+03) (240, -1.38735485839843750000e+03) (241, 1.50000000000000000000e+03) (242, 1.50000000000000000000e+03) (243, 1.48628271484375000000e+03) (244, 1.49999877929687500000e+03) (245, 1.39090295410156250000e+03) (246, 1.04231848144531250000e+03) (247, 1.25255407714843750000e+03) (248, 9.57940795898437500000e+02) (249, 1.50000000000000000000e+03) (250, 1.50000000000000000000e+03) (251, 1.49979882812500000000e+03) (252, 1.49984997558593750000e+03) (253, 1.50000000000000000000e+03) (254, 1.50000000000000000000e+03) (255, 1.50000000000000000000e+03) (256, 1.47990222167968750000e+03) (257, 1.50000000000000000000e+03) (258, 1.49999804687500000000e+03) (259, 1.50000000000000000000e+03) (260, 1.50000000000000000000e+03) (261, 1.49719519042968750000e+03) (262, 1.44056506347656250000e+03) (263, 1.49668579101562500000e+03) (264, 1.49791430664062500000e+03) (265, 1.50000000000000000000e+03) (266, 1.50000000000000000000e+03) (267, 1.50000000000000000000e+03) (268, 1.50000000000000000000e+03) (269, 1.50000000000000000000e+03) (270, 1.50000000000000000000e+03) (271, 1.50000000000000000000e+03) (272, 1.50000000000000000000e+03) (273, 1.50000000000000000000e+03) (274, 1.50000000000000000000e+03) (275, 1.50000000000000000000e+03) (276, 1.50000000000000000000e+03) (277, 1.50000000000000000000e+03) (278, 1.50000000000000000000e+03) (279, 1.50000000000000000000e+03) (280, 1.50000000000000000000e+03) (281, 1.50000000000000000000e+03) (282, 1.50000000000000000000e+03) (283, 1.50000000000000000000e+03) (284, 1.50000000000000000000e+03) (285, 1.50000000000000000000e+03) (286, 1.50000000000000000000e+03) (287, 1.50000000000000000000e+03) (288, 1.50000000000000000000e+03) (289, 1.50000000000000000000e+03) (290, 1.50000000000000000000e+03) (291, 1.50000000000000000000e+03) (292, 1.50000000000000000000e+03) (293, 1.50000000000000000000e+03) (294, 1.50000000000000000000e+03) (295, 1.50000000000000000000e+03) (296, 1.50000000000000000000e+03) (297, 1.50000000000000000000e+03) (298, 1.50000000000000000000e+03) (299, 1.50000000000000000000e+03) (300, 1.50000000000000000000e+03) (301, 1.50000000000000000000e+03) (302, 1.50000000000000000000e+03) (303, 1.50000000000000000000e+03) (304, 1.50000000000000000000e+03) (305, 1.50000000000000000000e+03) (306, 1.50000000000000000000e+03) (307, 1.50000000000000000000e+03) (308, 1.50000000000000000000e+03) (0, -9.40607666015625000000e+02) (1, 1.50000000000000000000e+03) (2, 1.50000000000000000000e+03) (3, 1.50000000000000000000e+03) (4, 8.41665649414062500000e+02) (5, 6.17837341308593750000e+02) (6, 1.50000000000000000000e+03) (7, 1.50000000000000000000e+03) (8, 5.97673278808593750000e+02) (9, 1.47459228515625000000e+03) (10, -1.48617285156250000000e+03) (11, -1.49965344238281250000e+03) (12, -1.44239746093750000000e+03) (13, -1.50000000000000000000e+03) (14, -1.50000000000000000000e+03) (15, -1.50000000000000000000e+03) (16, -1.50000000000000000000e+03) (17, -1.50000000000000000000e+03) (18, -1.50000000000000000000e+03) (19, -1.50000000000000000000e+03) (20, -1.50000000000000000000e+03) (21, -1.50000000000000000000e+03) (22, -1.50000000000000000000e+03) (23, -1.40709118652343750000e+03) (24, -1.48249169921875000000e+03) (25, -1.49331164550781250000e+03) (26, -1.49424401855468750000e+03) (27, -1.49986364746093750000e+03) (28, -1.49698266601562500000e+03) (29, -1.50000000000000000000e+03) (30, -1.04773547363281250000e+03) (31, -1.38092565917968750000e+03) (32, -1.39105920410156250000e+03) (33, 1.50000000000000000000e+03) (34, -2.42583618164062500000e+02) (35, 1.50000000000000000000e+03) (36, 6.26354248046875000000e+02) (37, -8.40676086425781250000e+02) (38, -3.47906372070312500000e+02) (39, 1.50000000000000000000e+03) (40, 1.50000000000000000000e+03) (41, 1.50000000000000000000e+03) (42, 1.50000000000000000000e+03) (43, 1.50000000000000000000e+03) (44, 1.50000000000000000000e+03) (45, -1.43376855468750000000e+03) (46, 1.50000000000000000000e+03) (47, 1.50000000000000000000e+03) (48, 1.50000000000000000000e+03) (49, 1.50000000000000000000e+03) (50, 1.50000000000000000000e+03) (51, 1.50000000000000000000e+03) (52, 1.50000000000000000000e+03) (53, 1.50000000000000000000e+03) (54, 1.50000000000000000000e+03) (55, 1.50000000000000000000e+03) (56, 1.50000000000000000000e+03) (57, 1.50000000000000000000e+03) (58, 1.50000000000000000000e+03) (59, 1.50000000000000000000e+03) (60, -1.33622680664062500000e+03) (61, -1.49399597167968750000e+03) (62, -1.18865014648437500000e+03) (63, -1.49946887207031250000e+03) (64, -1.46357189941406250000e+03) (65, -1.27311083984375000000e+03) (66, -1.50000000000000000000e+03) (67, -1.50000000000000000000e+03) (68, -1.45443151855468750000e+03) (69, -1.42357043457031250000e+03) (70, -1.36972619628906250000e+03) (71, -1.48841198730468750000e+03) (72, -1.47348718261718750000e+03) (73, -6.66168151855468750000e+02) (74, 4.02011680603027343750e+01) (75, 1.50000000000000000000e+03) (76, 1.50000000000000000000e+03) (77, 1.50000000000000000000e+03) (78, 1.50000000000000000000e+03) (79, 1.50000000000000000000e+03) (80, 1.50000000000000000000e+03) (81, 1.50000000000000000000e+03) (82, 1.50000000000000000000e+03) (83, 1.50000000000000000000e+03) (84, 1.50000000000000000000e+03) (85, 1.50000000000000000000e+03) (86, 1.50000000000000000000e+03) (87, 1.50000000000000000000e+03) (88, 1.50000000000000000000e+03) (89, 1.50000000000000000000e+03) (90, 1.50000000000000000000e+03) (91, 1.50000000000000000000e+03) (92, 1.50000000000000000000e+03) (93, 1.50000000000000000000e+03) (94, 1.50000000000000000000e+03) (95, 1.50000000000000000000e+03) (96, 1.50000000000000000000e+03) (97, 1.50000000000000000000e+03) (98, 1.50000000000000000000e+03) (99, 1.50000000000000000000e+03) (100, 1.50000000000000000000e+03) (101, 1.50000000000000000000e+03) (102, 1.50000000000000000000e+03) (103, 1.50000000000000000000e+03) (104, 1.50000000000000000000e+03) (105, -1.48457934570312500000e+03) (106, -1.49974108886718750000e+03) (107, -1.50000000000000000000e+03) (108, -1.42782153320312500000e+03) (109, -1.33588513183593750000e+03) (110, -1.44270471191406250000e+03) (111, -1.48385461425781250000e+03) (112, -1.50000000000000000000e+03) (113, -1.49977185058593750000e+03) (114, -1.50000000000000000000e+03) (115, -1.50000000000000000000e+03) (116, -1.50000000000000000000e+03) (117, -1.50000000000000000000e+03) (118, -1.50000000000000000000e+03) (119, -1.11439483642578125000e+02) (120, 1.50000000000000000000e+03) (121, 1.50000000000000000000e+03) (122, 1.50000000000000000000e+03) (123, 1.50000000000000000000e+03) (124, 1.50000000000000000000e+03) (125, 1.50000000000000000000e+03) (126, 1.50000000000000000000e+03) (127, 1.50000000000000000000e+03) (128, 1.50000000000000000000e+03) (129, 1.50000000000000000000e+03) (130, 1.50000000000000000000e+03) (131, 1.50000000000000000000e+03) (132, 1.50000000000000000000e+03) (133, 1.50000000000000000000e+03) (134, 1.50000000000000000000e+03) (135, 1.50000000000000000000e+03) (136, 1.50000000000000000000e+03) (137, 1.50000000000000000000e+03) (138, 1.50000000000000000000e+03) (139, 1.50000000000000000000e+03) (140, 1.50000000000000000000e+03) (141, 1.50000000000000000000e+03) (142, 1.50000000000000000000e+03) (143, 1.50000000000000000000e+03) (144, 1.50000000000000000000e+03) (145, 1.50000000000000000000e+03) (146, 1.50000000000000000000e+03) (147, 1.50000000000000000000e+03) (148, 1.50000000000000000000e+03) (149, 1.50000000000000000000e+03) (150, 1.50000000000000000000e+03) (151, 1.50000000000000000000e+03) (152, 1.50000000000000000000e+03) (153, 1.50000000000000000000e+03) (154, 1.50000000000000000000e+03) (155, 1.50000000000000000000e+03) (156, 1.50000000000000000000e+03) (157, 1.50000000000000000000e+03) (158, 1.50000000000000000000e+03) (159, 1.50000000000000000000e+03) (160, 1.50000000000000000000e+03) (161, 1.50000000000000000000e+03) (162, 1.50000000000000000000e+03) (163, 1.50000000000000000000e+03) (164, 1.50000000000000000000e+03) (165, 1.50000000000000000000e+03) (166, 1.50000000000000000000e+03) (167, 1.50000000000000000000e+03) (168, 1.50000000000000000000e+03) (169, 1.50000000000000000000e+03) (170, 1.50000000000000000000e+03) (171, 1.50000000000000000000e+03) (172, 1.50000000000000000000e+03) (173, 1.50000000000000000000e+03) (174, 1.50000000000000000000e+03) (175, 1.50000000000000000000e+03) (176, 1.50000000000000000000e+03) (177, 1.50000000000000000000e+03) (178, 1.50000000000000000000e+03) (179, 1.50000000000000000000e+03) (180, 1.50000000000000000000e+03) (181, 1.50000000000000000000e+03) (182, 1.50000000000000000000e+03) (183, 1.50000000000000000000e+03) (184, 1.50000000000000000000e+03) (185, 1.50000000000000000000e+03) (186, 1.50000000000000000000e+03) (187, 1.50000000000000000000e+03) (188, 1.50000000000000000000e+03) (189, 1.50000000000000000000e+03) (190, 1.50000000000000000000e+03) (191, 1.50000000000000000000e+03) (192, 1.50000000000000000000e+03) (193, 1.50000000000000000000e+03) (194, 1.50000000000000000000e+03) (195, 1.50000000000000000000e+03) (196, 1.50000000000000000000e+03) (197, 1.50000000000000000000e+03) (198, 1.50000000000000000000e+03) (199, 1.50000000000000000000e+03) (200, 1.50000000000000000000e+03) (201, 1.50000000000000000000e+03) (202, 1.50000000000000000000e+03) (203, 1.50000000000000000000e+03) (204, 1.50000000000000000000e+03) (205, 1.50000000000000000000e+03) (206, 1.50000000000000000000e+03) (207, 1.50000000000000000000e+03) (208, 1.50000000000000000000e+03) (209, 1.50000000000000000000e+03) (210, 1.50000000000000000000e+03) (211, 1.50000000000000000000e+03) (212, 1.50000000000000000000e+03) (213, 1.50000000000000000000e+03) (214, 1.50000000000000000000e+03) (215, 1.50000000000000000000e+03) (216, 1.50000000000000000000e+03) (217, 1.50000000000000000000e+03) (218, 1.50000000000000000000e+03) (219, 1.50000000000000000000e+03) (220, 1.50000000000000000000e+03) (221, 1.50000000000000000000e+03) (222, 1.50000000000000000000e+03) (223, 1.50000000000000000000e+03) (224, 1.50000000000000000000e+03) (225, 1.50000000000000000000e+03) (226, 1.50000000000000000000e+03) (227, 1.50000000000000000000e+03) (228, 1.50000000000000000000e+03) (229, 1.50000000000000000000e+03) (230, 1.50000000000000000000e+03) (231, 1.50000000000000000000e+03) (232, 1.50000000000000000000e+03) (233, 1.50000000000000000000e+03) (234, 1.50000000000000000000e+03) (235, 1.50000000000000000000e+03) (236, 1.50000000000000000000e+03) (237, 1.45000000000000000000e+03) (238, 1.50000000000000000000e+03) (239, -7.00000000000000000000e+02) (240, -1.49998876953125000000e+03) (241, -1.50000000000000000000e+03) (242, -1.41458129882812500000e+03) (243, -1.47904760742187500000e+03) (244, -1.20945642089843750000e+03) (245, -1.47353320312500000000e+03) (246, -1.47960241699218750000e+03) (247, -1.48315576171875000000e+03) (248, -1.27202294921875000000e+03) (249, -1.43685937500000000000e+03) (250, -1.50000000000000000000e+03) (251, -1.46799682617187500000e+03) (252, -1.49948083496093750000e+03) (253, -1.34660461425781250000e+03) (254, -1.48460827636718750000e+03) (255, -1.46471203613281250000e+03) (256, -1.47280798339843750000e+03) (257, -1.42445434570312500000e+03) (258, -1.49349597167968750000e+03) (259, -1.49618615722656250000e+03) (260, -1.46404064941406250000e+03) (261, -1.34136462402343750000e+03) (262, -1.49960144042968750000e+03) (263, -1.45832141113281250000e+03) (264, -1.49983117675781250000e+03) (265, -1.50000000000000000000e+03) (266, -1.50000000000000000000e+03) (267, -1.50000000000000000000e+03) (268, -1.50000000000000000000e+03) (269, -1.50000000000000000000e+03) (270, -1.50000000000000000000e+03) (271, -1.50000000000000000000e+03) (272, -1.50000000000000000000e+03) (273, -1.50000000000000000000e+03) (274, -1.50000000000000000000e+03) (275, -1.50000000000000000000e+03) (276, -1.42847570800781250000e+03) (277, -1.42847570800781250000e+03) (278, -1.50000000000000000000e+03) (279, -1.50000000000000000000e+03) (280, -1.50000000000000000000e+03) (281, -1.50000000000000000000e+03) (282, -1.44312805175781250000e+03) (283, -1.50000000000000000000e+03) (284, -1.50000000000000000000e+03) (285, 1.50000000000000000000e+03) (286, 1.50000000000000000000e+03) (287, 1.50000000000000000000e+03) (288, 1.50000000000000000000e+03) (289, 1.50000000000000000000e+03) (290, 1.50000000000000000000e+03) (291, 1.50000000000000000000e+03) (292, 1.50000000000000000000e+03) (293, 1.50000000000000000000e+03) (294, 1.50000000000000000000e+03) (295, 1.50000000000000000000e+03) (296, 1.50000000000000000000e+03) (297, 1.50000000000000000000e+03) (298, 1.50000000000000000000e+03) (299, 1.50000000000000000000e+03) (300, 1.50000000000000000000e+03) (301, 1.50000000000000000000e+03) (302, 1.50000000000000000000e+03) (303, 1.50000000000000000000e+03) (304, 1.50000000000000000000e+03) (305, 1.50000000000000000000e+03) (306, 1.50000000000000000000e+03) (307, -1.43376855468750000000e+03) (308, -1.50000000000000000000e+03) (0, 1.07406225585937500000e+03) (1, 1.50000000000000000000e+03) (2, 1.50000000000000000000e+03) (3, 1.50000000000000000000e+03) (4, 3.20347076416015625000e+02) (5, 1.48987280273437500000e+03) (6, -3.74318054199218750000e+02) (7, 1.50000000000000000000e+03) (8, 1.50000000000000000000e+03) (9, 1.50000000000000000000e+03) (10, 1.50000000000000000000e+03) (11, 1.45989843750000000000e+03) (12, 1.45989843750000000000e+03) (13, 1.45034106445312500000e+03) (14, 1.45034106445312500000e+03) (15, 1.48052246093750000000e+03) (16, 1.49713708496093750000e+03) (17, 1.40622436523437500000e+03) (18, 1.47772631835937500000e+03) (19, 1.45112915039062500000e+03) (20, -1.49720141601562500000e+03) (21, -1.40195465087890625000e+02) (22, -8.75153198242187500000e+01) (23, 1.22656713867187500000e+03) (24, 6.59042114257812500000e+02) (25, 1.25586608886718750000e+03) (26, 1.42761486816406250000e+03) (27, 1.22168395996093750000e+03) (28, 1.49997558593750000000e+03) (29, 1.49999572753906250000e+03) (30, 1.49976892089843750000e+03) (31, 1.49962805175781250000e+03) (32, -1.41706530761718750000e+03) (33, 2.29257980346679687500e+02) (34, 1.24007165527343750000e+03) (35, 1.50000000000000000000e+03) (36, 3.91187683105468750000e+02) (37, -1.87340606689453125000e+02) (38, 3.10159545898437500000e+02) (39, 1.50000000000000000000e+03) (40, 1.50000000000000000000e+03) (41, 1.50000000000000000000e+03) (42, 1.50000000000000000000e+03) (43, 1.50000000000000000000e+03) (44, 1.50000000000000000000e+03) (45, 1.49998559570312500000e+03) (46, 1.50000000000000000000e+03) (47, 1.50000000000000000000e+03) (48, 1.50000000000000000000e+03) (49, 1.50000000000000000000e+03) (50, 1.50000000000000000000e+03) (51, 1.50000000000000000000e+03) (52, 1.50000000000000000000e+03) (53, 1.50000000000000000000e+03) (54, 1.50000000000000000000e+03) (55, 1.50000000000000000000e+03) (56, 1.50000000000000000000e+03) (57, 1.50000000000000000000e+03) (58, 1.50000000000000000000e+03) (59, 1.50000000000000000000e+03) (60, -1.46657055664062500000e+03) (61, -1.32240063476562500000e+03) (62, -1.49953784179687500000e+03) (63, -1.11573291015625000000e+03) (64, 7.10980957031250000000e+02) (65, 1.49976806640625000000e+03) (66, -5.59447143554687500000e+02) (67, -8.12651214599609375000e+01) (68, -6.40100646972656250000e+02) (69, 1.49997741699218750000e+03) (70, 1.47378906250000000000e+03) (71, 2.86753021240234375000e+02) (72, -1.30958410644531250000e+03) (73, 1.04224450683593750000e+03) (74, 7.16247741699218750000e+02) (75, 1.50000000000000000000e+03) (76, 1.50000000000000000000e+03) (77, 1.50000000000000000000e+03) (78, 1.50000000000000000000e+03) (79, 1.50000000000000000000e+03) (80, 1.50000000000000000000e+03) (81, 1.50000000000000000000e+03) (82, 1.50000000000000000000e+03) (83, 1.50000000000000000000e+03) (84, 1.50000000000000000000e+03) (85, 1.50000000000000000000e+03) (86, 