FANN_FIX_2.0
decimal_point=5
num_layers=3
learning_rate=0.700000
connection_rate=1.000000
network_type=0
learning_momentum=0.000000
training_algorithm=2
train_error_function=1
train_stop_function=1
cascade_output_change_fraction=0.010000
quickprop_decay=-0.000100
quickprop_mu=1.750000
rprop_increase_factor=1.200000
rprop_decrease_factor=0.500000
rprop_delta_min=0.000000
rprop_delta_max=50.000000
rprop_delta_zero=0.100000
cascade_output_stagnation_epochs=12
cascade_candidate_change_fraction=0.010000
cascade_candidate_stagnation_epochs=12
cascade_max_out_epochs=150
cascade_min_out_epochs=50
cascade_max_cand_epochs=150
cascade_min_cand_epochs=50
cascade_num_candidate_groups=2
bit_fail_limit=0
cascade_candidate_limit=32000
cascade_weight_multiplier=13
cascade_activation_functions_count=10
cascade_activation_functions=3 5 7 8 10 11 14 15 16 17 
cascade_activation_steepnesses_count=4
cascade_activation_steepnesses=8 16 24 32 
layer_sizes=309 309 9 
neurons (num_inputs, activation_function, activation_steepness)=(0, 0, 0) (0, 0, 0) (0, 0, 0) (0, 0, 0) (0, 0, 0) (0, 0, 0) (0, 0, 0) (0, 0, 0) (0, 0, 0) (0, 0, 0) (0, 0, 0) (0, 0, 0) (0, 0, 0) (0, 0, 0) (0, 0, 0) (0, 0, 0) (0, 0, 0) (0, 0, 0) (0, 0, 0) (0, 0, 0) (0, 0, 0) (0, 0, 0) (0, 0, 0) (0, 0, 0) (0, 0, 0) (0, 0, 0) (0, 0, 0) (0, 0, 0) (0, 0, 0) (0, 0, 0) (0, 0, 0) (0, 0, 0) (0, 0, 0) (0, 0, 0) (0, 0, 0) (0, 0, 0) (0, 0, 0) (0, 0, 0) (0, 0, 0) (0, 0, 0) (0, 0, 0) (0, 0, 0) (0, 0, 0) (0, 0, 0) (0, 0, 0) (0, 0, 0) (0, 0, 0) (0, 0, 0) (0, 0, 0) (0, 0, 0) (0, 0, 0) (0, 0, 0) (0, 0, 0) (0, 0, 0) (0, 0, 0) (0, 0, 0) (0, 0, 0) (0, 0, 0) (0, 0, 0) (0, 0, 0) (0, 0, 0) (0, 0, 0) (0, 0, 0) (0, 0, 0) (0, 0, 0) (0, 0, 0) (0, 0, 0) (0, 0, 0) (0, 0, 0) (0, 0, 0) (0, 0, 0) (0, 0, 0) (0, 0, 0) (0, 0, 0) (0, 0, 0) (0, 0, 0) (0, 0, 0) (0, 0, 0) (0, 0, 0) (0, 0, 0) (0, 0, 0) (0, 0, 0) (0, 0, 0) (0, 0, 0) (0, 0, 0) (0, 0, 0) (0, 0, 0) (0, 0, 0) (0, 0, 0) (0, 0, 0) (0, 0, 0) (0, 0, 0) (0, 0, 0) (0, 0, 0) (0, 0, 0) (0, 0, 0) (0, 0, 0) (0, 0, 0) (0, 0, 0) (0, 0, 0) (0, 0, 0) (0, 0, 0) (0, 0, 0) (0, 0, 0) (0, 0, 0) (0, 0, 0) (0, 0, 0) (0, 0, 0) (0, 0, 0) (0, 0, 0) (0, 0, 0) (0, 0, 0) (0, 0, 0) (0, 0, 0) (0, 0, 0) (0, 0, 0) (0, 0, 0) (0, 0, 0) (0, 0, 0) (0, 0, 0) (0, 0, 0) (0, 0, 0) (0, 0, 0) (0, 0, 0) (0, 0, 0) (0, 0, 0) (0, 0, 0) (0, 0, 0) (0, 0, 0) (0, 0, 0) (0, 0, 0) (0, 0, 0) (0, 0, 0) (0, 0, 0) (0, 0, 0) (0, 0, 0) (0, 0, 0) (0, 0, 0) (0, 0, 0) (0, 0, 0) (0, 0, 0) (0, 0, 0) (0, 0, 0) (0, 0, 0) (0, 0, 0) (0, 0, 0) (0, 0, 0) (0, 0, 0) (0, 0, 0) (0, 0, 0) (0, 0, 0) (0, 0, 0) (0, 0, 0) (0, 0, 0) (0, 0, 0) (0, 0, 0) (0, 0, 0) (0, 0, 0) (0, 0, 0) (0, 0, 0) (0, 0, 0) (0, 0, 0) (0, 0, 0) (0, 0, 0) (0, 0, 0) (0, 0, 0) (0, 0, 0) (0, 0, 0) (0, 0, 0) (0, 0, 0) (0, 0, 0) (0, 0, 0) (0, 0, 0) (0, 0, 0) (0, 0, 0) (0, 0, 0) (0, 0, 0) (0, 0, 0) (0, 0, 0) (0, 0, 0) (0, 0, 0) (0, 0, 0) (0, 0, 0) (0, 0, 0) (0, 0, 0) (0, 0, 0) (0, 0, 0) (0, 0, 0) (0, 0, 0) (0, 0, 0) (0, 0, 0) (0, 0, 0) (0, 0, 0) (0, 0, 0) (0, 0, 0) (0, 0, 0) (0, 0, 0) (0, 0, 0) (0, 0, 0) (0, 0, 0) (0, 0, 0) (0, 0, 0) (0, 0, 0) (0, 0, 0) (0, 0, 0) (0, 0, 0) (0, 0, 0) (0, 0, 0) (0, 0, 0) (0, 0, 0) (0, 0, 0) (0, 0, 0) (0, 0, 0) (0, 0, 0) (0, 0, 0) (0, 0, 0) (0, 0, 0) (0, 0, 0) (0, 0, 0) (0, 0, 0) (0, 0, 0) (0, 0, 0) (0, 0, 0) (0, 0, 0) (0, 0, 0) (0, 0, 0) (0, 0, 0) (0, 0, 0) (0, 0, 0) (0, 0, 0) (0, 0, 0) (0, 0, 0) (0, 0, 0) (0, 0, 0) (0, 0, 0) (0, 0, 0) (0, 0, 0) (0, 0, 0) (0, 0, 0) (0, 0, 0) (0, 0, 0) (0, 0, 0) (0, 0, 0) (0, 0, 0) (0, 0, 0) (0, 0, 0) (0, 0, 0) (0, 0, 0) (0, 0, 0) (0, 0, 0) (0, 0, 0) (0, 0, 0) (0, 0, 0) (0, 0, 0) (0, 0, 0) (0, 0, 0) (0, 0, 0) (0, 0, 0) (0, 0, 0) (0, 0, 0) (0, 0, 0) (0, 0, 0) (0, 0, 0) (0, 0, 0) (0, 0, 0) (0, 0, 0) (0, 0, 0) (0, 0, 0) (0, 0, 0) (0, 0, 0) (0, 0, 0) (0, 0, 0) (0, 0, 0) (0, 0, 0) (0, 0, 0) (0, 0, 0) (0, 0, 0) (0, 0, 0) (0, 0, 0) (0, 0, 0) (0, 0, 0) (0, 0, 0) (0, 0, 0) (0, 0, 0) (0, 0, 0) (0, 0, 0) (0, 0, 0) (0, 0, 0) (0, 0, 0) (0, 0, 0) (0, 0, 0) (0, 0, 0) (0, 0, 0) (0, 0, 0) (0, 0, 0) (0, 0, 0) (0, 0, 0) (0, 0, 0) (0, 0, 0) (0, 0, 0) (0, 0, 0) (0, 0, 0) (0, 0, 0) (0, 0, 0) (0, 0, 0) (0, 0, 0) (0, 0, 0) (0, 0, 0) (0, 0, 0) (309, 4, 0) (309, 4, 0) (309, 4, 0) (309, 4, 0) (309, 4, 0) (309, 4, 0) (309, 4, 0) (309, 4, 0) (309, 4, 0) (309, 4, 0) (309, 4, 0) (309, 4, 0) (309, 4, 0) (309, 4, 0) (309, 4, 0) (309, 4, 0) (309, 4, 0) (309, 4, 0) (309, 4, 0) (309, 4, 0) (309, 4, 0) (309, 4, 0) (309, 4, 0) (309, 4, 0) (309, 4, 0) (309, 4, 0) (309, 4, 0) (309, 4, 0) (309, 4, 0) (309, 4, 0) (309, 4, 0) (309, 4, 0) (309, 4, 0) (309, 4, 0) (309, 4, 0) (309, 4, 0) (309, 4, 0) (309, 4, 0) (309, 4, 0) (309, 4, 0) (309, 4, 0) (309, 4, 0) (309, 4, 0) (309, 4, 0) (309, 4, 0) (309, 4, 0) (309, 4, 0) (309, 4, 0) (309, 4, 0) (309, 4, 0) (309, 4, 0) (309, 4, 0) (309, 4, 0) (309, 4, 0) (309, 4, 0) (309, 4, 0) (309, 4, 0) (309, 4, 0) (309, 4, 0) (309, 4, 0) (309, 4, 0) (309, 4, 0) (309, 4, 0) (309, 4, 0) (309, 4, 0) (309, 4, 0) (309, 4, 0) (309, 4, 0) (309, 4, 0) (309, 4, 0) (309, 4, 0) (309, 4, 0) (309, 4, 0) (309, 4, 0) (309, 4, 0) (309, 4, 0) (309, 4, 0) (309, 4, 0) (309, 4, 0) (309, 4, 0) (309, 4, 0) (309, 4, 0) (309, 4, 0) (309, 4, 0) (309, 4, 0) (309, 4, 0) (309, 4, 0) (309, 4, 0) (309, 4, 0) (309, 4, 0) (309, 4, 0) (309, 4, 0) (309, 4, 0) (309, 4, 0) (309, 4, 0) (309, 4, 0) (309, 4, 0) (309, 4, 0) (309, 4, 0) (309, 4, 0) (309, 4, 0) (309, 4, 0) (309, 4, 0) (309, 4, 0) (309, 4, 0) (309, 4, 0) (309, 4, 0) (309, 4, 0) (309, 4, 0) (309, 4, 0) (309, 4, 0) (309, 4, 0) (309, 4, 0) (309, 4, 0) (309, 4, 0) (309, 4, 0) (309, 4, 0) (309, 4, 0) (309, 4, 0) (309, 4, 0) (309, 4, 0) (309, 4, 0) (309, 4, 0) (309, 4, 0) (309, 4, 0) (309, 4, 0) (309, 4, 0) (309, 4, 0) (309, 4, 0) (309, 4, 0) (309, 4, 0) (309, 4, 0) (309, 4, 0) (309, 4, 0) (309, 4, 0) (309, 4, 0) (309, 4, 0) (309, 4, 0) (309, 4, 0) (309, 4, 0) (309, 4, 0) (309, 4, 0) (309, 4, 0) (309, 4, 0) (309, 4, 0) (309, 4, 0) (309, 4, 0) (309, 4, 0) (309, 4, 0) (309, 4, 0) (309, 4, 0) (309, 4, 0) (309, 4, 0) (309, 4, 0) (309, 4, 0) (309, 4, 0) (309, 4, 0) (309, 4, 0) (309, 4, 0) (309, 4, 0) (309, 4, 0) (309, 4, 0) (309, 4, 0) (309, 4, 0) (309, 4, 0) (309, 4, 0) (309, 4, 0) (309, 4, 0) (309, 4, 0) (309, 4, 0) (309, 4, 0) (309, 4, 0) (309, 4, 0) (309, 4, 0) (309, 4, 0) (309, 4, 0) (309, 4, 0) (309, 4, 0) (309, 4, 0) (309, 4, 0) (309, 4, 0) (309, 4, 0) (309, 4, 0) (309, 4, 0) (309, 4, 0) (309, 4, 0) (309, 4, 0) (309, 4, 0) (309, 4, 0) (309, 4, 0) (309, 4, 0) (309, 4, 0) (309, 4, 0) (309, 4, 0) (309, 4, 0) (309, 4, 0) (309, 4, 0) (309, 4, 0) (309, 4, 0) (309, 4, 0) (309, 4, 0) (309, 4, 0) (309, 4, 0) (309, 4, 0) (309, 4, 0) (309, 4, 0) (309, 4, 0) (309, 4, 0) (309, 4, 0) (309, 4, 0) (309, 4, 0) (309, 4, 0) (309, 4, 0) (309, 4, 0) (309, 4, 0) (309, 4, 0) (309, 4, 0) (309, 4, 0) (309, 4, 0) (309, 4, 0) (309, 4, 0) (309, 4, 0) (309, 4, 0) (309, 4, 0) (309, 4, 0) (309, 4, 0) (309, 4, 0) (309, 4, 0) (309, 4, 0) (309, 4, 0) (309, 4, 0) (309, 4, 0) (309, 4, 0) (309, 4, 0) (309, 4, 0) (309, 4, 0) (309, 4, 0) (309, 4, 0) (309, 4, 0) (309, 4, 0) (309, 4, 0) (309, 4, 0) (309, 4, 0) (309, 4, 0) (309, 4, 0) (309, 4, 0) (309, 4, 0) (309, 4, 0) (309, 4, 0) (309, 4, 0) (309, 4, 0) (309, 4, 0) (309, 4, 0) (309, 4, 0) (309, 4, 0) (309, 4, 0) (309, 4, 0) (309, 4, 0) (309, 4, 0) (309, 4, 0) (309, 4, 0) (309, 4, 0) (309, 4, 0) (309, 4, 0) (309, 4, 0) (309, 4, 0) (309, 4, 0) (309, 4, 0) (309, 4, 0) (309, 4, 0) (309, 4, 0) (309, 4, 0) (309, 4, 0) (309, 4, 0) (309, 4, 0) (309, 4, 0) (309, 4, 0) (309, 4, 0) (309, 4, 0) (309, 4, 0) (309, 4, 0) (309, 4, 0) (309, 4, 0) (309, 4, 0) (309, 4, 0) (309, 4, 0) (309, 4, 0) (309, 4, 0) (309, 4, 0) (309, 4, 0) (309, 4, 0) (309, 4, 0) (309, 4, 0) (309, 4, 0) (309, 4, 0) (309, 4, 0) (309, 4, 0) (309, 4, 0) (309, 4, 0) (309, 4, 0) (309, 4, 0) (309, 4, 0) (309, 4, 0) (309, 4, 0) (309, 4, 0) (309, 4, 0) (309, 4, 0) (309, 4, 0) (0, 4, 0) (309, 4, 0) (309, 4, 0) (309, 4, 0) (309, 4, 0) (309, 4, 0) (309, 4, 0) (309, 4, 0) (309, 4, 0) (0, 4, 0) 
connections (connected_to_neuron, weight)=(0, 48000) (1, -48000) (2, -48000) (3, -48000) (4, -19934) (5, -47738) (6, -48000) (7, 11119) (8, -48000) (9, 18022) (10, 40059) (11, 47049) (12, 42163) (13, 47181) (14, 47184) (15, 48000) (16, 48000) (17, 48000) (18, 48000) (19, 48000) (20, 35667) (21, 48000) (22, 48000) (23, 48000) (24, 48000) (25, 48000) (26, 48000) (27, 44986) (28, 47949) (29, 48000) (30, 48000) (31, 48000) (32, 47969) (33, -18449) (34, -48000) (35, -48000) (36, -30069) (37, 2230) (38, 6706) (39, -48000) (40, -48000) (41, -48000) (42, -48000) (43, -48000) (44, -48000) (45, 48000) (46, 48000) (47, 48000) (48, 48000) (49, 48000) (50, 48000) (51, 48000) (52, 48000) (53, 48000) (54, 48000) (55, 48000) (56, 48000) (57, 48000) (58, 48000) (59, 48000) (60, 47694) (61, 47997) (62, 45419) (63, 47899) (64, 48000) (65, 48000) (66, 48000) (67, 48000) (68, 48000) (69, 48000) (70, 48000) (71, 45680) (72, 47689) (73, 47853) (74, 16082) (75, 48000) (76, 48000) (77, 48000) (78, 48000) (79, 48000) (80, 48000) (81, 48000) (82, 48000) (83, 48000) (84, 48000) (85, 48000) (86, 48000) (87, 48000) (88, 48000) (89, 48000) (90, 48000) (91, 48000) (92, 48000) (93, 48000) (94, 48000) (95, 48000) (96, 48000) (97, 48000) (98, 48000) (99, 48000) (100, 48000) (101, 48000) (102, 48000) (103, 48000) (104, 48000) (105, 45661) (106, 47587) (107, 48000) (108, 48000) (109, 48000) (110, 48000) (111, 48000) (112, 48000) (113, 46380) (114, 38904) (115, 48000) (116, 48000) (117, 48000) (118, 48000) (119, 48000) (120, 48000) (121, 48000) (122, 48000) (123, 48000) (124, 48000) (125, 48000) (126, 48000) (127, 48000) (128, 48000) (129, 48000) (130, 48000) (131, 48000) (132, 48000) (133, 48000) (134, 48000) (135, 48000) (136, 48000) (137, 48000) (138, 48000) (139, 48000) (140, 48000) (141, 48000) (142, 48000) (143, 48000) (144, 48000) (145, 48000) (146, 48000) (147, 48000) (148, 48000) (149, 48000) (150, 48000) (151, 48000) (152, 48000) (153, 48000) (154, 48000) (155, 48000) (156, 48000) (157, 48000) (158, 48000) (159, 48000) (160, 48000) (161, 48000) (162, 48000) (163, 48000) (164, 48000) (165, 48000) (166, 48000) (167, 48000) (168, 48000) (169, 48000) (170, 48000) (171, 48000) (172, 48000) (173, 48000) (174, 48000) (175, 48000) (176, 48000) (177, 48000) (178, 48000) (179, 48000) (180, 48000) (181, 48000) (182, 48000) (183, 48000) (184, 48000) (185, 48000) (186, 48000) (187, 48000) (188, 48000) (189, 48000) (190, 48000) (191, 48000) (192, 48000) (193, 48000) (194, 48000) (195, 48000) (196, 48000) (197, 48000) (198, 48000) (199, 48000) (200, 48000) (201, 48000) (202, 48000) (203, 48000) (204, 48000) (205, 48000) (206, 48000) (207, 48000) (208, 48000) (209, 48000) (210, 48000) (211, 48000) (212, 48000) (213, 48000) (214, 48000) (215, 48000) (216, 48000) (217, 48000) (218, 48000) (219, 48000) (220, 48000) (221, 48000) (222, 48000) (223, 48000) (224, 48000) (225, 48000) (226, 48000) (227, 48000) (228, 48000) (229, 48000) (230, 48000) (231, 48000) (232, 48000) (233, 48000) (234, 48000) (235, 48000) (236, 48000) (237, 48000) (238, 48000) (239, 48000) (240, 43845) (241, 48000) (242, 48000) (243, 47558) (244, 45464) (245, 47240) (246, 47650) (247, 33012) (248, 30653) (249, 48000) (250, 48000) (251, 47999) (252, 47998) (253, 48000) (254, 48000) (255, 47992) (256, 47390) (257, 47998) (258, 48000) (259, 48000) (260, 48000) (261, 47999) (262, 47916) (263, 47745) (264, 47867) (265, 48000) (266, 48000) (267, 48000) (268, 48000) (269, 48000) (270, 48000) (271, 48000) (272, 48000) (273, 48000) (274, 48000) (275, 48000) (276, 48000) (277, 48000) (278, 48000) (279, 48000) (280, 48000) (281, 48000) (282, 48000) (283, 48000) (284, 48000) (285, 48000) (286, 48000) (287, 48000) (288, 48000) (289, 48000) (290, 48000) (291, 48000) (292, 48000) (293, 48000) (294, 48000) (295, 48000) (296, 48000) (297, 48000) (298, 48000) (299, 48000) (300, 48000) (301, 48000) (302, 48000) (303, 48000) (304, 48000) (305, 48000) (306, 48000) (307, 48000) (308, 48000) (0, -30099) (1, 48000) (2, 48000) (3, 48000) (4, 26933) (5, 19771) (6, 48000) (7, 48000) (8, 19126) (9, 47187) (10, -47558) (11, -47989) (12, -46157) (13, -48000) (14, -48000) (15, -48000) (16, -48000) (17, -48000) (18, -48000) (19, -48000) (20, -48000) (21, -48000) (22, -48000) (23, -45027) (24, -47440) (25, -47786) (26, -47816) (27, -47996) (28, -47903) (29, -48000) (30, -33528) (31, -44190) (32, -44514) (33, 48000) (34, -7763) (35, 48000) (36, 20043) (37, -26902) (38, -11133) (39, 48000) (40, 48000) (41, 48000) (42, 48000) (43, 48000) (44, 48000) (45, -45881) (46, 48000) (47, 48000) (48, 48000) (49, 48000) (50, 48000) (51, 48000) (52, 48000) (53, 48000) (54, 48000) (55, 48000) (56, 48000) (57, 48000) (58, 48000) (59, 48000) (60, -42759) (61, -47808) (62, -38037) (63, -47983) (64, -46834) (65, -40740) (66, -48000) (67, -48000) (68, -46542) (69, -45554) (70, -43831) (71, -47629) (72, -47152) (73, -21317) (74, 1286) (75, 48000) (76, 48000) (77, 48000) (78, 48000) (79, 48000) (80, 48000) (81, 48000) (82, 48000) (83, 48000) (84, 48000) (85, 48000) (86, 48000) (87, 48000) (88, 48000) (89, 48000) (90, 48000) (91, 48000) (92, 48000) (93, 48000) (94, 48000) (95, 48000) (96, 48000) (97, 48000) (98, 48000) (99, 48000) (100, 48000) (101, 48000) (102, 48000) (103, 48000) (104, 48000) (105, -47507) (106, -47992) (107, -48000) (108, -45690) (109, -42748) (110, -46167) (111, -47483) (112, -48000) (113, -47993) (114, -48000) (115, -48000) (116, -48000) (117, -48000) (118, -48000) (119, -3566) (120, 48000) (121, 48000) (122, 48000) (123, 48000) (124, 48000) (125, 48000) (126, 48000) (127, 48000) (128, 48000) (129, 48000) (130, 48000) (131, 48000) (132, 48000) (133, 48000) (134, 48000) (135, 48000) (136, 48000) (137, 48000) (138, 48000) (139, 48000) (140, 48000) (141, 48000) (142, 48000) (143, 48000) (144, 48000) (145, 48000) (146, 48000) (147, 48000) (148, 48000) (149, 48000) (150, 48000) (151, 48000) (152, 48000) (153, 48000) (154, 48000) (155, 48000) (156, 48000) (157, 48000) (158, 48000) (159, 48000) (160, 48000) (161, 48000) (162, 48000) (163, 48000) (164, 48000) (165, 48000) (166, 48000) (167, 48000) (168, 48000) (169, 48000) (170, 48000) (171, 48000) (172, 48000) (173, 48000) (174, 48000) (175, 48000) (176, 48000) (177, 48000) (178, 48000) (179, 48000) (180, 48000) (181, 48000) (182, 48000) (183, 48000) (184, 48000) (185, 48000) (186, 48000) (187, 48000) (188, 48000) (189, 48000) (190, 48000) (191, 48000) (192, 48000) (193, 48000) (194, 48000) (195, 48000) (196, 48000) (197, 48000) (198, 48000) (199, 48000) (200, 48000) (201, 48000) (202, 48000) (203, 48000) (204, 48000) (205, 48000) (206, 48000) (207, 48000) (208, 48000) (209, 48000) (210, 48000) (211, 48000) (212, 48000) (213, 48000) (214, 48000) (215, 48000) (216, 48000) (217, 48000) (218, 48000) (219, 48000) (220, 48000) (221, 48000) (222, 48000) (223, 48000) (224, 48000) (225, 48000) (226, 48000) (227, 48000) (228, 48000) (229, 48000) (230, 48000) (231, 48000) (232, 48000) (233, 48000) (234, 48000) (235, 48000) (236, 48000) (237, 46400) (238, 48000) (239, -22400) (240, -48000) (241, -48000) (242, -45267) (243, -47330) (244, -38703) (245, -47153) (246, -47347) (247, -47461) (248, -40705) (249, -45979) (250, -48000) (251, -46976) (252, -47983) (253, -43091) (254, -47507) (255, -46871) (256, -47130) (257, -45583) (258, -47792) (259, -47878) (260, -46849) (261, -42924) (262, -47987) (263, -46666) (264, -47995) (265, -48000) (266, -48000) (267, -48000) (268, -48000) (269, -48000) (270, -48000) (271, -48000) (272, -48000) (273, -48000) (274, -48000) (275, -48000) (276, -45711) (277, -45711) (278, -48000) (279, -48000) (280, -48000) (281, -48000) (282, -46180) (283, -48000) (284, -48000) (285, 48000) (286, 48000) (287, 48000) (288, 48000) (289, 48000) (290, 48000) (291, 48000) (292, 48000) (293, 48000) (294, 48000) (295, 48000) (296, 48000) (297, 48000) (298, 48000) (299, 48000) (300, 48000) (301, 48000) (302, 48000) (303, 48000) (304, 48000) (305, 48000) (306, 48000) (307, -45881) (308, -48000) (0, -30099) (1, 48000) (2, 48000) (3, 48000) (4, 26933) (5, 19771) (6, 48000) (7, 48000) (8, 19126) (9, 47187) (10, -47558) (11, -47989) (12, -46157) (13, -48000) (14, -48000) (15, -48000) (16, -48000) (17, -48000) (18, -48000) (19, -48000) (20, -48000) (21, -48000) (22, -48000) (23, -45027) (24, -47440) (25, -47786) (26, -47816) (27, -47996) (28, -47903) (29, -48000) (30, -33528) (31, -44190) (32, -44514) (33, 48000) (34, -7763) (35, 48000) (36, 20043) (37, -26902) (38, -11133) (39, 48000) (40, 48000) (41, 48000) (42, 48000) (43, 48000) (44, 48000) (45, -45881) (46, 48000) (47, 48000) (48, 48000) (49, 48000) (50, 48000) (51, 48000) (52, 48000) (53, 48000) (54, 48000) (55, 48000) (56, 48000) (57, 48000) (58, 48000) (59, 48000) (60, -42759) (61, -47808) (62, -38037) (63, -47983) (64, -46834) (65, -40740) (66, -48000) (67, -48000) (68, -46542) (69, -45554) (70, -43831) (71, -47629) (72, -47152) (73, -21317) (74, 1286) (75, 48000) (76, 48000) (77, 48000) (78, 48000) (79, 48000) (80, 48000) (81, 48000) (82, 48000) (83, 48000) (84, 48000) (85, 48000) (86, 48000) (87, 48000) (88, 48000) (89, 48000) (90, 48000) (91, 48000) (92, 48000) (93, 48000) (94, 48000) (95, 48000) (96, 48000) (97, 48000) (98, 48000) (99, 48000) (100, 48000) (101, 48000) (102, 48000) (103, 48000) (104, 48000) (105, -47507) (106, -47992) (107, -48000) (108, -45690) (109, -42748) (110, -46167) (111, -47483) (112, -48000) (113, -47993) (114, -48000) (115, -48000) (116, -48000) (117, -48000) (118, -48000) (119, -3566) (120, 48000) (121, 48000) (122, 48000) (123, 48000) (124, 48000) (125, 48000) (126, 48000) (127, 48000) (128, 48000) (129, 48000) (130, 48000) (131, 48000) (132, 48000) (133, 48000) (134, 48000) (135, 48000) (136, 48000) (137, 48000) (138, 48000) (139, 48000) (140, 48000) (141, 48000) (142, 48000) (143, 48000) (144, 48000) (145, 48000) (146, 48000) (147, 48000) (148, 48000) (149, 48000) (150, 48000) (151, 48000) (152, 48000) (153, 48000) (154, 48000) (155, 48000) (156, 48000) (157, 48000) (158, 48000) (159, 48000) (160, 48000) (161, 48000) (162, 48000) (163, 48000) (164, 48000) (165, 48000) (166, 48000) (167, 48000) (168, 48000) (169, 48000) (170, 48000) (171, 48000) (172, 48000) (173, 48000) (174, 48000) (175, 48000) (176, 48000) (177, 48000) (178, 48000) (179, 48000) (180, 48000) (181, 48000) (182, 48000) (183, 48000) (184, 48000) (185, 48000) (186, 48000) (187, 48000) (188, 48000) (189, 48000) (190, 48000) (191, 48000) (192, 48000) (193, 48000) (194, 48000) (195, 48000) (196, 48000) (197, 48000) (198, 48000) (199, 48000) (200, 48000) (201, 48000) (202, 48000) (203, 48000) (204, 48000) (205, 48000) (206, 48000) (207, 48000) (208, 48000) (209, 48000) (210, 48000) (211, 48000) (212, 48000) (213, 48000) (214, 48000) (215, 48000) (216, 48000) (217, 48000) (218, 48000) (219, 48000) (220, 48000) (221, 48000) (222, 48000) (223, 48000) (224, 48000) (225, 48000) (226, 48000) (227, 48000) (228, 48000) (229, 48000) (230, 48000) (231, 48000) (232, 48000) (233, 48000) (234, 48000) (235, 48000) (236, 48000) (237, 46400) (238, 48000) (239, -22400) (240, -48000) (241, -48000) (242, -45267) (243, -47330) (244, -38703) (245, -47153) (246, -47347) (247, -47461) (248, -40705) (249, -45979) (250, -48000) (251, -46976) (252, -47983) (253, -43091) (254, -47507) (255, -46871) (256, -47130) (257, -45583) (258, -47792) (259, -47878) (260, -46849) (261, -42924) (262, -47987) (263, -46666) (264, -47995) (265, -48000) (266, -48000) (267, -48000) (268, -48000) (269, -48000) (270, -48000) (271, -48000) (272, -48000) (273, -48000) (274, -48000) (275, -48000) (276, -45711) (277, -45711) (278, -48000) (279, -48000) (280, -48000) (281, -48000) (282, -46180) (283, -48000) (284, -48000) (285, 48000) (286, 48000) (287, 48000) (288, 48000) (289, 48000) (290, 48000) (291, 48000) (292, 48000) (293, 48000) (294, 48000) (295, 48000) (296, 48000) (297, 48000) (298, 48000) (299, 48000) (300, 48000) (301, 48000) (302, 48000) (303, 48000) (304, 48000) (305, 48000) (306, 48000) (307, -45881) (308, -48000) (0, -30099) (1, 48000) (2, 48000) (3, 48000) (4, 26933) (5, 19771) (6, 48000) (7, 48000) (8, 19126) (9, 47187) (10, -47558) (11, -47989) (12, -46157) (13, -48000) (14, -48000) (15, -48000) (16, -48000) (17, -48000) (18, -48000) (19, -48000) (20, -48000) (21, -48000) (22, -48000) (23, -45027) (24, -47440) (25, -47786) (26, -47816) (27, -47996) (28, -47903) (29, -48000) (30, -33528) (31, -44190) (32, -44514) (33, 48000) (34, -7763) (35, 48000) (36, 20043) (37, -26902) (38, -11133) (39, 48000) (40, 48000) (41, 48000) (42, 48000) (43, 48000) (44, 48000) (45, -45881) (46, 48000) (47, 48000) (48, 48000) (49, 48000) (50, 48000) (51, 48000) (52, 48000) (53, 48000) (54, 48000) (55, 48000) (56, 48000) (57, 48000) (58, 48000) (59, 48000) (60, -42759) (61, -47808) (62, -38037) (63, -47983) (64, -46834) (65, -40740) (66, -48000) (67, -48000) (68, -46542) (69, -45554) (70, -43831) (71, -47629) (72, -47152) (73, -21317) (74, 1286) (75, 48000) (76, 48000) (77, 48000) (78, 48000) (79, 48000) (80, 48000) (81, 48000) (82, 48000) (83, 48000) (84, 48000) (85, 48000) (86, 48000) (87, 48000) (88, 48000) (89, 48000) (90, 48000) (91, 48000) (92, 48000) (93, 48000) (94, 48000) (95, 48000) (96, 48000) (97, 48000) (98, 48000) (99, 48000) (100, 48000) (101, 48000) (102, 48000) (103, 48000) (104, 48000) (105, -47507) (106, -47992) (107, -48000) (108, -45690) (109, -42748) (110, -46167) (111, -47483) (112, -48000) (113, -47993) (114, -48000) (115, -48000) (116, -48000) (117, -48000) (118, -48000) (119, -3566) (120, 48000) (121, 48000) (122, 48000) (123, 48000) (124, 48000) (125, 48000) (126, 48000) (127, 48000) (128, 48000) (129, 48000) (130, 48000) (131, 48000) (132, 48000) (133, 48000) (134, 48000) (135, 48000) (136, 48000) (137, 48000) (138, 48000) (139, 48000) (140, 48000) (141, 48000) (142, 48000) (143, 48000) (144, 48000) (145, 48000) (146, 48000) (147, 48000) (148, 48000) (149, 48000) (150, 48000) (151, 48000) (152, 48000) (153, 48000) (154, 48000) (155, 48000) (156, 48000) (157, 48000) (158, 48000) (159, 48000) (160, 48000) (161, 48000) (162, 48000) (163, 48000) (164, 48000) (165, 48000) (166, 48000) (167, 48000) (168, 48000) (169, 48000) (170, 48000) (171, 48000) (172, 48000) (173, 48000) (174, 48000) (175, 48000) (176, 48000) (177, 48000) (178, 48000) (179, 48000) (180, 48000) (181, 48000) (182, 48000) (183, 48000) (184, 48000) (185, 48000) (186, 48000) (187, 48000) (188, 48000) (189, 48000) (190, 48000) (191, 48000) (192, 48000) (193, 48000) (194, 48000) (195, 48000) (196, 48000) (197, 48000) (198, 48000) (199, 48000) (200, 48000) (201, 48000) (202, 48000) (203, 48000) (204, 48000) (205, 48000) (206, 48000) (207, 48000) (208, 48000) (209, 48000) (210, 48000) (211, 48000) (212, 48000) (213, 48000) (214, 48000) (215, 48000) (216, 48000) (217, 48000) (218, 48000) (219, 48000) (220, 48000) (221, 48000) (222, 48000) (223, 48000) (224, 48000) (225, 48000) (226, 48000) (227, 48000) (228, 48000) (229, 48000) (230, 48000) (231, 48000) (232, 48000) (233, 48000) (234, 48000) (235, 48000) (236, 48000) (237, 46400) (238, 48000) (239, -22400) (240, -48000) (241, -48000) (242, -45267) (243, -47330) (244, -38703) (245, -47153) (246, -47347) (247, -47461) (248, -40705) (249, -45979) (250, -48000) (251, -46976) (252, -47983) (253, -43091) (254, -47507) (255, -46871) (256, -47130) (257, -45583) (258, -47792) (259, -47878) (260, -46849) (261, -42924) (262, -47987) (263, -46666) (264, -47995) (265, -48000) (266, -48000) (267, -48000) (268, -48000) (269, -48000) (270, -48000) (271, -48000) (272, -48000) (273, -48000) (274, -48000) (275, -48000) (276, -45711) (277, -45711) (278, -48000) (279, -48000) (280, -48000) (281, -48000) (282, -46180) (283, -48000) (284, -48000) (285, 48000) (286, 48000) (287, 48000) (288, 48000) (289, 48000) (290, 48000) (291, 48000) (292, 48000) (293, 48000) (294, 48000) (295, 48000) (296, 48000) (297, 48000) (298, 48000) (299, 48000) (300, 48000) (301, 48000) (302, 48000) (303, 48000) (304, 48000) (305, 48000) (306, 48000) (307, -45881) (308, -48000) (0, -30099) (1, 48000) (2, 48000) (3, 48000) (4, 26933) (5, 19771) (6, 48000) (7, 48000) (8, 19126) (9, 47187) (10, -47558) (11, -47989) (12, -46157) (13, -48000) (14, -48000) (15, -48000) (16, -48000) (17, -48000) (18, -48000) (19, -48000) (20, -48000) (21, -48000) (22, -48000) (23, -45027) (24, -47440) (25, -47786) (26, -47816) (27, -47996) (28, -47903) (29, -48000) (30, -33528) (31, -44190) (32, -44514) (33, 48000) (34, -7763) (35, 48000) (36, 20043) (37, -26902) (38, -11133) (39, 48000) (40, 48000) (41, 48000) (42, 48000) (43, 48000) (44, 48000) (45, -45881) (46, 48000) (47, 48000) (48, 48000) (49, 48000) (50, 48000) (51, 48000) (52, 48000) (53, 48000) (54, 48000) (55, 48000) (56, 48000) (57, 48000) (58, 48000) (59, 48000) (60, -42759) (61, -47808) (62, -38037) (63, -47983) (64, -46834) (65, -40740) (66, -48000) (67, -48000) (68, -46542) (69, -45554) (70, -43831) (71, -47629) (72, -47152) (73, -21317) (74, 1286) (75, 48000) (76, 48000) (77, 48000) (78, 48000) (79, 48000) (80, 48000) (81, 48000) (82, 48000) (83, 48000) (84, 48000) (85, 48000) (86, 48000) (87, 48000) (88, 48000) (89, 48000) (90, 48000) (91, 48000) (92, 48000) (93, 48000) (94, 48000) (95, 48000) (96, 48000) (97, 48000) (98, 48000) (99, 48000) (100, 48000) (101, 48000) (102, 48000) (103, 48000) (104, 48000) (105, -47507) (106, -47992) (107, -48000) (108, -45690) (109, -42748) (110, -46167) (111, -47483) (112, -48000) (113, -47993) (114, -48000) (115, -48000) (116, -48000) (117, -48000) (118, -48000) (119, -3566) (120, 48000) (121, 48000) (122, 48000) (123, 48000) (124, 48000) (125, 48000) (126, 48000) (127, 48000) (128, 48000) (129, 48000) (130, 48000) (131, 48000) (132, 48000) (133, 48000) (134, 48000) (135, 48000) (136, 48000) (137, 48000) (138, 48000) (139, 48000) (140, 48000) (141, 48000) (142, 48000) (143, 48000) (144, 48000) (145, 48000) (146, 48000) (147, 48000) (148, 48000) (149, 48000) (150, 48000) (151, 48000) (152, 48000) (153, 48000) (154, 48000) (155, 48000) (156, 48000) (157, 48000) (158, 48000) (159, 48000) (160, 48000) (161, 48000) (162, 48000) (163, 48000) (164, 48000) (165, 48000) (166, 48000) (167, 48000) (168, 48000) (169, 48000) (170, 48000) (171, 48000) (172, 48000) (173, 48000) (174, 48000) (175, 48000) (176, 48000) (177, 48000) (178, 48000) (179, 48000) (180, 48000) (181, 48000) (182, 48000) (183, 48000) (184, 48000) (185, 48000) (186, 48000) (187, 48000) (188, 48000) (189, 48000) (190, 48000) (191, 48000) (192, 48000) (193, 48000) (194, 48000) (195, 48000) (196, 48000) (197, 48000) (198, 48000) (199, 48000) (200, 48000) (201, 48000) (202, 48000) (203, 48000) (204, 48000) (205, 48000) (206, 48000) (207, 48000) (208, 48000) (209, 48000) (210, 48000) (211, 48000) (212, 48000) (213, 48000) (214, 48000) (215, 48000) (216, 48000) (217, 48000) (218, 48000) (219, 48000) (220, 48000) (221, 48000) (222, 48000) (223, 48000) (224, 48000) (225, 48000) (226, 48000) (227, 48000) (228, 48000) (229, 48000) (230, 48000) (231, 48000) (232, 48000) (233, 48000) (234, 48000) (235, 48000) (236, 48000) (237, 46400) (238, 48000) (239, -22400) (240, -48000) (241, -48000) (242, -45267) (243, -47330) (244, -38703) (245, -47153) (246, -47347) (247, -47461) (248, -40705) (249, -45979) (250, -48000) (251, -46976) (252, -47983) (253, -43091) (254, -47507) (255, -46871) (256, -47130) (257, -45583) (258, -47792) (259, -47878) (260, -46849) (261, -42924) (262, -47987) (263, -46666) (264, -47995) (265, -48000) (266, -48000) (267, -48000) (268, -48000) (269, -48000) (270, -48000) (271, -48000) (272, -48000) (273, -48000) (274, -48000) (275, -48000) (276, -45711) (277, -45711) (278, -48000) (279, -48000) (280, -48000) (281, -48000) (282, -46180) (283, -48000) (284, -48000) (285, 48000) (286, 48000) (287, 48000) (288, 48000) (289, 48000) (290, 48000) (291, 48000) (292, 48000) (293, 48000) (294, 48000) (295, 48000) (296, 48000) (297, 48000) (298, 48000) (299, 48000) (300, 48000) (301, 48000) (302, 48000) (303, 48000) (304, 48000) (305, 48000) (306, 48000) (307, -45881) (308, -48000) (0, 48000) (1, -48000) (2, -48000) (3, -48000) (4, -31272) (5, -48000) (6, -48000) (7, 15338) (8, -48000) (9, 5856) (10, 47274) (11, 47640) (12, 42606) (13, 47181) (14, 47223) (15, 48000) (16, 48000) (17, 48000) (18, 48000) (19, 48000) (20, 48000) (21, 48000) (22, 47973) (23, 48000) (24, 48000) (25, 48000) (26, 48000) (27, 47217) (28, 47949) (29, 48000) (30, 48000) (31, 48000) (32, 47988) (33, -15526) (34, -48000) (35, -48000) (36, -47560) (37, -4016) (38, 6706) (39, -48000) (40, -48000) (41, -48000) (42, -48000) (43, -48000) (44, -48000) (45, 48000) (46, 48000) (47, 48000) (48, 48000) (49, 48000) (50, 48000) (51, 48000) (52, 48000) (53, 48000) (54, 48000) (55, 48000) (56, 48000) (57, 48000) (58, 48000) (59, 48000) (60, 47897) (61, 47410) (62, 47900) (63, 47994) (64, 48000) (65, 48000) (66, 48000) (67, 48000) (68, 48000) (69, 48000) (70, 48000) (71, 47965) (72, 47703) (73, 47808) (74, 37849) (75, 48000) (76, 48000) (77, 48000) (78, 48000) (79, 48000) (80, 48000) (81, 48000) (82, 48000) (83, 48000) (84, 48000) (85, 48000) (86, 48000) (87, 48000) (88, 48000) (89, 48000) (90, 48000) (91, 48000) (92, 48000) (93, 48000) (94, 48000) (95, 48000) (96, 48000) (97, 48000) (98, 48000) (99, 48000) (100, 48000) (101, 48000) (102, 48000) (103, 48000) (104, 48000) (105, 47295) (106, 47411) (107, 48000) (108, 48000) (109, 48000) (110, 48000) (111, 48000) (112, 48000) (113, 44109) (114, 48000) (115, 48000) (116, 48000) (117, 48000) (118, 48000) (119, 48000) (120, 48000) (121, 48000) (122, 48000) (123, 48000) (124, 48000) (125, 48000) (126, 48000) (127, 48000) (128, 48000) (129, 48000) (130, 48000) (131, 48000) (132, 48000) (133, 48000) (134, 48000) (135, 48000) (136, 48000) (137, 48000) (138, 48000) (139, 48000) (140, 48000) (141, 48000) (142, 48000) (143, 48000) (144, 48000) (145, 48000) (146, 48000) (147, 48000) (148, 48000) (149, 48000) (150, 48000) (151, 48000) (152, 48000) (153, 48000) (154, 48000) (155, 48000) (156, 48000) (157, 48000) (158, 48000) (159, 48000) (160, 48000) (161, 48000) (162, 48000) (163, 48000) (164, 48000) (165, 48000) (166, 48000) (167, 48000) (168, 48000) (169, 48000) (170, 48000) (171, 48000) (172, 48000) (173, 48000) (174, 48000) (175, 48000) (176, 48000) (177, 48000) (178, 48000) (179, 48000) (180, 48000) (181, 48000) (182, 48000) (183, 48000) (184, 48000) (185, 48000) (186, 48000) (187, 48000) (188, 48000) (189, 48000) (190, 48000) (191, 48000) (192, 48000) (193, 48000) (194, 48000) (195, 48000) (196, 48000) (197, 48000) (198, 48000) (199, 48000) (200, 48000) (201, 48000) (202, 48000) (203, 48000) (204, 48000) (205, 48000) (206, 48000) (207, 48000) (208, 48000) (209, 48000) (210, 48000) (211, 48000) (212, 48000) (213, 48000) (214, 48000) (215, 48000) (216, 48000) (217, 48000) (218, 48000) (219, 48000) (220, 48000) (221, 48000) (222, 48000) (223, 48000) (224, 48000) (225, 48000) (226, 48000) (227, 48000) (228, 48000) (229, 48000) (230, 48000) (231, 48000) (232, 48000) (233, 48000) (234, 48000) (235, 48000) (236, 48000) (237, 48000) (238, 48000) (239, 48000) (240, -44395) (241, 48000) (242, 48000) (243, 47561) (244, 48000) (245, 44509) (246, 33354) (247, 40082) (248, 30654) (249, 48000) (250, 48000) (251, 47994) (252, 47995) (253, 48000) (254, 48000) (255, 48000) (256, 47357) (257, 48000) (258, 48000) (259, 48000) (260, 48000) (261, 47910) (262, 46098) (263, 47894) (264, 47933) (265, 48000) (266, 48000) (267, 48000) (268, 48000) (269, 48000) (270, 48000) (271, 48000) (272, 48000) (273, 48000) (274, 48000) (275, 48000) (276, 48000) (277, 48000) (278, 48000) (279, 48000) (280, 48000) (281, 48000) (282, 48000) (283, 48000) (284, 48000) (285, 48000) (286, 48000) (287, 48000) (288, 48000) (289, 48000) (290, 48000) (291, 48000) (292, 48000) (293, 48000) (294, 48000) (295, 48000) (296, 48000) (297, 48000) (298, 48000) (299, 48000) (300, 48000) (301, 48000) (302, 48000) (303, 48000) (304, 48000) (305, 48000) (306, 48000) (307, 48000) (308, 48000) (0, -30099) (1, 48000) (2, 48000) (3, 48000) (4, 26933) (5, 19771) (6, 48000) (7, 48000) (8, 19126) (9, 47187) (10, -47558) (11, -47989) (12, -46157) (13, -48000) (14, -48000) (15, -48000) (16, -48000) (17, -48000) (18, -48000) (19, -48000) (20, -48000) (21, -48000) (22, -48000) (23, -45027) (24, -47440) (25, -47786) (26, -47816) (27, -47996) (28, -47903) (29, -48000) (30, -33528) (31, -44190) (32, -44514) (33, 48000) (34, -7763) (35, 48000) (36, 20043) (37, -26902) (38, -11133) (39, 48000) (40, 48000) (41, 48000) (42, 48000) (43, 48000) (44, 48000) (45, -45881) (46, 48000) (47, 48000) (48, 48000) (49, 48000) (50, 48000) (51, 48000) (52, 48000) (53, 48000) (54, 48000) (55, 48000) (56, 48000) (57, 48000) (58, 48000) (59, 48000) (60, -42759) (61, -47808) (62, -38037) (63, -47983) (64, -46834) (65, -40740) (66, -48000) (67, -48000) (68, -46542) (69, -45554) (70, -43831) (71, -47629) (72, -47152) (73, -21317) (74, 1286) (75, 48000) (76, 48000) (77, 48000) (78, 48000) (79, 48000) (80, 48000) (81, 48000) (82, 48000) (83, 48000) (84, 48000) (85, 48000) (86, 48000) (87, 48000) (88, 48000) (89, 48000) (90, 48000) (91, 48000) (92, 48000) (93, 48000) (94, 48000) (95, 48000) (96, 48000) (97, 48000) (98, 48000) (99, 48000) (100, 48000) (101, 48000) (102, 48000) (103, 48000) (104, 48000) (105, -47507) (106, -47992) (107, -48000) (108, -45690) (109, -42748) (110, -46167) (111, -47483) (112, -48000) (113, -47993) (114, -48000) (115, -48000) (116, -48000) (117, -48000) (118, -48000) (119, -3566) (120, 48000) (121, 48000) (122, 48000) (123, 48000) (124, 48000) (125, 48000) (126, 48000) (127, 48000) (128, 48000) (129, 48000) (130, 48000) (131, 48000) (132, 48000) (133, 48000) (134, 48000) (135, 48000) (136, 48000) (137, 48000) (138, 48000) (139, 48000) (140, 48000) (141, 48000) (142, 48000) (143, 48000) (144, 48000) (145, 48000) (146, 48000) (147, 48000) (148, 48000) (149, 48000) (150, 48000) (151, 48000) (152, 48000) (153, 48000) (154, 48000) (155, 48000) (156, 48000) (157, 48000) (158, 48000) (159, 48000) (160, 48000) (161, 48000) (162, 48000) (163, 48000) (164, 48000) (165, 48000) (166, 48000) (167, 48000) (168, 48000) (169, 48000) (170, 48000) (171, 48000) (172, 48000) (173, 48000) (174, 48000) (175, 48000) (176, 48000) (177, 48000) (178, 48000) (179, 48000) (180, 48000) (181, 48000) (182, 48000) (183, 48000) (184, 48000) (185, 48000) (186, 48000) (187, 48000) (188, 48000) (189, 48000) (190, 48000) (191, 48000) (192, 48000) (193, 48000) (194, 48000) (195, 48000) (196, 48000) (197, 48000) (198, 48000) (199, 48000) (200, 48000) (201, 48000) (202, 48000) (203, 48000) (204, 48000) (205, 48000) (206, 48000) (207, 48000) (208, 48000) (209, 48000) (210, 48000) (211, 48000) (212, 48000) (213, 48000) (214, 48000) (215, 48000) (216, 48000) (217, 48000) (218, 48000) (219, 48000) (220, 48000) (221, 48000) (222, 48000) (223, 48000) (224, 48000) (225, 48000) (226, 48000) (227, 48000) (228, 48000) (229, 48000) (230, 48000) (231, 48000) (232, 48000) (233, 48000) (234, 48000) (235, 48000) (236, 48000) (237, 46400) (238, 48000) (239, -22400) (240, -48000) (241, -48000) (242, -45267) (243, -47330) (244, -38703) (245, -47153) (246, -47347) (247, -47461) (248, -40705) (249, -45979) (250, -48000) (251, -46976) (252, -47983) (253, -43091) (254, -47507) (255, -46871) (256, -47130) (257, -45583) (258, -47792) (259, -47878) (260, -46849) (261, -42924) (262, -47987) (263, -46666) (264, -47995) (265, -48000) (266, -48000) (267, -48000) (268, -48000) (269, -48000) (270, -48000) (271, -48000) (272, -48000) (273, -48000) (274, -48000) (275, -48000) (276, -45711) (277, -45711) (278, -48000) (279, -48000) (280, -48000) (281, -48000) (282, -46180) (283, -48000) (284, -48000) (285, 48000) (286, 48000) (287, 48000) (288, 48000) (289, 48000) (290, 48000) (291, 48000) (292, 48000) (293, 48000) (294, 48000) (295, 48000) (296, 48000) (297, 48000) (298, 48000) (299, 48000) (300, 48000) (301, 48000) (302, 48000) (303, 48000) (304, 48000) (305, 48000) (306, 48000) (307, -45881) (308, -48000) (0, 34370) (1, 48000) (2, 48000) (3, 48000) (4, 10251) (5, 47676) (6, -11978) (7, 48000) (8, 48000) (9, 48000) (10, 48000) (11, 46717) (12, 46717) (13, 46411) (14, 46411) (15, 47377) (16, 47908) (17, 44999) (18, 47287) (19, 46436) (20, -47910) (21, -4486) (22, -2800) (23, 39250) (24, 21089) (25, 40188) (26, 45684) (27, 39094) (28, 47999) (29, 48000) (30, 47993) (31, 47988) (32, -45346) (33, 7336) (34, 39682) (35, 48000) (36, 12518) (37, -5995) (38, 9925) (39, 48000) (40, 48000) (41, 48000) (42, 48000) (43, 48000) (44, 48000) (45, 48000) (46, 48000) (47, 48000) (48, 48000) (49, 48000) (50, 48000) (51, 48000) (52, 48000) (53, 48000) (54, 48000) (55, 48000) (56, 48000) (57, 48000) (58, 48000) (59, 48000) (60, -46930) (61, -42317) (62, -47985) (63, -35703) (64, 22751) (65, 47993) (66, -17902) (67, -2600) (68, -20483) (69, 47999) (70, 47161) (71, 9176) (72, -41907) (73, 33352) (74, 22920) (75, 48000) (76, 48000) (77, 48000) (78, 48000) (79, 48000) (80, 48000) (81, 48000) (82, 48000) (83, 48000) (84, 48000) (85, 48000) (86, 48000) (87, 48000) (88, 48000) (89, 48000) (90, 48000) (91, 48000) (92, 48000) (93, 48000) (94, 48000) (95, 48000) (96, 48000) (97, 48000) (98, 48000) (99, 48000) (100, 48000) (101, 48000) (102, 48000) (103, 48000) (104, 48000) (105, 16875) (106, 47988) (107, 48000) (108, -47997) (109, -28519) (110, -5361) (111, -38125) (112, -47826) (113, -48000) (114, 1677) (115, 48000) (116, 47983) (117, 47909) (118, 47914) (119, -46931) (120, 48000) (121, 48000) (122, 48000) (123, 48000) (124, 48000) (125, 48000) (126, 48000) (127, 48000) (128, 48000) (129, 48000) (130, 48000) (131, 48000) (132, 48000) (133, 48000) (134, 48000) (135, 48000) (136, 48000) (137, 48000) (138, 48000) (139, 48000) (140, 48000) (141, 48000) (142, 48000) (143, 48000) (144, 48000) (145, 48000) (146, 48000) (147, 48000) (148, 48000) (149, 48000) (150, 48000) (151, 48000) (152, 48000) (153, 48000) (154, 48000) (155, 48000) (156, 48000) (157, 48000) (158, 48000) (159, 48000) (160, 48000) (161, 48000) (162, 48000) (163, 48000) (164, 48000) (165, 48000) (166, 48000) (167, 48000) (168, 48000) (169, 48000) (170, 48000) (171, 48000) (172, 48000) (173, 48000) (174, 48000) (175, 48000) (176, 48000) (177, 48000) (178, 48000) (179, 48000) (180, 48000) (181, 48000) (182, 48000) (183, 48000) (184, 48000) (185, 48000) (186, 48000) (187, 48000) (188, 48000) (189, 48000) (190, 48000) (191, 48000) (192, 48000) (193, 48000) (194, 48000) (195, 48000) (196, 48000) (197, 48000) (198, 48000) (199, 48000) (200, 48000) (201, 48000) (202, 48000) (203, 48000) (204, 48000) (205, 48000) (206, 48000) (207, 48000) (208, 48000) (209, 48000) (210, 48000) (211, 48000) (212, 48000) (213, 48000) (214, 48000) (215, 48000) (216, 48000) (217, 48000) (218, 48000) (219, 48000) (220, 48000) (221, 48000) (222, 48000) (223, 48000) (224, 48000) (225, 48000) (226, 48000) (227, 48000) (228, 48000) (229, 48000) (230, 48000) (231, 48000) (232, 48000) (233, 48000) (234, 48000) (235, 48000) (236, 48000) (237, 46400) (238, 48000) (239, -18459) (240, 48000) (241, -44330) (242, -47688) (243, -41167) (244, 19638) (245, 5525) (246, -42594) (247, -31322) (248, 47119) (249, 45222) (250, 43841) (251, 48000) (252, 47991) (253, 48000) (254, 45803) (255, 47999) (256, 47999) (257, 23116) (258, 15089) (259, 18118) (260, 47959) (261, 41721) (262, 30442) (263, 47635) (264, 7396) (265, 6041) (266, -5499) (267, -22842) (268, -1649) (269, -22667) (270, -44672) (271, 29890) (272, 47611) (273, 37939) (274, 32242) (275, 35936) (276, -16291) (277, 22554) (278, 19518) (279, 3382) (280, 25239) (281, 46493) (282, 9610) (283, 47243) (284, 47998) (285, 48000) (286, 48000) (287, 48000) (288, 48000) (289, 48000) (290, 48000) (291, 48000) (292, 48000) (293, 48000) (294, 48000) (295, 48000) (296, 48000) (297, 48000) (298, 48000) (299, 48000) (300, 48000) (301, 48000) (302, 48000) (303, 48000) (304, 48000) (305, 48000) (306, 48000) (307, 48000) (308, -17400) (0, -30099) (1, 48000) (2, 48000) (3, 48000) (4, 26933) (5, 19771) (6, 48000) (7, 48000) (8, 19126) (9, 47187) (10, -47558) (11, -47989) (12, -46157) (13, -48000) (14, -48000) (15, -48000) (16, -48000) (17, -48000) (18, -48000) (19, -48000) (20, -48000) (21, -48000) (22, -48000) (23, -45027) (24, -47440) (25, -47786) (26, -47816) (27, -47996) (28, -47903) (29, -48000) (30, -33528) (31, -44190) (32, -44514) (33, 48000) (34, -7763) (35, 48000) (36, 20043) (37, -26902) (38, -11133) (39, 48000) (40, 48000) (41, 48000) (42, 48000) (43, 48000) (44, 48000) (45, -45881) (46, 48000) (47, 48000) (48, 48000) (49, 48000) (50, 48000) (51, 48000) (52, 48000) (53, 48000) (54, 48000) (55, 48000) (56, 48000) (57, 48000) (58, 48000) (59, 48000) (60, -42759) (61, -47808) (62, -38037) (63, -47983) (64, -46834) (65, -40740) (66, -48000) (67, -48000) (68, -46542) (69, -45554) (70, -43831) (71, -47629) (72, -47152) (73, -21317) (74, 1286) (75, 48000) (76, 48000) (77, 48000) (78, 48000) (79, 48000) (80, 48000) (81, 48000) (82, 48000) (83, 48000) (84, 48000) (85, 48000) (86, 48000) (87, 48000) (88, 48000) (89, 48000) (90, 48000) (91, 48000) (92, 48000) (93, 48000) (94, 48000) (95, 48000) (96, 48000) (97, 48000) (98, 48000) (99, 48000) (100, 48000) (101, 48000) (102, 48000) (103, 48000) (104, 48000) (105, -47507) (106, -47992) (107, -48000) (108, -45690) (109, -42748) (110, -46167) (111, -47483) (112, -48000) (113, -47993) (114, -48000) (115, -48000) (116, -48000) (117, -48000) (118, -48000) (119, -3566) (120, 48000) (121, 48000) (122, 48000) (123, 48000) (124, 48000) (125, 48000) (126, 48000) (127, 48000) (128, 48000) (129, 48000) (130, 48000) (131, 48000) (132, 48000) (133, 48000) (134, 48000) (135, 48000) (136, 48000) (137, 48000) (138, 48000) (139, 48000) (140, 48000) (141, 48000) (142, 48000) (143, 48000) (144, 48000) (145, 48000) (146, 48000) (147, 48000) (148, 48000) (149, 48000) (150, 48000) (151, 48000) (152, 48000) (153, 48000) (154, 48000) (155, 48000) (156, 48000) (157, 48000) (158, 48000) (159, 48000) (160, 48000) (161, 48000) (162, 48000) (163, 48000) (164, 48000) (165, 48000) (166, 48000) (167, 48000) (168, 48000) (169, 48000) (170, 48000) (171, 48000) (172, 48000) (173, 48000) (174, 48000) (175, 48000) (176, 48000) (177, 48000) (178, 48000) (179, 48000) (180, 48000) (181, 48000) (182, 48000) (183, 48000) (184, 48000) (185, 48000) (186, 48000) (187, 48000) (188, 48000) (189, 48000) (190, 48000) (191, 48000) (192, 48000) (193, 48000) (194, 48000) (195, 48000) (196, 48000) (197, 48000) (198, 48000) (199, 48000) (200, 48000) (201, 48000) (202, 48000) (203, 48000) (204, 48000) (205, 48000) (206, 48000) (207, 48000) (208, 48000) (209, 48000) (210, 48000) (211, 48000) (212, 48000) (213, 48000) (214, 48000) (215, 48000) (216, 48000) (217, 48000) (218, 48000) (219, 48000) (220, 48000) (221, 48000) (222, 48000) (223, 48000) (224, 48000) (225, 48000) (226, 48000) (227, 48000) (228, 48000) (229, 48000) (230, 48000) (231, 48000) (232, 48000) (233, 48000) (234, 48000) (235, 48000) (236, 48000) (237, 46400) (238, 48000) (239, -22400) (240, -48000) (241, -48000) (242, -45267) (243, -47330) (244, -38703) (245, -47153) (246, -47347) (247, -47461) (248, -40705) (249, -45979) (250, -48000) (251, -46976) (252, -47983) (253, -43091) (254, -47507) (255, -46871) (256, -47130) (257, -45583) (258, -47792) (259, -47878) (260, -46849) (261, -42924) (262, -47987) (263, -46666) (264, -47995) (265, -48000) (266, -48000) (267, -48000) (268, -48000) (269, -48000) (270, -48000) (271, -48000) (272, -48000) (273, -48000) (274, -48000) (275, -48000) (276, -45711) (277, -45711) (278, -48000) (279, -48000) (280, -48000) (281, -48000) (282, -46180) (283, -48000) (284, -48000) (285, 48000) (286, 48000) (287, 48000) (288, 48000) (289, 48000) (290, 48000) (291, 48000) (292, 48000) (293, 48000) (294, 48000) (295, 48000) (296, 48000) (297, 48000) (298, 48000) (299, 48000) (300, 48000) (301, 48000) (302, 48000) (303, 48000) (304, 48000) (305, 48000) (306, 48000) (307, -45881) (308, -48000) (0, -48000) (1, -48000) (2, -48000) (3, -48000) (4, -48000) (5, -48000) (6, -48000) (7, -48000) (8, -48000) (9, -48000) (10, -47356) (11, 47592) (12, 47882) (13, 48000) (14, 48000) (15, -41442) (16, 14705) (17, 42305) (18, 40102) (19, 44028) (20, 1368) (21, 3467) (22, 210) (23, -1268) (24, -1016) (25, -1816) (26, -5586) (27, 1981) (28, -21231) (29, -7045) (30, 47625) (31, 47998) (32, 5873) (33, -48000) (34, -48000) (35, -47502) (36, -47984) (37, -48000) (38, -48000) (39, -48000) (40, -48000) (41, -48000) (42, -48000) (43, -48000) (44, -48000) (45, -47955) (46, 48000) (47, 48000) (48, 48000) (49, 48000) (50, 48000) (51, 48000) (52, 48000) (53, 48000) (54, 48000) (55, 48000) (56, 48000) (57, 48000) (58, 48000) (59, 48000) (60, -19187) (61, -27705) (62, 47971) (63, 15032) (64, 16531) (65, 12) (66, -74) (67, 108) (68, -45) (69, -1884) (70, 5516) (71, 1464) (72, 14297) (73, -8459) (74, -33739) (75, 48000) (76, 48000) (77, 48000) (78, 48000) (79, 48000) (80, 48000) (81, 48000) (82, 48000) (83, 48000) (84, 48000) (85, 48000) (86, 48000) (87, 48000) (88, 48000) (89, 48000) (90, 48000) (91, 48000) (92, 48000) (93, 48000) (94, 48000) (95, 48000) (96, 48000) (97, 48000) (98, 48000) (99, 48000) (100, 48000) (101, 48000) (102, 48000) (103, 48000) (104, 48000) (105, 1976) (106, -5224) (107, 605) (108, 554) (109, 1816) (110, -7128) (111, -1245) (112, 5794) (113, 9840) (114, -911) (115, 26278) (116, -14724) (117, -14681) (118, -45289) (119, -48000) (120, 48000) (121, 48000) (122, 48000) (123, 48000) (124, 48000) (125, 48000) (126, 48000) (127, 48000) (128, 48000) (129, 48000) (130, 48000) (131, 48000) (132, 48000) (133, 48000) (134, 48000) (135, 48000) (136, 48000) (137, 48000) (138, 48000) (139, 48000) (140, 48000) (141, 48000) (142, 48000) (143, 48000) (144, 48000) (145, 48000) (146, 48000) (147, 48000) (148, 48000) (149, 48000) (150, 48000) (151, 48000) (152, 48000) (153, 48000) (154, 48000) (155, 48000) (156, 48000) (157, 48000) (158, 48000) (159, 48000) (160, 48000) (161, 48000) (162, 48000) (163, 48000) (164, 48000) (165, 48000) (166, 48000) (167, 48000) (168, 48000) (169, 48000) (170, 48000) (171, 48000) (172, 48000) (173, 48000) (174, 48000) (175, 48000) (176, 48000) (177, 48000) (178, 48000) (179, 48000) (180, 48000) (181, 48000) (182, 48000) (183, 48000) (184, 48000) (185, 48000) (186, 48000) (187, 48000) (188, 48000) (189, 48000) (190, 48000) (191, 48000) (192, 48000) (193, 48000) (194, 48000) (195, 48000) (196, 48000) (197, 48000) (198, 48000) (199, 48000) (200, 48000) (201, 48000) (202, 48000) (203, 48000) (204, 48000) (205, 48000) (206, 48000) (207, 48000) (208, 48000) (209, 48000) (210, 48000) (211, 48000) (212, 48000) (213, 48000) (214, 48000) (215, 48000) (216, 48000) (217, 48000) (218, 48000) (219, 48000) (220, 48000) (221, 48000) (222, 48000) (223, 48000) (224, 48000) (225, 48000) (226, 48000) (227, 48000) (228, 48000) (229, 48000) (230, 48000) (231, 48000) (232, 48000) (233, 48000) (234, 48000) (235, 48000) (236, 48000) (237, 46400) (238, 48000) (239, -22400) (240, -13139) (241, -40632) (242, -48000) (243, -47976) (244, -46983) (245, -48000) (246, -45821) (247, 1409) (248, -48000) (249, -47627) (250, 5072) (251, 45514) (252, 42402) (253, 45949) (254, 46589) (255, 45425) (256, 41649) (257, 26695) (258, 40521) (259, -11575) (260, 6034) (261, 2491) (262, 337) (263, -5646) (264, -324) (265, -8332) (266, -2099) (267, -6185) (268, -2589) (269, -794) (270, 1655) (271, -2670) (272, -683) (273, -1373) (274, -1701) (275, -145) (276, -212) (277, -471) (278, -7645) (279, -48000) (280, -30545) (281, -13122) (282, -47990) (283, -48000) (284, -48000) (285, 48000) (286, 48000) (287, 48000) (288, 48000) (289, 48000) (290, 48000) (291, 48000) (292, 48000) (293, 48000) (294, 48000) (295, 48000) (296, 48000) (297, 48000) (298, 48000) (299, 48000) (300, 48000) (301, 48000) (302, 48000) (303, 48000) (304, 48000) (305, 48000) (306, 48000) (307, -47955) (308, 120) (0, -30099) (1, 48000) (2, 48000) (3, 48000) (4, 26933) (5, 19771) (6, 48000) (7, 48000) (8, 19126) (9, 47187) (10, -47558) (11, -47989) (12, -46157) (13, -48000) (14, -48000) (15, -48000) (16, -48000) (17, -48000) (18, -48000) (19, -48000) (20, -48000) (21, -48000) (22, -48000) (23, -45027) (24, -47440) (25, -47786) (26, -47816) (27, -47996) (28, -47903) (29, -48000) (30, -33528) (31, -44190) (32, -44514) (33, 48000) (34, -7763) (35, 48000) (36, 20043) (37, -26902) (38, -11133) (39, 48000) (40, 48000) (41, 48000) (42, 48000) (43, 48000) (44, 48000) (45, -45881) (46, 48000) (47, 48000) (48, 48000) (49, 48000) (50, 48000) (51, 48000) (52, 48000) (53, 48000) (54, 48000) (55, 48000) (56, 48000) (57, 48000) (58, 48000) (59, 48000) (60, -42759) (61, -47808) (62, -38037) (63, -47983) (64, -46834) (65, -40740) (66, -48000) (67, -48000) (68, -46542) (69, -45554) (70, -43831) (71, -47629) (72, -47152) (73, -21317) (74, 1286) (75, 48000) (76, 48000) (77, 48000) (78, 48000) (79, 48000) (80, 48000) (81, 48000) (82, 48000) (83, 48000) (84, 48000) (85, 48000) (86, 48000) (87, 48000) (88, 48000) (89, 48000) (90, 48000) (91, 48000) (92, 48000) (93, 48000) (94, 48000) (95, 48000) (96, 48000) (97, 48000) (98, 48000) (99, 48000) (100, 48000) (101, 48000) (102, 48000) (103, 48000) (104, 48000) (105, -47507) (106, -47992) (107, -48000) (108, -45690) (109, -42748) (110, -46167) (111, -47483) (112, -48000) (113, -47993) (114, -48000) (115, -48000) (116, -48000) (117, -48000) (118, -48000) (119, -3566) (120, 48000) (121, 48000) (122, 48000) (123, 48000) (124, 48000) (125, 48000) (126, 48000) (127, 48000) (128, 48000) (129, 48000) (130, 48000) (131, 48000) (132, 48000) (133, 48000) (134, 48000) (135, 48000) (136, 48000) (137, 48000) (138, 48000) (139, 48000) (140, 48000) (141, 48000) (142, 48000) (143, 48000) (144, 48000) (145, 48000) (146, 48000) (147, 48000) (148, 48000) (149, 48000) (150, 48000) (151, 48000) (152, 48000) (153, 48000) (154, 48000) (155, 48000) (156, 48000) (157, 48000) (158, 48000) (159, 48000) (160, 48000) (161, 48000) (162, 48000) (163, 48000) (164, 48000) (165, 48000) (166, 48000) (167, 48000) (168, 48000) (169, 48000) (170, 48000) (171, 48000) (172, 48000) (173, 48000) (174, 48000) (175, 48000) (176, 48000) (177, 48000) (178, 48000) (179, 48000) (180, 48000) (181, 48000) (182, 48000) (183, 48000) (184, 48000) (185, 48000) (186, 48000) (187, 48000) (188, 48000) (189, 48000) (190, 48000) (191, 48000) (192, 48000) (193, 48000) (194, 48000) (195, 48000) (196, 48000) (197, 48000) (198, 48000) (199, 48000) (200, 48000) (201, 48000) (202, 48000) (203, 48000) (204, 48000) (205, 48000) (206, 48000) (207, 48000) (208, 48000) (209, 48000) (210, 48000) (211, 48000) (212, 48000) (213, 48000) (214, 48000) (215, 48000) (216, 48000) (217, 48000) (218, 48000) (219, 48000) (220, 48000) (221, 48000) (222, 48000) (223, 48000) (224, 48000) (225, 48000) (226, 48000) (227, 48000) (228, 48000) (229, 48000) (230, 48000) (231, 48000) (232, 48000) (233, 48000) (234, 48000) (235, 48000) (236, 48000) (237, 46400) (238, 48000) (239, -22400) (240, -48000) (241, -48000) (242, -45267) (243, -47330) (244, -38703) (245, -47153) (246, -47347) (247, -47461) (248, -40705) (249, -45979) (250, -48000) (251, -46976) (252, -47983) (253, -43091) (254, -47507) (255, -46871) (256, -47130) (257, -45583) (258, -47792) (259, -47878) (260, -46849) (261, -42924) (262, -47987) (263, -46666) (264, -47995) (265, -48000) (266, -48000) (267, -48000) (268, -48000) (269, -48000) (270, -48000) (271, -48000) (272, -48000) (273, -48000) (274, -48000) (275, -48000) (276, -45711) (277, -45711) (278, -48000) (279, -48000) (280, -48000) (281, -48000) (282, -46180) (283, -48000) (284, -48000) (285, 48000) (286, 48000) (287, 48000) (288, 48000) (289, 48000) (290, 48000) (291, 48000) (292, 48000) (293, 48000) (294, 48000) (295, 48000) (296, 48000) (297, 48000) (298, 48000) (299, 48000) (300, 48000) (301, 48000) (302, 48000) (303, 48000) (304, 48000) (305, 48000) (306, 48000) (307, -45881) (308, -48000) (0, -30099) (1, 48000) (2, 48000) (3, 48000) (4, 26933) (5, 19771) (6, 48000) (7, 48000) (8, 19126) (9, 47187) (10, -47558) (11, -47989) (12, -46157) (13, -48000) (14, -48000) (15, -48000) (16, -48000) (17, -48000) (18, -48000) (19, -48000) (20, -48000) (21, -48000) (22, -48000) (23, -45027) (24, -47440) (25, -47786) (26, -47816) (27, -47996) (28, -47903) (29, -48000) (30, -33528) (31, -44190) (32, -44514) (33, 48000) (34, -7763) (35, 48000) (36, 20043) (37, -26902) (38, -11133) (39, 48000) (40, 48000) (41, 48000) (42, 48000) (43, 48000) (44, 48000) (45, -45881) (46, 48000) (47, 48000) (48, 48000) (49, 48000) (50, 48000) (51, 48000) (52, 48000) (53, 48000) (54, 48000) (55, 48000) (56, 48000) (57, 48000) (58, 48000) (59, 48000) (60, -42759) (61, -47808) (62, -38037) (63, -47983) (64, -46834) (65, -40740) (66, -48000) (67, -48000) (68, -46542) (69, -45554) (70, -43831) (71, -47629) (72, -47152) (73, -21317) (74, 1286) (75, 48000) (76, 48000) (77, 48000) (78, 48000) (79, 48000) (80, 48000) (81, 48000) (82, 48000) (83, 48000) (84, 48000) (85, 48000) (86, 48000) (87, 48000) (88, 48000) (89, 48000) (90, 48000) (91, 48000) (92, 48000) (93, 48000) (94, 48000) (95, 48000) (96, 48000) (97, 48000) (98, 48000) (99, 48000) (100, 48000) (101, 48000) (102, 48000) (103, 48000) (104, 48000) (105, -47507) (106, -47992) (107, -48000) (108, -45690) (109, -42748) (110, -46167) (111, -47483) (112, -48000) (113, -47993) (114, -48000) (115, -48000) (116, -48000) (117, -48000) (118, -48000) (119, -3566) (120, 48000) (121, 48000) (122, 48000) (123, 48000) (124, 48000) (125, 48000) (126, 48000) (127, 48000) (128, 48000) (129, 48000) (130, 48000) (131, 48000) (132, 48000) (133, 48000) (134, 48000) (135, 48000) (136, 48000) (137, 48000) (138, 48000) (139, 48000) (140, 48000) (141, 48000) (142, 48000) (143, 48000) (144, 48000) (145, 48000) (146, 48000) (147, 48000) (148, 48000) (149, 48000) (150, 48000) (151, 48000) (152, 48000) (153, 48000) (154, 48000) (155, 48000) (156, 48000) (157, 48000) (158, 48000) (159, 48000) (160, 48000) (161, 48000) (162, 48000) (163, 48000) (164, 48000) (165, 48000) (166, 48000) (167, 48000) (168, 48000) (169, 48000) (170, 48000) (171, 48000) (172, 48000) (173, 48000) (174, 48000) (175, 48000) (176, 48000) (177, 48000) (178, 48000) (179, 48000) (180, 48000) (181, 48000) (182, 48000) (183, 48000) (184, 48000) (185, 48000) (186, 48000) (187, 48000) (188, 48000) (189, 48000) (190, 48000) (191, 48000) (192, 48000) (193, 48000) (194, 48000) (195, 48000) (196, 48000) (197, 48000) (198, 48000) (199, 48000) (200, 48000) (201, 48000) (202, 48000) (203, 48000) (204, 48000) (205, 48000) (206, 48000) (207, 48000) (208, 48000) (209, 48000) (210, 48000) (211, 48000) (212, 48000) (213, 48000) (214, 48000) (215, 48000) (216, 48000) (217, 48000) (218, 48000) (219, 48000) (220, 48000) (221, 48000) (222, 48000) (223, 48000) (224, 48000) (225, 48000) (226, 48000) (227, 48000) (228, 48000) (229, 48000) (230, 48000) (231, 48000) (232, 48000) (233, 48000) (234, 48000) (235, 48000) (236, 48000) (237, 46400) (238, 48000) (239, -22400) (240, -48000) (241, -48000) (242, -45267) (243, -47330) (244, -38703) (245, -47153) (246, -47347) (247, -47461) (248, -40705) (249, -45979) (250, -48000) (251, -46976) (252, -47983) (253, -43091) (254, -47507) (255, -46871) (256, -47130) (257, -45583) (258, -47792) (259, -47878) (260, -46849) (261, -42924) (262, -47987) (263, -46666) (264, -47995) (265, -48000) (266, -48000) (267, -48000) (268, -48000) (269, -48000) (270, -48000) (271, -48000) (272, -48000) (273, -48000) (274, -48000) (275, -48000) (276, -45711) (277, -45711) (278, -48000) (279, -48000) (280, -48000) (281, -48000) (282, -46180) (283, -48000) (284, -48000) (285, 48000) (286, 48000) (287, 48000) (288, 48000) (289, 48000) (290, 48000) (291, 48000) (292, 48000) (293, 48000) (294, 48000) (295, 48000) (296, 48000) (297, 48000) (298, 48000) (299, 48000) (300, 48000) (301, 48000) (302, 48000) (303, 48000) (304, 48000) (305, 48000) (306, 48000) (307, -45881) (308, -48000) (0, -30099) (1, 48000) (2, 48000) (3, 48000) (4, 26933) (5, 19771) (6, 48000) (7, 48000) (8, 19126) (9, 47187) (10, -47558) (11, -47989) (12, -46157) (13, -48000) (14, -48000) (15, -48000) (16, -48000) (17, -48000) (18, -48000) (19, -48000) (20, -48000) (21, -48000) (22, -48000) (23, -45027) (24, -47440) (25, -47786) (26, -47816) (27, -47996) (28, -47903) (29, -48000) (30, -33528) (31, -44190) (32, -44514) (33, 48000) (34, -7763) (35, 48000) (36, 20043) (37, -26902) (38, -11133) (39, 48000) (40, 48000) (41, 48000) (42, 48000) (43, 48000) (44, 48000) (45, -45881) (46, 48000) (47, 48000) (48, 48000) (49, 48000) (50, 48000) (51, 48000) (52, 48000) (53, 48000) (54, 48000) (55, 48000) (56, 48000) (57, 48000) (58, 48000) (59, 48000) (60, -42759) (61, -47808) (62, -38037) (63, -47983) (64, -46834) (65, -40740) (66, -48000) (67, -48000) (68, -46542) (69, -45554) (70, -43831) (71, -47629) (72, -47152) (73, -21317) (74, 1286) (75, 48000) (76, 48000) (77, 48000) (78, 48000) (79, 48000) (80, 48000) (81, 48000) (82, 48000) (83, 48000) (84, 48000) (85, 48000) (86, 48000) (87, 48000) (88, 48000) (89, 48000) (90, 48000) (91, 48000) (92, 48000) (93, 48000) (94, 48000) (95, 48000) (96, 48000) (97, 48000) (98, 48000) (99, 48000) (100, 48000) (101, 48000) (102, 48000) (103, 48000) (104, 48000) (105, -47507) (106, -47992) (107, -48000) (108, -45690) (109, -42748) (110, -46167) (111, -47483) (112, -48000) (113, -47993) (114, -48000) (115, -48000) (116, -48000) (117, -48000) (118, -48000) (119, -3566) (120, 48000) (121, 48000) (122, 48000) (123, 48000) (124, 48000) (125, 48000) (126, 48000) (127, 48000) (128, 48000) (129, 48000) (130, 48000) (131, 48000) (132, 48000) (133, 48000) (134, 48000) (135, 48000) (136, 48000) (137, 48000) (138, 48000) (139, 48000) (140, 48000) (141, 48000) (142, 48000) (143, 48000) (144, 48000) (145, 48000) (146, 48000) (147, 48000) (148, 48000) (149, 48000) (150, 48000) (151, 48000) (152, 48000) (153, 48000) (154, 48000) (155, 48000) (156, 48000) (157, 48000) (158, 48000) (159, 48000) (160, 48000) (161, 48000) (162, 48000) (163, 48000) (164, 48000) (165, 48000) (166, 48000) (167, 48000) (168, 48000) (169, 48000) (170, 48000) (171, 48000) (172, 48000) (173, 48000) (174, 48000) (175, 48000) (176, 48000) (177, 48000) (178, 48000) (179, 48000) (180, 48000) (181, 48000) (182, 48000) (183, 48000) (184, 48000) (185, 48000) (186, 48000) (187, 48000) (188, 48000) (189, 48000) (190, 48000) (191, 48000) (192, 48000) (193, 48000) (194, 48000) (195, 48000) (196, 48000) (197, 48000) (198, 48000) (199, 48000) (200, 48000) (201, 48000) (202, 48000) (203, 48000) (204, 48000) (205, 48000) (206, 48000) (207, 48000) (208, 48000) (209, 48000) (210, 48000) (211, 48000) (212, 48000) (213, 48000) (214, 48000) (215, 48000) (216, 48000) (217, 48000) (218, 48000) (219, 48000) (220, 48000) (221, 48000) (222, 48000) (223, 48000) (224, 48000) (225, 48000) (226, 48000) (227, 48000) (228, 48000) (229, 48000) (230, 48000) (231, 48000) (232, 48000) (233, 48000) (234, 48000) (235, 48000) (236, 48000) (237, 46400) (238, 48000) (239, -22400) (240, -48000) (241, -48000) (242, -45267) (243, -47330) (244, -38703) (245, -47153) (246, -47347) (247, -47461) (248, -40705) (249, -45979) (250, -48000) (251, -46976) (252, -47983) (253, -43091) (254, -47507) (255, -46871) (256, -47130) (257, -45583) (258, -47792) (259, -47878) (260, -46849) (261, -42924) (262, -47987) (263, -46666) (264, -47995) (265, -48000) (266, -48000) (267, -48000) (268, -48000) (269, -48000) (270, -48000) (271, -48000) (272, -48000) (273, -48000) (274, -48000) (275, -48000) (276, -45711) (277, -45711) (278, -48000) (279, -48000) (280, -48000) (281, -48000) (282, -46180) (283, -48000) (284, -48000) (285, 48000) (286, 48000) (287, 48000) (288, 48000) (289, 48000) (290, 48000) (291, 48000) (292, 48000) (293, 48000) (294, 48000) (295, 48000) (296, 48000) (297, 48000) (298, 48000) (299, 48000) (300, 48000) (301, 48000) (302, 48000) (303, 48000) (304, 48000) (305, 48000) (306, 48000) (307, -45881) (308, -48000) (0, -30099) (1, 48000) (2, 48000) (3, 48000) (4, 26933) (5, 19771) (6, 48000) (7, 48000) (8, 19126) (9, 47187) (10, -47558) (11, -47989) (12, -46157) (13, -48000) (14, -48000) (15, -48000) (16, -48000) (17, -48000) (18, -48000) (19, -48000) (20, -48000) (21, -48000) (22, -48000) (23, -45027) (24, -47440) (25, -47786) (26, -47816) (27, -47996) (28, -47903) (29, -48000) (30, -33528) (31, -44190) (32, -44514) (33, 48000) (34, -7763) (35, 48000) (36, 20043) (37, -26902) (38, -11133) (39, 48000) (40, 48000) (41, 48000) (42, 48000) (43, 48000) (44, 48000) (45, -45881) (46, 48000) (47, 48000) (48, 48000) (49, 48000) (50, 48000) (51, 48000) (52, 48000) (53, 48000) (54, 48000) (55, 48000) (56, 48000) (57, 48000) (58, 48000) (59, 48000) (60, -42759) (61, -47808) (62, -38037) (63, -47983) (64, -46834) (65, -40740) (66, -48000) (67, -48000) (68, -46542) (69, -45554) (70, -43831) (71, -47629) (72, -47152) (73, -21317) (74, 1286) (75, 48000) (76, 48000) (77, 48000) (78, 48000) (79, 48000) (80, 48000) (81, 48000) (82, 48000) (83, 48000) (84, 48000) (85, 48000) (86, 48000) (87, 48000) (88, 48000) (89, 48000) (90, 48000) (91, 48000) (92, 48000) (93, 48000) (94, 48000) (95, 48000) (96, 48000) (97, 48000) (98, 48000) (99, 48000) (100, 48000) (101, 48000) (102, 48000) (103, 48000) (104, 48000) (105, -47507) (106, -47992) (107, -48000) (108, -45690) (109, -42748) (110, -46167) (111, -47483) (112, -48000) (113, -47993) (114, -48000) (115, -48000) (116, -48000) (117, -48000) (118, -48000) (119, -3566) (120, 48000) (121, 48000) (122, 48000) (123, 48000) (124, 48000) (125, 48000) (126, 48000) (127, 48000) (128, 48000) (129, 48000) (130, 48000) (131, 48000) (132, 48000) (133, 48000) (134, 48000) (135, 48000) (136, 48000) (137, 48000) (138, 48000) (139, 48000) (140, 48000) (141, 48000) (142, 48000) (143, 48000) (144, 48000) (145, 48000) (146, 48000) (147, 48000) (148, 48000) (149, 48000) (150, 48000) (151, 48000) (152, 48000) (153, 48000) (154, 48000) (155, 48000) (156, 48000) (157, 48000) (158, 48000) (159, 48000) (160, 48000) (161, 48000) (162, 48000) (163, 48000) (164, 48000) (165, 48000) (166, 48000) (167, 48000) (168, 48000) (169, 48000) (170, 48000) (171, 48000) (172, 48000) (173, 48000) (174, 48000) (175, 48000) (176, 48000) (177, 48000) (178, 48000) (179, 48000) (180, 48000) (181, 48000) (182, 48000) (183, 48000) (184, 48000) (185, 48000) (186, 48000) (187, 48000) (188, 48000) (189, 48000) (190, 48000) (191, 48000) (192, 48000) (193, 48000) (194, 48000) (195, 48000) (196, 48000) (197, 48000) (198, 48000) (199, 48000) (200, 48000) (201, 48000) (202, 48000) (203, 48000) (204, 48000) (205, 48000) (206, 48000) (207, 48000) (208, 48000) (209, 48000) (210, 48000) (211, 48000) (212, 48000) (213, 48000) (214, 48000) (215, 48000) (216, 48000) (217, 48000) (218, 48000) (219, 48000) (220, 48000) (221, 48000) (222, 48000) (223, 48000) (224, 48000) (225, 48000) (226, 48000) (227, 48000) (228, 48000) (229, 48000) (230, 48000) (231, 48000) (232, 48000) (233, 48000) (234, 48000) (235, 48000) (236, 48000) (237, 46400) (238, 48000) (239, -22400) (240, -48000) (241, -48000) (242, -45267) (243, -47330) (244, -38703) (245, -47153) (246, -47347) (247, -47461) (248, -40705) (249, -45979) (250, -48000) (251, -46976) (252, -47983) (253, -43091) (254, -47507) (255, -46871) (256, -47130) (257, -45583) (258, -47792) (259, -47878) (260, -46849) (261, -42924) (262, -47987) (263, -46666) (264, -47995) (265, -48000) (266, -48000) (267, -48000) (268, -48000) (269, -48000) (270, -48000) (271, -48000) (272, -48000) (273, -48000) (274, -48000) (275, -48000) (276, -45711) (277, -45711) (278, -48000) (279, -48000) (280, -48000) (281, -48000) (282, -46180) (283, -48000) (284, -48000) (285, 48000) (286, 48000) (287, 48000) (288, 48000) (289, 48000) (290, 48000) (291, 48000) (292, 48000) (293, 48000) (294, 48000) (295, 48000) (296, 48000) (297, 48000) (298, 48000) (299, 48000) (300, 48000) (301, 48000) (302, 48000) (303, 48000) (304, 48000) (305, 48000) (306, 48000) (307, -45881) (308, -48000) (0, -30099) (1, 48000) (2, 48000) (3, 48000) (4, 26933) (5, 19771) (6, 48000) (7, 48000) (8, 19126) (9, 47187) (10, -47558) (11, -47989) (12, -46157) (13, -48000) (14, -48000) (15, -48000) (16, -48000) (17, -48000) (18, -48000) (19, -48000) (20, -48000) (21, -48000) (22, -48000) (23, -45027) (24, -47440) (25, -47786) (26, -47816) (27, -47996) (28, -47903) (29, -48000) (30, -33528) (31, -44190) (32, -44514) (33, 48000) (34, -7763) (35, 48000) (36, 20043) (37, -26902) (38, -11133) (39, 48000) (40, 48000) (41, 48000) (42, 48000) (43, 48000) (44, 48000) (45, -45881) (46, 48000) (47, 48000) (48, 48000) (49, 48000) (50, 48000) (51, 48000) (52, 48000) (53, 48000) (54, 48000) (55, 48000) (56, 48000) (57, 48000) (58, 48000) (59, 48000) (60, -42759) (61, -47808) (62, -38037) (63, -47983) (64, -46834) (65, -40740) (66, -48000) (67, -48000) (68, -46542) (69, -45554) (70, -43831) (71, -47629) (72, -47152) (73, -21317) (74, 1286) (75, 48000) (76, 48000) (77, 48000) (78, 48000) (79, 48000) (80, 48000) (81, 48000) (82, 48000) (83, 48000) (84, 48000) (85, 48000) (86, 48000) (87, 48000) (88, 48000) (89, 48000) (90, 48000) (91, 48000) (92, 48000) (93, 48000) (94, 48000) (95, 48000) (96, 48000) (97, 48000) (98, 48000) (99, 48000) (100, 48000) (101, 48000) (102, 48000) (103, 48000) (104, 48000) (105, -47507) (106, -47992) (107, -48000) (108, -45690) (109, -42748) (110, -46167) (111, -47483) (112, -48000) (113, -47993) (114, -48000) (115, -48000) (116, -48000) (117, -48000) (118, -48000) (119, -3566) (120, 48000) (121, 48000) (122, 48000) (123, 48000) (124, 48000) (125, 48000) (126, 48000) (127, 48000) (128, 48000) (129, 48000) (130, 48000) (131, 48000) (132, 48000) (133, 48000) (134, 48000) (135, 48000) (136, 48000) (137, 48000) (138, 48000) (139, 48000) (140, 48000) (141, 48000) (142, 48000) (143, 48000) (144, 48000) (145, 48000) (146, 48000) (147, 48000) (148, 48000) (149, 48000) (150, 48000) (151, 48000) (152, 48000) (153, 48000) (154, 48000) (155, 48000) (156, 48000) (157, 48000) (158, 48000) (159, 48000) (160, 48000) (161, 48000) (162, 48000) (163, 48000) (164, 48000) (165, 48000) (166, 48000) (167, 48000) (168, 48000) (169, 48000) (170, 48000) (171, 48000) (172, 48000) (173, 48000) (174, 48000) (175, 48000) (176, 48000) (177, 48000) (178, 48000) (179, 48000) (180, 48000) (181, 48000) (182, 48000) (183, 48000) (184, 48000) (185, 48000) (186, 48000) (187, 48000) (188, 48000) (189, 48000) (190, 48000) (191, 48000) (192, 48000) (193, 48000) (194, 48000) (195, 48000) (196, 48000) (197, 48000) (198, 48000) (199, 48000) (200, 48000) (201, 48000) (202, 48000) (203, 48000) (204, 48000) (205, 48000) (206, 48000) (207, 48000) (208, 48000) (209, 48000) (210, 48000) (211, 48000) (212, 48000) (213, 48000) (214, 48000) (215, 48000) (216, 48000) (217, 48000) (218, 48000) (219, 48000) (220, 48000) (221, 48000) (222, 48000) (223, 48000) (224, 48000) (225, 48000) (226, 48000) (227, 48000) (228, 48000) (229, 48000) (230, 48000) (231, 48000) (232, 48000) (233, 48000) (234, 48000) (235, 48000) (236, 48000) (237, 46400) (238, 48000) (239, -22400) (240, -48000) (241, -48000) (242, -45267) (243, -47330) (244, -38703) (245, -47153) (246, -47347) (247, -47461) (248, -40705) (249, -45979) (250, -48000) (251, -46976) (252, -47983) (253, -43091) (254, -47507) (255, -46871) (256, -47130) (257, -45583) (258, -47792) (259, -47878) (260, -46849) (261, -42924) (262, -47987) (263, -46666) (264, -47995) (265, -48000) (266, -48000) (267, -48000) (268, -48000) (269, -48000) (270, -48000) (271, -48000) (272, -48000) (273, -48000) (274, -48000) (275, -48000) (276, -45711) (277, -45711) (278, -48000) (279, -48000) (280, -48000) (281, -48000) (282, -46180) (283, -48000) (284, -48000) (285, 48000) (286, 48000) (287, 48000) (288, 48000) (289, 48000) (290, 48000) (291, 48000) (292, 48000) (293, 48000) (294, 48000) (295, 48000) (296, 48000) (297, 48000) (298, 48000) (299, 48000) (300, 48000) (301, 48000) (302, 48000) (303, 48000) (304, 48000) (305, 48000) (306, 48000) (307, -45881) (308, -48000) (0, -30099) (1, 48000) (2, 48000) (3, 48000) (4, 26933) (5, 19771) (6, 48000) (7, 48000) (8, 19126) (9, 47187) (10, -47558) (11, -47989) (12, -46157) (13, -48000) (14, -48000) (15, -48000) (16, -48000) (17, -48000) (18, -48000) (19, -48000) (20, -48000) (21, -48000) (22, -48000) (23, -45027) (24, -47440) (25, -47786) (26, -47816) (27, -47996) (28, -47903) (29, -48000) (30, -33528) (31, -44190) (32, -44514) (33, 48000) (34, -7763) (35, 48000) (36, 20043) (37, -26902) (38, -11133) (39, 48000) (40, 48000) (41, 48000) (42, 48000) (43, 48000) (44, 48000) (45, -45881) (46, 48000) (47, 48000) (48, 48000) (49, 48000) (50, 48000) (51, 48000) (52, 48000) (53, 48000) (54, 48000) (55, 48000) (56, 48000) (57, 48000) (58, 48000) (59, 48000) (60, -42759) (61, -47808) (62, -38037) (63, -47983) (64, -46834) (65, -40740) (66, -48000) (67, -48000) (68, -46542) (69, -45554) (70, -43831) (71, -47629) (72, -47152) (73, -21317) (74, 1286) (75, 48000) (76, 48000) (77, 48000) (78, 48000) (79, 48000) (80, 48000) (81, 48000) (82, 48000) (83, 48000) (84, 48000) (85, 48000) (86, 48000) (87, 48000) (88, 48000) (89, 48000) (90, 48000) (91, 48000) (92, 48000) (93, 48000) (94, 48000) (95, 48000) (96, 48000) (97, 48000) (98, 48000) (99, 48000) (100, 48000) (101, 48000) (102, 48000) (103, 48000) (104, 48000) (105, -47507) (106, -47992) (107, -48000) (108, -45690) (109, -42748) (110, -46167) (111, -47483) (112, -48000) (113, -47993) (114, -48000) (115, -48000) (116, -48000) (117, -48000) (118, -48000) (119, -3566) (120, 48000) (121, 48000) (122, 48000) (123, 48000) (124, 48000) (125, 48000) (126, 48000) (127, 48000) (128, 48000) (129, 48000) (130, 48000) (131, 48000) (132, 48000) (133, 48000) (134, 48000) (135, 48000) (136, 48000) (137, 48000) (138, 48000) (139, 48000) (140, 48000) (141, 48000) (142, 48000) (143, 48000) (144, 48000) (145, 48000) (146, 48000) (147, 48000) (148, 48000) (149, 48000) (150, 48000) (151, 48000) (152, 48000) (153, 48000) (154, 48000) (155, 48000) (156, 48000) (157, 48000) (158, 48000) (159, 48000) (160, 48000) (161, 48000) (162, 48000) (163, 48000) (164, 48000) (165, 48000) (166, 48000) (167, 48000) (168, 48000) (169, 48000) (170, 48000) (171, 48000) (172, 48000) (173, 48000) (174, 48000) (175, 48000) (176, 48000) (177, 48000) (178, 48000) (179, 48000) (180, 48000) (181, 48000) (182, 48000) (183, 48000) (184, 48000) (185, 48000) (186, 48000) (187, 48000) (188, 48000) (189, 48000) (190, 48000) (191, 48000) (192, 48000) (193, 48000) (194, 48000) (195, 48000) (196, 48000) (197, 48000) (198, 48000) (199, 48000) (200, 48000) (201, 48000) (202, 48000) (203, 48000) (204, 48000) (205, 48000) (206, 48000) (207, 48000) (208, 48000) (209, 48000) (210, 48000) (211, 48000) (212, 48000) (213, 48000) (214, 48000) (215, 48000) (216, 48000) (217, 48000) (218, 48000) (219, 48000) (220, 48000) (221, 48000) (222, 48000) (223, 48000) (224, 48000) (225, 48000) (226, 48000) (227, 48000) (228, 48000) (229, 48000) (230, 48000) (231, 48000) (232, 48000) (233, 48000) (234, 48000) (235, 48000) (236, 48000) (237, 46400) (238, 48000) (239, -22400) (240, -48000) (241, -48000) (242, -45267) (243, -47330) (244, -38703) (245, -47153) (246, -47347) (247, -47461) (248, -40705) (249, -45979) (250, -48000) (251, -46976) (252, -47983) (253, -43091) (254, -47507) (255, -46871) (256, -47130) (257, -45583) (258, -47792) (259, -47878) (260, -46849) (261, -42924) (262, -47987) (263, -46666) (264, -47995) (265, -48000) (266, -48000) (267, -48000) (268, -48000) (269, -48000) (270, -48000) (271, -48000) (272, -48000) (273, -48000) (274, -48000) (275, -48000) (276, -45711) (277, -45711) (278, -48000) (279, -48000) (280, -48000) (281, -48000) (282, -46180) (283, -48000) (284, -48000) (285, 48000) (286, 48000) (287, 48000) (288, 48000) (289, 48000) (290, 48000) (291, 48000) (292, 48000) (293, 48000) (294, 48000) (295, 48000) (296, 48000) (297, 48000) (298, 48000) (299, 48000) (300, 48000) (301, 48000) (302, 48000) (303, 48000) (304, 48000) (305, 48000) (306, 48000) (307, -45881) (308, -48000) (0, -30099) (1, 48000) (2, 48000) (3, 48000) (4, 26933) (5, 19771) (6, 48000) (7, 48000) (8, 19126) (9, 47187) (10, -47558) (11, -47989) (12, -46157) (13, -48000) (14, -48000) (15, -48000) (16, -48000) (17, -48000) (18, -48000) (19, -48000) (20, -48000) (21, -48000) (22, -48000) (23, -45027) (24, -47440) (25, -47786) (26, -47816) (27, -47996) (28, -47903) (29, -48000) (30, -33528) (31, -44190) (32, -44514) (33, 48000) (34, -7763) (35, 48000) (36, 20043) (37, -26902) (38, -11133) (39, 48000) (40, 48000) (41, 48000) (42, 48000) (43, 48000) (44, 48000) (45, -45881) (46, 48000) (47, 48000) (48, 48000) (49, 48000) (50, 48000) (51, 48000) (52, 48000) (53, 48000) (54, 48000) (55, 48000) (56, 48000) (57, 48000) (58, 48000) (59, 48000) (60, -42759) (61, -47808) (62, -38037) (63, -47983) (64, -46834) (65, -40740) (66, -48000) (67, -48000) (68, -46542) (69, -45554) (70, -43831) (71, -47629) (72, -47152) (73, -21317) (74, 1286) (75, 48000) (76, 48000) (77, 48000) (78, 48000) (79, 48000) (80, 48000) (81, 48000) (82, 48000) (83, 48000) (84, 48000) (85, 48000) (86, 48000) (87, 48000) (88, 48000) (89, 48000) (90, 48000) (91, 48000) (92, 48000) (93, 48000) (94, 48000) (95, 48000) (96, 48000) (97, 48000) (98, 48000) (99, 48000) (100, 48000) (101, 48000) (102, 48000) (103, 48000) (104, 48000) (105, -47507) (106, -47992) (107, -48000) (108, -45690) (109, -42748) (110, -46167) (111, -47483) (112, -48000) (113, -47993) (114, -48000) (115, -48000) (116, -48000) (117, -48000) (118, -48000) (119, -3566) (120, 48000) (121, 48000) (122, 48000) (123, 48000) (124, 48000) (125, 48000) (126, 48000) (127, 48000) (128, 48000) (129, 48000) (130, 48000) (131, 48000) (132, 48000) (133, 48000) (134, 48000) (135, 48000) (136, 48000) (137, 48000) (138, 48000) (139, 48000) (140, 48000) (141, 48000) (142, 48000) (143, 48000) (144, 48000) (145, 48000) (146, 48000) (147, 48000) (148, 48000) (149, 48000) (150, 48000) (151, 48000) (152, 48000) (153, 48000) (154, 48000) (155, 48000) (156, 48000) (157, 48000) (158, 48000) (159, 48000) (160, 48000) (161, 48000) (162, 48000) (163, 48000) (164, 48000) (165, 48000) (166, 48000) (167, 48000) (168, 48000) (169, 48000) (170, 48000) (171, 48000) (172, 48000) (173, 48000) (174, 48000) (175, 48000) (176, 48000) (177, 48000) (178, 48000) (179, 48000) (180, 48000) (181, 48000) (182, 48000) (183, 48000) (184, 48000) (185, 48000) (186, 48000) (187, 48000) (188, 48000) (189, 48000) (190, 48000) (191, 48000) (192, 48000) (193, 48000) (194, 48000) (195, 48000) (196, 48000) (197, 48000) (198, 48000) (199, 48000) (200, 48000) (201, 48000) (202, 48000) (203, 48000) (204, 48000) (205, 48000) (206, 48000) (207, 48000) (208, 48000) (209, 48000) (210, 48000) (211, 48000) (212, 48000) (213, 48000) (214, 48000) (215, 48000) (216, 48000) (217, 48000) (218, 48000) (219, 48000) (220, 48000) (221, 48000) (222, 48000) (223, 48000) (224, 48000) (225, 48000) (226, 48000) (227, 48000) (228, 48000) (229, 48000) (230, 48000) (231, 48000) (232, 48000) (233, 48000) (234, 48000) (235, 48000) (236, 48000) (237, 46400) (238, 48000) (239, -22400) (240, -48000) (241, -48000) (242, -45267) (243, -47330) (244, -38703) (245, -47153) (246, -47347) (247, -47461) (248, -40705) (249, -45979) (250, -48000) (251, -46976) (252, -47983) (253, -43091) (254, -47507) (255, -46871) (256, -47130) (257, -45583) (258, -47792) (259, -47878) (260, -46849) (261, -42924) (262, -47987) (263, -46666) (264, -47995) (265, -48000) (266, -48000) (267, -48000) (268, -48000) (269, -48000) (270, -48000) (271, -48000) (272, -48000) (273, -48000) (274, -48000) (275, -48000) (276, -45711) (277, -45711) (278, -48000) (279, -48000) (280, -48000) (281, -48000) (282, -46180) (283, -48000) (284, -48000) (285, 48000) (286, 48000) (287, 48000) (288, 48000) (289, 48000) (290, 48000) (291, 48000) (292, 48000) (293, 48000) (294, 48000) (295, 48000) (296, 48000) (297, 48000) (298, 48000) (299, 48000) (300, 48000) (301, 48000) (302, 48000) (303, 48000) (304, 48000) (305, 48000) (306, 48000) (307, -45881) (308, -48000) (0, -30099) (1, 48000) (2, 48000) (3, 48000) (4, 27083) (5, 48000) (6, 48000) (7, 48000) (8, 19126) (9, 48000) (10, -47558) (11, -47989) (12, -46157) (13, -48000) (14, -48000) (15, -48000) (16, -48000) (17, -48000) (18, -48000) (19, -48000) (20, -48000) (21, -48000) (22, -48000) (23, -45027) (24, -47440) (25, -47786) (26, -47816) (27, -47996) (28, -47903) (29, -48000) (30, -21500) (31, -44190) (32, 1964) (33, 48000) (34, -5708) (35, 48000) (36, 48000) (37, 22501) (38, 44383) (39, 48000) (40, 48000) (41, 48000) (42, 48000) (43, 48000) (44, 48000) (45, -45881) (46, 48000) (47, 48000) (48, 48000) (49, 48000) (50, 48000) (51, 48000) (52, 48000) (53, 48000) (54, 48000) (55, 48000) (56, 48000) (57, 48000) (58, 48000) (59, 48000) (60, -42759) (61, -47808) (62, -11753) (63, -47983) (64, -46834) (65, -40740) (66, -48000) (67, -48000) (68, -46542) (69, -45554) (70, -43831) (71, -47629) (72, -47152) (73, -21317) (74, 1286) (75, 48000) (76, 48000) (77, 48000) (78, 48000) (79, 48000) (80, 48000) (81, 48000) (82, 48000) (83, 48000) (84, 48000) (85, 48000) (86, 48000) (87, 48000) (88, 48000) (89, 48000) (90, 48000) (91, 48000) (92, 48000) (93, 48000) (94, 48000) (95, 48000) (96, 48000) (97, 48000) (98, 48000) (99, 48000) (100, 48000) (101, 48000) (102, 48000) (103, 48000) (104, 48000) (105, -5408) (106, 2915) (107, -48000) (108, -45690) (109, -42748) (110, -46167) (111, -47483) (112, -48000) (113, -47993) (114, -48000) (115, -48000) (116, -48000) (117, -48000) (118, -48000) (119, 48000) (120, 48000) (121, 48000) (122, 48000) (123, 48000) (124, 48000) (125, 48000) (126, 48000) (127, 48000) (128, 48000) (129, 48000) (130, 48000) (131, 48000) (132, 48000) (133, 48000) (134, 48000) (135, 48000) (136, 48000) (137, 48000) (138, 48000) (139, 48000) (140, 48000) (141, 48000) (142, 48000) (143, 48000) (144, 48000) (145, 48000) (146, 48000) (147, 48000) (148, 48000) (149, 48000) (150, 48000) (151, 48000) (152, 48000) (153, 48000) (154, 48000) (155, 48000) (156, 48000) (157, 48000) (158, 48000) (159, 48000) (160, 48000) (161, 48000) (162, 48000) (163, 48000) (164, 48000) (165, 48000) (166, 48000) (167, 48000) (168, 48000) (169, 48000) (170, 48000) (171, 48000) (172, 48000) (173, 48000) (174, 48000) (175, 48000) (176, 48000) (177, 48000) (178, 48000) (179, 48000) (180, 48000) (181, 48000) (182, 48000) (183, 48000) (184, 48000) (185, 48000) (186, 48000) (187, 48000) (188, 48000) (189, 48000) (190, 48000) (191, 48000) (192, 48000) (193, 48000) (194, 48000) (195, 48000) (196, 48000) (197, 48000) (198, 48000) (199, 48000) (200, 48000) (201, 48000) (202, 48000) (203, 48000) (204, 48000) (205, 48000) (206, 48000) (207, 48000) (208, 48000) (209, 48000) (210, 48000) (211, 48000) (212, 48000) (213, 48000) (214, 48000) (215, 48000) (216, 48000) (217, 48000) (218, 48000) (219, 48000) (220, 48000) (221, 48000) (222, 48000) (223, 48000) (224, 48000) (225, 48000) (226, 48000) (227, 48000) (228, 48000) (229, 48000) (230, 48000) (231, 48000) (232, 48000) (233, 48000) (234, 48000) (235, 48000) (236, 48000) (237, 46400) (238, 48000) (239, -22400) (240, -48000) (241, -48000) (242, -45267) (243, -15697) (244, -21541) (245, -47153) (246, 40694) (247, -47461) (248, -40705) (249, -45979) (250, -48000) (251, -46976) (252, -47983) (253, -43091) (254, -47507) (255, -46871) (256, -47130) (257, -45583) (258, -47792) (259, -47878) (260, -46849) (261, -42924) (262, -47987) (263, -46666) (264, -47995) (265, -48000) (266, -48000) (267, -48000) (268, -48000) (269, -48000) (270, -48000) (271, -48000) (272, -48000) (273, -48000) (274, -48000) (275, -48000) (276, -45711) (277, -45711) (278, -48000) (279, -48000) (280, -48000) (281, -48000) (282, -48000) (283, -48000) (284, -48000) (285, 48000) (286, 48000) (287, 48000) (288, 48000) (289, 48000) (290, 48000) (291, 48000) (292, 48000) (293, 48000) (294, 48000) (295, 48000) (296, 48000) (297, 48000) (298, 48000) (299, 48000) (300, 48000) (301, 48000) (302, 48000) (303, 48000) (304, 48000) (305, 48000) (306, 48000) (307, -45881) (308, -48000) (0, -30099) (1, 48000) (2, 48000) (3, 48000) (4, 26933) (5, 19771) (6, 48000) (7, 48000) (8, 19126) (9, 47187) (10, -47558) (11, -47989) (12, -46157) (13, -48000) (14, -48000) (15, -48000) (16, -48000) (17, -48000) (18, -48000) (19, -48000) (20, -48000) (21, -48000) (22, -48000) (23, -45027) (24, -47440) (25, -47786) (26, -47816) (27, -47996) (28, -47903) (29, -48000) (30, -33528) (31, -44190) (32, -44514) (33, 48000) (34, -7763) (35, 48000) (36, 20043) (37, -26902) (38, -11133) (39, 48000) (40, 48000) (41, 48000) (42, 48000) (43, 48000) (44, 48000) (45, -45881) (46, 48000) (47, 48000) (48, 48000) (49, 48000) (50, 48000) (51, 48000) (52, 48000) (53, 48000) (54, 48000) (55, 48000) (56, 48000) (57, 48000) (58, 48000) (59, 48000) (60, -42759) (61, -47808) (62, -38037) (63, -47983) (64, -46834) (65, -40740) (66, -48000) (67, -48000) (68, -46542) (69, -45554) (70, -43831) (71, -47629) (72, -47152) (73, -21317) (74, 1286) (75, 48000) (76, 48000) (77, 48000) (78, 48000) (79, 48000) (80, 48000) (81, 48000) (82, 48000) (83, 48000) (84, 48000) (85, 48000) (86, 48000) (87, 48000) (88, 48000) (89, 48000) (90, 48000) (91, 48000) (92, 48000) (93, 48000) (94, 48000) (95, 48000) (96, 48000) (97, 48000) (98, 48000) (99, 48000) (100, 48000) (101, 48000) (102, 48000) (103, 48000) (104, 48000) (105, -47507) (106, -47992) (107, -48000) (108, -45690) (109, -42748) (110, -46167) (111, -47483) (112, -48000) (113, -47993) (114, -48000) (115, -48000) (116, -48000) (117, -48000) (118, -48000) (119, -3566) (120, 48000) (121, 48000) (122, 48000) (123, 48000) (124, 48000) (125, 48000) (126, 48000) (127, 48000) (128, 48000) (129, 48000) (130, 48000) (131, 48000) (132, 48000) (133, 48000) (134, 48000) (135, 48000) (136, 48000) (137, 48000) (138, 48000) (139, 48000) (140, 48000) (141, 48000) (142, 48000) (143, 48000) (144, 48000) (145, 48000) (146, 48000) (147, 48000) (148, 48000) (149, 48000) (150, 48000) (151, 48000) (152, 48000) (153, 48000) (154, 48000) (155, 48000) (156, 48000) (157, 48000) (158, 48000) (159, 48000) (160, 48000) (161, 48000) (162, 48000) (163, 48000) (164, 48000) (165, 48000) (166, 48000) (167, 48000) (168, 48000) (169, 48000) (170, 48000) (171, 48000) (172, 48000) (173, 48000) (174, 48000) (175, 48000) (176, 48000) (177, 48000) (178, 48000) (179, 48000) (180, 48000) (181, 48000) (182, 48000) (183, 48000) (184, 48000) (185, 48000) (186, 48000) (187, 48000) (188, 48000) (189, 48000) (190, 48000) (191, 48000) (192, 48000) (193, 48000) (194, 48000) (195, 48000) (196, 48000) (197, 48000) (198, 48000) (199, 48000) (200, 48000) (201, 48000) (202, 48000) (203, 48000) (204, 48000) (205, 48000) (206, 48000) (207, 48000) (208, 48000) (209, 48000) (210, 48000) (211, 48000) (212, 48000) (213, 48000) (214, 48000) (215, 48000) (216, 48000) (217, 48000) (218, 48000) (219, 48000) (220, 48000) (221, 48000) (222, 48000) (223, 48000) (224, 48000) (225, 48000) (226, 48000) (227, 48000) (228, 48000) (229, 48000) (230, 48000) (231, 48000) (232, 48000) (233, 48000) (234, 48000) (235, 48000) (236, 48000) (237, 46400) (238, 48000) (239, -22400) (240, -48000) (241, -48000) (242, -45267) (243, -47330) (244, -38703) (245, -47153) (246, -47347) (247, -47461) (248, -40705) (249, -45979) (250, -48000) (251, -46976) (252, -47983) (253, -43091) (254, -47507) (255, -46871) (256, -47130) (257, -45583) (258, -47792) (259, -47878) (260, -46849) (261, -42924) (262, -47987) (263, -46666) (264, -47995) (265, -48000) (266, -48000) (267, -48000) (268, -48000) (269, -48000) (270, -48000) (271, -48000) (272, -48000) (273, -48000) (274, -48000) (275, -48000) (276, -45711) (277, -45711) (278, -48000) (279, -48000) (280, -48000) (281, -48000) (282, -46180) (283, -48000) (284, -48000) (285, 48000) (286, 48000) (287, 48000) (288, 48000) (289, 48000) (290, 48000) (291, 48000) (292, 48000) (293, 48000) (294, 48000) (295, 48000) (296, 48000) (297, 48000) (298, 48000) (299, 48000) (300, 48000) (301, 48000) (302, 48000) (303, 48000) (304, 48000) (305, 48000) (306, 48000) (307, -45881) (308, -48000) (0, -30099) (1, 48000) (2, 48000) (3, 48000) (4, 26933) (5, 19771) (6, 48000) (7, 48000) (8, 19126) (9, 47187) (10, -47558) (11, -47989) (12, -46157) (13, -48000) (14, -48000) (15, -48000) (16, -48000) (17, -48000) (18, -48000) (19, -48000) (20, -48000) (21, -48000) (22, -48000) (23, -45027) (24, -47440) (25, -47786) (26, -47816) (27, -47996) (28, -47903) (29, -48000) (30, -33528) (31, -44190) (32, -44514) (33, 48000) (34, -7763) (35, 48000) (36, 20043) (37, -26902) (38, -11133) (39, 48000) (40, 48000) (41, 48000) (42, 48000) (43, 48000) (44, 48000) (45, -45881) (46, 48000) (47, 48000) (48, 48000) (49, 48000) (50, 48000) (51, 48000) (52, 48000) (53, 48000) (54, 48000) (55, 48000) (56, 48000) (57, 48000) (58, 48000) (59, 48000) (60, -42759) (61, -47808) (62, -38037) (63, -47983) (64, -46834) (65, -40740) (66, -48000) (67, -48000) (68, -46542) (69, -45554) (70, -43831) (71, -47629) (72, -47152) (73, -21317) (74, 1286) (75, 48000) (76, 48000) (77, 48000) (78, 48000) (79, 48000) (80, 48000) (81, 48000) (82, 48000) (83, 48000) (84, 48000) (85, 48000) (86, 48000) (87, 48000) (88, 48000) (89, 48000) (90, 48000) (91, 48000) (92, 48000) (93, 48000) (94, 48000) (95, 48000) (96, 48000) (97, 48000) (98, 48000) (99, 48000) (100, 48000) (101, 48000) (102, 48000) (103, 48000) (104, 48000) (105, -47507) (106, -47992) (107, -48000) (108, -45690) (109, -42748) (110, -46167) (111, -47483) (112, -48000) (113, -47993) (114, -48000) (115, -48000) (116, -48000) (117, -48000) (118, -48000) (119, -3566) (120, 48000) (121, 48000) (122, 48000) (123, 48000) (124, 48000) (125, 48000) (126, 48000) (127, 48000) (128, 48000) (129, 48000) (130, 48000) (131, 48000) (132, 48000) (133, 48000) (134, 48000) (135, 48000) (136, 48000) (137, 48000) (138, 48000) (139, 48000) (140, 48000) (141, 48000) (142, 48000) (143, 48000) (144, 48000) (145, 48000) (146, 48000) (147, 48000) (148, 48000) (149, 48000) (150, 48000) (151, 48000) (152, 48000) (153, 48000) (154, 48000) (155, 48000) (156, 48000) (157, 48000) (158, 48000) (159, 48000) (160, 48000) (161, 48000) (162, 48000) (163, 48000) (164, 48000) (165, 48000) (166, 48000) (167, 48000) (168, 48000) (169, 48000) (170, 48000) (171, 48000) (172, 48000) (173, 48000) (174, 48000) (175, 48000) (176, 48000) (177, 48000) (178, 48000) (179, 48000) (180, 48000) (181, 48000) (182, 48000) (183, 48000) (184, 48000) (185, 48000) (186, 48000) (187, 48000) (188, 48000) (189, 48000) (190, 48000) (191, 48000) (192, 48000) (193, 48000) (194, 48000) (195, 48000) (196, 48000) (197, 48000) (198, 48000) (199, 48000) (200, 48000) (201, 48000) (202, 48000) (203, 48000) (204, 48000) (205, 48000) (206, 48000) (207, 48000) (208, 48000) (209, 48000) (210, 48000) (211, 48000) (212, 48000) (213, 48000) (214, 48000) (215, 48000) (216, 48000) (217, 48000) (218, 48000) (219, 48000) (220, 48000) (221, 48000) (222, 48000) (223, 48000) (224, 48000) (225, 48000) (226, 48000) (227, 48000) (228, 48000) (229, 48000) (230, 48000) (231, 48000) (232, 48000) (233, 48000) (234, 48000) (235, 48000) (236, 48000) (237, 46400) (238, 48000) (239, -22400) (240, -48000) (241, -48000) (242, -45267) (243, -47330) (244, -38703) (245, -47153) (246, -47347) (247, -47461) (248, -40705) (249, -45979) (250, -48000) (251, -46976) (252, -47983) (253, -43091) (254, -47507) (255, -46871) (256, -47130) (257, -45583) (258, -47792) (259, -47878) (260, -46849) (261, -42924) (262, -47987) (263, -46666) (264, -47995) (265, -48000) (266, -48000) (267, -48000) (268, -48000) (269, -48000) (270, -48000) (271, -48000) (272, -48000) (273, -48000) (274, -48000) (275, -48000) (276, -45711) (277, -45711) (278, -48000) (279, -48000) (280, -48000) (281, -48000) (282, -46180) (283, -48000) (284, -48000) (285, 48000) (286, 48000) (287, 48000) (288, 48000) (289, 48000) (290, 48000) (291, 48000) (292, 48000) (293, 48000) (294, 48000) (295, 48000) (296, 48000) (297, 48000) (298, 48000) (299, 48000) (300, 48000) (301, 48000) (302, 48000) (303, 48000) (304, 48000) (305, 48000) (306, 48000) (307, -45881) (308, -48000) (0, -30099) (1, 48000) (2, 48000) (3, 48000) (4, 26933) (5, 19771) (6, 48000) (7, 48000) (8, 19126) (9, 47187) (10, -47558) (11, -47989) (12, -46157) (13, -48000) (14, -48000) (15, -48000) (16, -48000) (17, -48000) (18, -48000) (19, -48000) (20, -48000) (21, -48000) (22, -48000) (23, -45027) (24, -47440) (25, -47786) (26, -47816) (27, -47996) (28, -47903) (29, -48000) (30, -33528) (31, -44190) (32, -44514) (33, 48000) (34, -7763) (35, 48000) (36, 20043) (37, -26902) (38, -11133) (39, 48000) (40, 48000) (41, 48000) (42, 48000) (43, 48000) (44, 48000) (45, -45881) (46, 48000) (47, 48000) (48, 48000) (49, 48000) (50, 48000) (51, 48000) (52, 48000) (53, 48000) (54, 48000) (55, 48000) (56, 48000) (57, 48000) (58, 48000) (59, 48000) (60, -42759) (61, -47808) (62, -38037) (63, -47983) (64, -46834) (65, -40740) (66, -48000) (67, -48000) (68, -46542) (69, -45554) (70, -43831) (71, -47629) (72, -47152) (73, -21317) (74, 1286) (75, 48000) (76, 48000) (77, 48000) (78, 48000) (79, 48000) (80, 48000) (81, 48000) (82, 48000) (83, 48000) (84, 48000) (85, 48000) (86, 48000) (87, 48000) (88, 48000) (89, 48000) (90, 48000) (91, 48000) (92, 48000) (93, 48000) (94, 48000) (95, 48000) (96, 48000) (97, 48000) (98, 48000) (99, 48000) (100, 48000) (101, 48000) (102, 48000) (103, 48000) (104, 48000) (105, -47507) (106, -47992) (107, -48000) (108, -45690) (109, -42748) (110, -46167) (111, -47483) (112, -48000) (113, -47993) (114, -48000) (115, -48000) (116, -48000) (117, -48000) (118, -48000) (119, -3566) (120, 48000) (121, 48000) (122, 48000) (123, 48000) (124, 48000) (125, 48000) (126, 48000) (127, 48000) (128, 48000) (129, 48000) (130, 48000) (131, 48000) (132, 48000) (133, 48000) (134, 48000) (135, 48000) (136, 48000) (137, 48000) (138, 48000) (139, 48000) (140, 48000) (141, 48000) (142, 48000) (143, 48000) (144, 48000) (145, 48000) (146, 48000) (147, 48000) (148, 48000) (149, 48000) (150, 48000) (151, 48000) (152, 48000) (153, 48000) (154, 48000) (155, 48000) (156, 48000) (157, 48000) (158, 48000) (159, 48000) (160, 48000) (161, 48000) (162, 48000) (163, 48000) (164, 48000) (165, 48000) (166, 48000) (167, 48000) (168, 48000) (169, 48000) (170, 48000) (171, 48000) (172, 48000) (173, 48000) (174, 48000) (175, 48000) (176, 48000) (177, 48000) (178, 48000) (179, 48000) (180, 48000) (181, 48000) (182, 48000) (183, 48000) (184, 48000) (185, 48000) (186, 48000) (187, 48000) (188, 48000) (189, 48000) (190, 48000) (191, 48000) (192, 48000) (193, 48000) (194, 48000) (195, 48000) (196, 48000) (197, 48000) (198, 48000) (199, 48000) (200, 48000) (201, 48000) (202, 48000) (203, 48000) (204, 48000) (205, 48000) (206, 48000) (207, 48000) (208, 48000) (209, 48000) (210, 48000) (211, 48000) (212, 48000) (213, 48000) (214, 48000) (215, 48000) (216, 48000) (217, 48000) (218, 48000) (219, 48000) (220, 48000) (221, 48000) (222, 48000) (223, 48000) (224, 48000) (225, 48000) (226, 48000) (227, 48000) (228, 48000) (229, 48000) (230, 48000) (231, 48000) (232, 48000) (233, 48000) (234, 48000) (235, 48000) (236, 48000) (237, 46400) (238, 48000) (239, -22400) (240, -48000) (241, -48000) (242, -45267) (243, -47330) (244, -38703) (245, -47153) (246, -47347) (247, -47461) (248, -40705) (249, -45979) (250, -48000) (251, -46976) (252, -47983) (253, -43091) (254, -47507) (255, -46871) (256, -47130) (257, -45583) (258, -47792) (259, -47878) (260, -46849) (261, -42924) (262, -47987) (263, -46666) (264, -47995) (265, -48000) (266, -48000) (267, -48000) (268, -48000) (269, -48000) (270, -48000) (271, -48000) (272, -48000) (273, -48000) (274, -48000) (275, -48000) (276, -45711) (277, -45711) (278, -48000) (279, -48000) (280, -48000) (281, -48000) (282, -46180) (283, -48000) (284, -48000) (285, 48000) (286, 48000) (287, 48000) (288, 48000) (289, 48000) (290, 48000) (291, 48000) (292, 48000) (293, 48000) (294, 48000) (295, 48000) (296, 48000) (297, 48000) (298, 48000) (299, 48000) (300, 48000) (301, 48000) (302, 48000) (303, 48000) (304, 48000) (305, 48000) (306, 48000) (307, -45881) (308, -48000) (0, -30099) (1, 48000) (2, 48000) (3, 48000) (4, 26933) (5, 19771) (6, 48000) (7, 48000) (8, 19126) (9, 47187) (10, -47558) (11, -47989) (12, -46157) (13, -48000) (14, -48000) (15, -48000) (16, -48000) (17, -48000) (18, -48000) (19, -48000) (20, -48000) (21, -48000) (22, -48000) (23, -45027) (24, -47440) (25, -47786) (26, -47816) (27, -47996) (28, -47903) (29, -48000) (30, -33528) (31, -44190) (32, -44514) (33, 48000) (34, -7763) (35, 48000) (36, 20043) (37, -26902) (38, -11133) (39, 48000) (40, 48000) (41, 48000) (42, 48000) (43, 48000) (44, 48000) (45, -45881) (46, 48000) (47, 48000) (48, 48000) (49, 48000) (50, 48000) (51, 48000) (52, 48000) (53, 48000) (54, 48000) (55, 48000) (56, 48000) (57, 48000) (58, 48000) (59, 48000) (60, -42759) (61, -47808) (62, -38037) (63, -47983) (64, -46834) (65, -40740) (66, -48000) (67, -48000) (68, -46542) (69, -45554) (70, -43831) (71, -47629) (72, -47152) (73, -21317) (74, 1286) (75, 48000) (76, 48000) (77, 48000) (78, 48000) (79, 48000) (80, 48000) (81, 48000) (82, 48000) (83, 48000) (84, 48000) (85, 48000) (86, 48000) (87, 48000) (88, 48000) (89, 48000) (90, 48000) (91, 48000) (92, 48000) (93, 48000) (94, 48000) (95, 48000) (96, 48000) (97, 48000) (98, 48000) (99, 48000) (100, 48000) (101, 48000) (102, 48000) (103, 48000) (104, 48000) (105, -47507) (106, -47992) (107, -48000) (108, -45690) (109, -42748) (110, -46167) (111, -47483) (112, -48000) (113, -47993) (114, -48000) (115, -48000) (116, -48000) (117, -48000) (118, -48000) (119, -3566) (120, 48000) (121, 48000) (122, 48000) (123, 48000) (124, 48000) (125, 48000) (126, 48000) (127, 48000) (128, 48000) (129, 48000) (130, 48000) (131, 48000) (132, 48000) (133, 48000) (134, 48000) (135, 48000) (136, 48000) (137, 48000) (138, 48000) (139, 48000) (140, 48000) (141, 48000) (142, 48000) (143, 48000) (144, 48000) (145, 48000) (146, 48000) (147, 48000) (148, 48000) (149, 48000) (150, 48000) (151, 48000) (152, 48000) (153, 48000) (154, 48000) (155, 48000) (156, 48000) (157, 48000) (158, 48000) (159, 48000) (160, 48000) (161, 48000) (162, 48000) (163, 48000) (164, 48000) (165, 48000) (166, 48000) (167, 48000) (168, 48000) (169, 48000) (170, 48000) (171, 48000) (172, 48000) (173, 48000) (174, 48000) (175, 48000) (176, 48000) (177, 48000) (178, 48000) (179, 48000) (180, 48000) (181, 48000) (182, 48000) (183, 48000) (184, 48000) (185, 48000) (186, 48000) (187, 48000) (188, 48000) (189, 48000) (190, 48000) (191, 48000) (192, 48000) (193, 48000) (194, 48000) (195, 48000) (196, 48000) (197, 48000) (198, 48000) (199, 48000) (200, 48000) (201, 48000) (202, 48000) (203, 48000) (204, 48000) (205, 48000) (206, 48000) (207, 48000) (208, 48000) (209, 48000) (210, 48000) (211, 48000) (212, 48000) (213, 48000) (214, 48000) (215, 48000) (216, 48000) (217, 48000) (218, 48000) (219, 48000) (220, 48000) (221, 48000) (222, 48000) (223, 48000) (224, 48000) (225, 48000) (226, 48000) (227, 48000) (228, 48000) (229, 48000) (230, 48000) (231, 48000) (232, 48000) (233, 48000) (234, 48000) (235, 48000) (236, 48000) (237, 46400) (238, 48000) (239, -22400) (240, -48000) (241, -48000) (242, -45267) (243, -47330) (244, -38703) (245, -47153) (246, -47347) (247, -47461) (248, -40705) (249, -45979) (250, -48000) (251, -46976) (252, -47983) (253, -43091) (254, -47507) (255, -46871) (256, -47130) (257, -45583) (258, -47792) (259, -47878) (260, -46849) (261, -42924) (262, -47987) (263, -46666) (264, -47995) (265, -48000) (266, -48000) (267, -48000) (268, -48000) (269, -48000) (270, -48000) (271, -48000) (272, -48000) (273, -48000) (274, -48000) (275, -48000) (276, -45711) (277, -45711) (278, -48000) (279, -48000) (280, -48000) (281, -48000) (282, -46180) (283, -48000) (284, -48000) (285, 48000) (286, 48000) (287, 48000) (288, 48000) (289, 48000) (290, 48000) (291, 48000) (292, 48000) (293, 48000) (294, 48000) (295, 48000) (296, 48000) (297, 48000) (298, 48000) (299, 48000) (300, 48000) (301, 48000) (302, 48000) (303, 48000) (304, 48000) (305, 48000) (306, 48000) (307, -45881) (308, -48000) (0, -30099) (1, 48000) (2, 48000) (3, 48000) (4, 26933) (5, 19771) (6, 48000) (7, 48000) (8, 19126) (9, 47187) (10, -47558) (11, -47989) (12, -46157) (13, -48000) (14, -48000) (15, -48000) (16, -48000) (17, -48000) (18, -48000) (19, -48000) (20, -48000) (21, -48000) (22, -48000) (23, -45027) (24, -47440) (25, -47786) (26, -47816) (27, -47996) (28, -47903) (29, -48000) (30, -33528) (31, -44190) (32, -44514) (33, 48000) (34, -7763) (35, 48000) (36, 20043) (37, -26902) (38, -11133) (39, 48000) (40, 48000) (41, 48000) (42, 48000) (43, 48000) (44, 48000) (45, -45881) (46, 48000) (47, 48000) (48, 48000) (49, 48000) (50, 48000) (51, 48000) (52, 48000) (53, 48000) (54, 48000) (55, 48000) (56, 48000) (57, 48000) (58, 48000) (59, 48000) (60, -42759) (61, -47808) (62, -38037) (63, -47983) (64, -46834) (65, -40740) (66, -48000) (67, -48000) (68, -46542) (69, -45554) (70, -43831) (71, -47629) (72, -47152) (73, -21317) (74, 1286) (75, 48000) (76, 48000) (77, 48000) (78, 48000) (79, 48000) (80, 48000) (81, 48000) (82, 48000) (83, 48000) (84, 48000) (85, 48000) (86, 48000) (87, 48000) (88, 48000) (89, 48000) (90, 48000) (91, 48000) (92, 48000) (93, 48000) (94, 48000) (95, 48000) (96, 48000) (97, 48000) (98, 48000) (99, 48000) (100, 48000) (101, 48000) (102, 48000) (103, 48000) (104, 48000) (105, -47507) (106, -47992) (107, -48000) (108, -45690) (109, -42748) (110, -46167) (111, -47483) (112, -48000) (113, -47993) (114, -48000) (115, -48000) (116, -48000) (117, -48000) (118, -48000) (119, -3566) (120, 48000) (121, 48000) (122, 48000) (123, 48000) (124, 48000) (125, 48000) (126, 48000) (127, 48000) (128, 48000) (129, 48000) (130, 48000) (131, 48000) (132, 48000) (133, 48000) (134, 48000) (135, 48000) (136, 48000) (137, 48000) (138, 48000) (139, 48000) (140, 48000) (141, 48000) (142, 48000) (143, 48000) (144, 48000) (145, 48000) (146, 48000) (147, 48000) (148, 48000) (149, 48000) (150, 48000) (151, 48000) (152, 48000) (153, 48000) (154, 48000) (155, 48000) (156, 48000) (157, 48000) (158, 48000) (159, 48000) (160, 48000) (161, 48000) (162, 48000) (163, 48000) (164, 48000) (165, 48000) (166, 48000) (167, 48000) (168, 48000) (169, 48000) (170, 48000) (171, 48000) (172, 48000) (173, 48000) (174, 48000) (175, 48000) (176, 48000) (177, 48000) (178, 48000) (179, 48000) (180, 48000) (181, 48000) (182, 48000) (183, 48000) (184, 48000) (185, 48000) (186, 48000) (187, 48000) (188, 48000) (189, 48000) (190, 48000) (191, 48000) (192, 48000) (193, 48000) (194, 48000) (195, 48000) (196, 48000) (197, 48000) (198, 48000) (199, 48000) (200, 48000) (201, 48000) (202, 48000) (203, 48000) (204, 48000) (205, 48000) (206, 48000) (207, 48000) (208, 48000) (209, 48000) (210, 48000) (211, 48000) (212, 48000) (213, 48000) (214, 48000) (215, 48000) (216, 48000) (217, 48000) (218, 48000) (219, 48000) (220, 48000) (221, 48000) (222, 48000) (223, 48000) (224, 48000) (225, 48000) (226, 48000) (227, 48000) (228, 48000) (229, 48000) (230, 48000) (231, 48000) (232, 48000) (233, 48000) (234, 48000) (235, 48000) (236, 48000) (237, 46400) (238, 48000) (239, -22400) (240, -48000) (241, -48000) (242, -45267) (243, -47330) (244, -38703) (245, -47153) (246, -47347) (247, -47461) (248, -40705) (249, -45979) (250, -48000) (251, -46976) (252, -47983) (253, -43091) (254, -47507) (255, -46871) (256, -47130) (257, -45583) (258, -47792) (259, -47878) (260, -46849) (261, -42924) (262, -47987) (263, -46666) (264, -47995) (265, -48000) (266, -48000) (267, -48000) (268, -48000) (269, -48000) (270, -48000) (271, -48000) (272, -48000) (273, -48000) (274, -48000) (275, -48000) (276, -45711) (277, -45711) (278, -48000) (279, -48000) (280, -48000) (281, -48000) (282, -46180) (283, -48000) (284, -48000) (285, 48000) (286, 48000) (287, 48000) (288, 48000) (289, 48000) (290, 48000) (291, 48000) (292, 48000) (293, 48000) (294, 48000) (295, 48000) (296, 48000) (297, 48000) (298, 48000) (299, 48000) (300, 48000) (301, 48000) (302, 48000) (303, 48000) (304, 48000) (305, 48000) (306, 48000) (307, -45881) (308, -48000) (0, -30099) (1, 48000) (2, 48000) (3, 48000) (4, 26933) (5, 19771) (6, 48000) (7, 48000) (8, 19126) (9, 47187) (10, -47558) (11, -47989) (12, -46157) (13, -48000) (14, -48000) (15, 