FANN_FLO_2.1
num_layers=4
learning_rate=0.700000
connection_rate=1.000000
network_type=0
learning_momentum=0.000000
training_algorithm=2
train_error_function=1
train_stop_function=0
cascade_output_change_fraction=0.010000
quickprop_decay=-0.000100
quickprop_mu=1.750000
rprop_increase_factor=1.200000
rprop_decrease_factor=0.500000
rprop_delta_min=0.000000
rprop_delta_max=50.000000
rprop_delta_zero=0.100000
cascade_output_stagnation_epochs=12
cascade_candidate_change_fraction=0.010000
cascade_candidate_stagnation_epochs=12
cascade_max_out_epochs=150
cascade_min_out_epochs=50
cascade_max_cand_epochs=150
cascade_min_cand_epochs=50
cascade_num_candidate_groups=2
bit_fail_limit=3.49999994039535522461e-01
cascade_candidate_limit=1.00000000000000000000e+03
cascade_weight_multiplier=4.00000005960464477539e-01
cascade_activation_functions_count=10
cascade_activation_functions=3 5 7 8 10 11 14 15 16 17 
cascade_activation_steepnesses_count=4
cascade_activation_steepnesses=2.50000000000000000000e-01 5.00000000000000000000e-01 7.50000000000000000000e-01 1.00000000000000000000e+00 
layer_sizes=309 9 9 2 
scale_included=0
neurons (num_inputs, activation_function, activation_steepness)=(0, 0, 0.00000000000000000000e+00) (0, 0, 0.00000000000000000000e+00) (0, 0, 0.00000000000000000000e+00) (0, 0, 0.00000000000000000000e+00) (0, 0, 0.00000000000000000000e+00) (0, 0, 0.00000000000000000000e+00) (0, 0, 0.00000000000000000000e+00) (0, 0, 0.00000000000000000000e+00) (0, 0, 0.00000000000000000000e+00) (0, 0, 0.00000000000000000000e+00) (0, 0, 0.00000000000000000000e+00) (0, 0, 0.00000000000000000000e+00) (0, 0, 0.00000000000000000000e+00) (0, 0, 0.00000000000000000000e+00) (0, 0, 0.00000000000000000000e+00) (0, 0, 0.00000000000000000000e+00) (0, 0, 0.00000000000000000000e+00) (0, 0, 0.00000000000000000000e+00) (0, 0, 0.00000000000000000000e+00) (0, 0, 0.00000000000000000000e+00) (0, 0, 0.00000000000000000000e+00) (0, 0, 0.00000000000000000000e+00) (0, 0, 0.00000000000000000000e+00) (0, 0, 0.00000000000000000000e+00) (0, 0, 0.00000000000000000000e+00) (0, 0, 0.00000000000000000000e+00) (0, 0, 0.00000000000000000000e+00) (0, 0, 0.00000000000000000000e+00) (0, 0, 0.00000000000000000000e+00) (0, 0, 0.00000000000000000000e+00) (0, 0, 0.00000000000000000000e+00) (0, 0, 0.00000000000000000000e+00) (0, 0, 0.00000000000000000000e+00) (0, 0, 0.00000000000000000000e+00) (0, 0, 0.00000000000000000000e+00) (0, 0, 0.00000000000000000000e+00) (0, 0, 0.00000000000000000000e+00) (0, 0, 0.00000000000000000000e+00) (0, 0, 0.00000000000000000000e+00) (0, 0, 0.00000000000000000000e+00) (0, 0, 0.00000000000000000000e+00) (0, 0, 0.00000000000000000000e+00) (0, 0, 0.00000000000000000000e+00) (0, 0, 0.00000000000000000000e+00) (0, 0, 0.00000000000000000000e+00) (0, 0, 0.00000000000000000000e+00) (0, 0, 0.00000000000000000000e+00) (0, 0, 0.00000000000000000000e+00) (0, 0, 0.00000000000000000000e+00) (0, 0, 0.00000000000000000000e+00) (0, 0, 0.00000000000000000000e+00) (0, 0, 0.00000000000000000000e+00) (0, 0, 0.00000000000000000000e+00) (0, 0, 0.00000000000000000000e+00) (0, 0, 0.00000000000000000000e+00) (0, 0, 0.00000000000000000000e+00) (0, 0, 0.00000000000000000000e+00) (0, 0, 0.00000000000000000000e+00) (0, 0, 0.00000000000000000000e+00) (0, 0, 0.00000000000000000000e+00) (0, 0, 0.00000000000000000000e+00) (0, 0, 0.00000000000000000000e+00) (0, 0, 0.00000000000000000000e+00) (0, 0, 0.00000000000000000000e+00) (0, 0, 0.00000000000000000000e+00) (0, 0, 0.00000000000000000000e+00) (0, 0, 0.00000000000000000000e+00) (0, 0, 0.00000000000000000000e+00) (0, 0, 0.00000000000000000000e+00) (0, 0, 0.00000000000000000000e+00) (0, 0, 0.00000000000000000000e+00) (0, 0, 0.00000000000000000000e+00) (0, 0, 0.00000000000000000000e+00) (0, 0, 0.00000000000000000000e+00) (0, 0, 0.00000000000000000000e+00) (0, 0, 0.00000000000000000000e+00) (0, 0, 0.00000000000000000000e+00) (0, 0, 0.00000000000000000000e+00) (0, 0, 0.00000000000000000000e+00) (0, 0, 0.00000000000000000000e+00) (0, 0, 0.00000000000000000000e+00) (0, 0, 0.00000000000000000000e+00) (0, 0, 0.00000000000000000000e+00) (0, 0, 0.00000000000000000000e+00) (0, 0, 0.00000000000000000000e+00) (0, 0, 0.00000000000000000000e+00) (0, 0, 0.00000000000000000000e+00) (0, 0, 0.00000000000000000000e+00) (0, 0, 0.00000000000000000000e+00) (0, 0, 0.00000000000000000000e+00) (0, 0, 0.00000000000000000000e+00) (0, 0, 0.00000000000000000000e+00) (0, 0, 0.00000000000000000000e+00) (0, 0, 0.00000000000000000000e+00) (0, 0, 0.00000000000000000000e+00) (0, 0, 0.00000000000000000000e+00) (0, 0, 0.00000000000000000000e+00) (0, 0, 0.00000000000000000000e+00) (0, 0, 0.00000000000000000000e+00) (0, 0, 0.00000000000000000000e+00) (0, 0, 0.00000000000000000000e+00) (0, 0, 0.00000000000000000000e+00) (0, 0, 0.00000000000000000000e+00) (0, 0, 0.00000000000000000000e+00) (0, 0, 0.00000000000000000000e+00) (0, 0, 0.00000000000000000000e+00) (0, 0, 0.00000000000000000000e+00) (0, 0, 0.00000000000000000000e+00) (0, 0, 0.00000000000000000000e+00) (0, 0, 0.00000000000000000000e+00) (0, 0, 0.00000000000000000000e+00) (0, 0, 0.00000000000000000000e+00) (0, 0, 0.00000000000000000000e+00) (0, 0, 0.00000000000000000000e+00) (0, 0, 0.00000000000000000000e+00) (0, 0, 0.00000000000000000000e+00) (0, 0, 0.00000000000000000000e+00) (0, 0, 0.00000000000000000000e+00) (0, 0, 0.00000000000000000000e+00) (0, 0, 0.00000000000000000000e+00) (0, 0, 0.00000000000000000000e+00) (0, 0, 0.00000000000000000000e+00) (0, 0, 0.00000000000000000000e+00) (0, 0, 0.00000000000000000000e+00) (0, 0, 0.00000000000000000000e+00) (0, 0, 0.00000000000000000000e+00) (0, 0, 0.00000000000000000000e+00) (0, 0, 0.00000000000000000000e+00) (0, 0, 0.00000000000000000000e+00) (0, 0, 0.00000000000000000000e+00) (0, 0, 0.00000000000000000000e+00) (0, 0, 0.00000000000000000000e+00) (0, 0, 0.00000000000000000000e+00) (0, 0, 0.00000000000000000000e+00) (0, 0, 0.00000000000000000000e+00) (0, 0, 0.00000000000000000000e+00) (0, 0, 0.00000000000000000000e+00) (0, 0, 0.00000000000000000000e+00) (0, 0, 0.00000000000000000000e+00) (0, 0, 0.00000000000000000000e+00) (0, 0, 0.00000000000000000000e+00) (0, 0, 0.00000000000000000000e+00) (0, 0, 0.00000000000000000000e+00) (0, 0, 0.00000000000000000000e+00) (0, 0, 0.00000000000000000000e+00) (0, 0, 0.00000000000000000000e+00) (0, 0, 0.00000000000000000000e+00) (0, 0, 0.00000000000000000000e+00) (0, 0, 0.00000000000000000000e+00) (0, 0, 0.00000000000000000000e+00) (0, 0, 0.00000000000000000000e+00) (0, 0, 0.00000000000000000000e+00) (0, 0, 0.00000000000000000000e+00) (0, 0, 0.00000000000000000000e+00) (0, 0, 0.00000000000000000000e+00) (0, 0, 0.00000000000000000000e+00) (0, 0, 0.00000000000000000000e+00) (0, 0, 0.00000000000000000000e+00) (0, 0, 0.00000000000000000000e+00) (0, 0, 0.00000000000000000000e+00) (0, 0, 0.00000000000000000000e+00) (0, 0, 0.00000000000000000000e+00) (0, 0, 0.00000000000000000000e+00) (0, 0, 0.00000000000000000000e+00) (0, 0, 0.00000000000000000000e+00) (0, 0, 0.00000000000000000000e+00) (0, 0, 0.00000000000000000000e+00) (0, 0, 0.00000000000000000000e+00) (0, 0, 0.00000000000000000000e+00) (0, 0, 0.00000000000000000000e+00) (0, 0, 0.00000000000000000000e+00) (0, 0, 0.00000000000000000000e+00) (0, 0, 0.00000000000000000000e+00) (0, 0, 0.00000000000000000000e+00) (0, 0, 0.00000000000000000000e+00) (0, 0, 0.00000000000000000000e+00) (0, 0, 0.00000000000000000000e+00) (0, 0, 0.00000000000000000000e+00) (0, 0, 0.00000000000000000000e+00) (0, 0, 0.00000000000000000000e+00) (0, 0, 0.00000000000000000000e+00) (0, 0, 0.00000000000000000000e+00) (0, 0, 0.00000000000000000000e+00) (0, 0, 0.00000000000000000000e+00) (0, 0, 0.00000000000000000000e+00) (0, 0, 0.00000000000000000000e+00) (0, 0, 0.00000000000000000000e+00) (0, 0, 0.00000000000000000000e+00) (0, 0, 0.00000000000000000000e+00) (0, 0, 0.00000000000000000000e+00) (0, 0, 0.00000000000000000000e+00) (0, 0, 0.00000000000000000000e+00) (0, 0, 0.00000000000000000000e+00) (0, 0, 0.00000000000000000000e+00) (0, 0, 0.00000000000000000000e+00) (0, 0, 0.00000000000000000000e+00) (0, 0, 0.00000000000000000000e+00) (0, 0, 0.00000000000000000000e+00) (0, 0, 0.00000000000000000000e+00) (0, 0, 0.00000000000000000000e+00) (0, 0, 0.00000000000000000000e+00) (0, 0, 0.00000000000000000000e+00) (0, 0, 0.00000000000000000000e+00) (0, 0, 0.00000000000000000000e+00) (0, 0, 0.00000000000000000000e+00) (0, 0, 0.00000000000000000000e+00) (0, 0, 0.00000000000000000000e+00) (0, 0, 0.00000000000000000000e+00) (0, 0, 0.00000000000000000000e+00) (0, 0, 0.00000000000000000000e+00) (0, 0, 0.00000000000000000000e+00) (0, 0, 0.00000000000000000000e+00) (0, 0, 0.00000000000000000000e+00) (0, 0, 0.00000000000000000000e+00) (0, 0, 0.00000000000000000000e+00) (0, 0, 0.00000000000000000000e+00) (0, 0, 0.00000000000000000000e+00) (0, 0, 0.00000000000000000000e+00) (0, 0, 0.00000000000000000000e+00) (0, 0, 0.00000000000000000000e+00) (0, 0, 0.00000000000000000000e+00) (0, 0, 0.00000000000000000000e+00) (0, 0, 0.00000000000000000000e+00) (0, 0, 0.00000000000000000000e+00) (0, 0, 0.00000000000000000000e+00) (0, 0, 0.00000000000000000000e+00) (0, 0, 0.00000000000000000000e+00) (0, 0, 0.00000000000000000000e+00) (0, 0, 0.00000000000000000000e+00) (0, 0, 0.00000000000000000000e+00) (0, 0, 0.00000000000000000000e+00) (0, 0, 0.00000000000000000000e+00) (0, 0, 0.00000000000000000000e+00) (0, 0, 0.00000000000000000000e+00) (0, 0, 0.00000000000000000000e+00) (0, 0, 0.00000000000000000000e+00) (0, 0, 0.00000000000000000000e+00) (0, 0, 0.00000000000000000000e+00) (0, 0, 0.00000000000000000000e+00) (0, 0, 0.00000000000000000000e+00) (0, 0, 0.00000000000000000000e+00) (0, 0, 0.00000000000000000000e+00) (0, 0, 0.00000000000000000000e+00) (0, 0, 0.00000000000000000000e+00) (0, 0, 0.00000000000000000000e+00) (0, 0, 0.00000000000000000000e+00) (0, 0, 0.00000000000000000000e+00) (0, 0, 0.00000000000000000000e+00) (0, 0, 0.00000000000000000000e+00) (0, 0, 0.00000000000000000000e+00) (0, 0, 0.00000000000000000000e+00) (0, 0, 0.00000000000000000000e+00) (0, 0, 0.00000000000000000000e+00) (0, 0, 0.00000000000000000000e+00) (0, 0, 0.00000000000000000000e+00) (0, 0, 0.00000000000000000000e+00) (0, 0, 0.00000000000000000000e+00) (0, 0, 0.00000000000000000000e+00) (0, 0, 0.00000000000000000000e+00) (0, 0, 0.00000000000000000000e+00) (0, 0, 0.00000000000000000000e+00) (0, 0, 0.00000000000000000000e+00) (0, 0, 0.00000000000000000000e+00) (0, 0, 0.00000000000000000000e+00) (0, 0, 0.00000000000000000000e+00) (0, 0, 0.00000000000000000000e+00) (0, 0, 0.00000000000000000000e+00) (0, 0, 0.00000000000000000000e+00) (0, 0, 0.00000000000000000000e+00) (0, 0, 0.00000000000000000000e+00) (0, 0, 0.00000000000000000000e+00) (0, 0, 0.00000000000000000000e+00) (0, 0, 0.00000000000000000000e+00) (0, 0, 0.00000000000000000000e+00) (0, 0, 0.00000000000000000000e+00) (0, 0, 0.00000000000000000000e+00) (0, 0, 0.00000000000000000000e+00) (0, 0, 0.00000000000000000000e+00) (0, 0, 0.00000000000000000000e+00) (0, 0, 0.00000000000000000000e+00) (0, 0, 0.00000000000000000000e+00) (0, 0, 0.00000000000000000000e+00) (0, 0, 0.00000000000000000000e+00) (0, 0, 0.00000000000000000000e+00) (0, 0, 0.00000000000000000000e+00) (0, 0, 0.00000000000000000000e+00) (0, 0, 0.00000000000000000000e+00) (0, 0, 0.00000000000000000000e+00) (0, 0, 0.00000000000000000000e+00) (0, 0, 0.00000000000000000000e+00) (0, 0, 0.00000000000000000000e+00) (0, 0, 0.00000000000000000000e+00) (0, 0, 0.00000000000000000000e+00) (0, 0, 0.00000000000000000000e+00) (0, 0, 0.00000000000000000000e+00) (0, 0, 0.00000000000000000000e+00) (0, 0, 0.00000000000000000000e+00) (0, 0, 0.00000000000000000000e+00) (0, 0, 0.00000000000000000000e+00) (0, 0, 0.00000000000000000000e+00) (0, 0, 0.00000000000000000000e+00) (0, 0, 0.00000000000000000000e+00) (0, 0, 0.00000000000000000000e+00) (0, 0, 0.00000000000000000000e+00) (0, 0, 0.00000000000000000000e+00) (0, 0, 0.00000000000000000000e+00) (0, 0, 0.00000000000000000000e+00) (0, 0, 0.00000000000000000000e+00) (0, 0, 0.00000000000000000000e+00) (309, 5, 5.00000000000000000000e-01) (309, 5, 5.00000000000000000000e-01) (309, 5, 5.00000000000000000000e-01) (309, 5, 5.00000000000000000000e-01) (309, 5, 5.00000000000000000000e-01) (309, 5, 5.00000000000000000000e-01) (309, 5, 5.00000000000000000000e-01) (309, 5, 5.00000000000000000000e-01) (0, 5, 0.00000000000000000000e+00) (9, 0, 5.00000000000000000000e-01) (9, 0, 5.00000000000000000000e-01) (9, 0, 5.00000000000000000000e-01) (9, 0, 5.00000000000000000000e-01) (9, 0, 5.00000000000000000000e-01) (9, 0, 5.00000000000000000000e-01) (9, 0, 5.00000000000000000000e-01) (9, 0, 5.00000000000000000000e-01) (0, 0, 0.00000000000000000000e+00) (9, 0, 5.00000000000000000000e-01) (0, 0, 0.00000000000000000000e+00) 
connections (connected_to_neuron, weight)=(0, -1.44854394531250000000e+03) (1, 1.50000000000000000000e+03) (2, 1.50000000000000000000e+03) (3, 1.50000000000000000000e+03) (4, 1.50000000000000000000e+03) (5, 1.50000000000000000000e+03) (6, 1.50000000000000000000e+03) (7, 1.50000000000000000000e+03) (8, 1.50000000000000000000e+03) (9, 1.50000000000000000000e+03) (10, 1.50000000000000000000e+03) (11, 1.50000000000000000000e+03) (12, -1.50000000000000000000e+03) (13, 1.50000000000000000000e+03) (14, -2.60458648681640625000e+02) (15, -1.50000000000000000000e+03) (16, -1.42983312988281250000e+03) (17, 1.49995642089843750000e+03) (18, 2.12631530761718750000e+02) (19, 8.81460510253906250000e+02) (20, 1.31768615722656250000e+03) (21, 4.81790649414062500000e+02) (22, -1.48024462890625000000e+03) (23, 7.12673492431640625000e+01) (24, -1.27932409667968750000e+03) (25, 1.31857891082763671875e+01) (26, 3.59482574462890625000e+02) (27, 1.50000000000000000000e+03) (28, 1.50000000000000000000e+03) (29, 4.78342742919921875000e+02) (30, -1.43212084960937500000e+03) (31, -1.95918865203857421875e+01) (32, -1.50000000000000000000e+03) (33, 1.50000000000000000000e+03) (34, 1.50000000000000000000e+03) (35, 1.50000000000000000000e+03) (36, 1.50000000000000000000e+03) (37, 1.50000000000000000000e+03) (38, 1.50000000000000000000e+03) (39, 1.50000000000000000000e+03) (40, 1.50000000000000000000e+03) (41, 1.50000000000000000000e+03) (42, 1.50000000000000000000e+03) (43, 1.50000000000000000000e+03) (44, 1.50000000000000000000e+03) (45, -1.48592932128906250000e+03) (46, 1.50000000000000000000e+03) (47, 1.50000000000000000000e+03) (48, 1.50000000000000000000e+03) (49, 1.50000000000000000000e+03) (50, 1.50000000000000000000e+03) (51, 1.50000000000000000000e+03) (52, 1.50000000000000000000e+03) (53, 1.50000000000000000000e+03) (54, 1.50000000000000000000e+03) (55, 1.50000000000000000000e+03) (56, 1.50000000000000000000e+03) (57, 1.50000000000000000000e+03) (58, 1.50000000000000000000e+03) (59, 1.50000000000000000000e+03) (60, 1.50000000000000000000e+03) (61, 1.50000000000000000000e+03) (62, -1.50000000000000000000e+03) (63, -1.50000000000000000000e+03) (64, 1.50000000000000000000e+03) (65, 2.41735115051269531250e+01) (66, 3.64087891578674316406e+00) (67, -4.51018447875976562500e+01) (68, 1.41202734375000000000e+03) (69, -3.98620666503906250000e+02) (70, 1.50000000000000000000e+03) (71, -1.48740527343750000000e+03) (72, -1.13265417480468750000e+03) (73, 1.50000000000000000000e+03) (74, 1.50000000000000000000e+03) (75, 1.50000000000000000000e+03) (76, 1.50000000000000000000e+03) (77, 1.50000000000000000000e+03) (78, 1.50000000000000000000e+03) (79, 1.50000000000000000000e+03) (80, 1.50000000000000000000e+03) (81, 1.50000000000000000000e+03) (82, 1.50000000000000000000e+03) (83, 1.50000000000000000000e+03) (84, 1.50000000000000000000e+03) (85, 1.50000000000000000000e+03) (86, 1.50000000000000000000e+03) (87, 1.50000000000000000000e+03) (88, 1.50000000000000000000e+03) (89, 1.50000000000000000000e+03) (90, 1.50000000000000000000e+03) (91, 1.50000000000000000000e+03) (92, 1.50000000000000000000e+03) (93, 1.50000000000000000000e+03) (94, 1.50000000000000000000e+03) (95, 1.50000000000000000000e+03) (96, 1.50000000000000000000e+03) (97, 1.50000000000000000000e+03) (98, 1.50000000000000000000e+03) (99, 1.50000000000000000000e+03) (100, 1.50000000000000000000e+03) (101, 1.50000000000000000000e+03) (102, 1.50000000000000000000e+03) (103, 1.50000000000000000000e+03) (104, 1.50000000000000000000e+03) (105, -1.47352575683593750000e+03) (106, -1.48946276855468750000e+03) (107, 4.05705932617187500000e+02) (108, -3.23957733154296875000e+02) (109, -5.53700332641601562500e+01) (110, 4.36160354614257812500e+01) (111, 1.50000000000000000000e+03) (112, 1.50000000000000000000e+03) (113, 1.36497021484375000000e+03) (114, -1.50000000000000000000e+03) (115, -1.50000000000000000000e+03) (116, -1.50000000000000000000e+03) (117, -1.50000000000000000000e+03) (118, -1.50000000000000000000e+03) (119, 1.50000000000000000000e+03) (120, 1.50000000000000000000e+03) (121, 1.50000000000000000000e+03) (122, 1.50000000000000000000e+03) (123, 1.50000000000000000000e+03) (124, 1.50000000000000000000e+03) (125, 1.50000000000000000000e+03) (126, 1.50000000000000000000e+03) (127, 1.50000000000000000000e+03) (128, 1.50000000000000000000e+03) (129, 1.50000000000000000000e+03) (130, 1.50000000000000000000e+03) (131, 1.50000000000000000000e+03) (132, 1.50000000000000000000e+03) (133, 1.50000000000000000000e+03) (134, 1.50000000000000000000e+03) (135, 1.50000000000000000000e+03) (136, 1.50000000000000000000e+03) (137, 1.50000000000000000000e+03) (138, 1.50000000000000000000e+03) (139, 1.50000000000000000000e+03) (140, 1.50000000000000000000e+03) (141, 1.50000000000000000000e+03) (142, 1.50000000000000000000e+03) (143, 1.50000000000000000000e+03) (144, 1.50000000000000000000e+03) (145, 1.50000000000000000000e+03) (146, 1.50000000000000000000e+03) (147, 1.50000000000000000000e+03) (148, 1.50000000000000000000e+03) (149, 1.50000000000000000000e+03) (150, 1.50000000000000000000e+03) (151, 1.50000000000000000000e+03) (152, 1.50000000000000000000e+03) (153, 1.50000000000000000000e+03) (154, 1.50000000000000000000e+03) (155, 1.50000000000000000000e+03) (156, 1.50000000000000000000e+03) (157, 1.50000000000000000000e+03) (158, 1.50000000000000000000e+03) (159, 1.50000000000000000000e+03) (160, 1.50000000000000000000e+03) (161, 1.50000000000000000000e+03) (162, 1.50000000000000000000e+03) (163, 1.50000000000000000000e+03) (164, 1.50000000000000000000e+03) (165, 1.50000000000000000000e+03) (166, 1.50000000000000000000e+03) (167, 1.50000000000000000000e+03) (168, 1.50000000000000000000e+03) (169, 1.50000000000000000000e+03) (170, 1.50000000000000000000e+03) (171, 1.50000000000000000000e+03) (172, 1.50000000000000000000e+03) (173, 1.50000000000000000000e+03) (174, 1.50000000000000000000e+03) (175, 1.50000000000000000000e+03) (176, 1.50000000000000000000e+03) (177, 1.50000000000000000000e+03) (178, 1.50000000000000000000e+03) (179, 1.50000000000000000000e+03) (180, 1.50000000000000000000e+03) (181, 1.50000000000000000000e+03) (182, 1.50000000000000000000e+03) (183, 1.50000000000000000000e+03) (184, 1.50000000000000000000e+03) (185, 1.50000000000000000000e+03) (186, 1.50000000000000000000e+03) (187, 1.50000000000000000000e+03) (188, 1.50000000000000000000e+03) (189, 1.50000000000000000000e+03) (190, 1.50000000000000000000e+03) (191, 1.50000000000000000000e+03) (192, 1.50000000000000000000e+03) (193, 1.50000000000000000000e+03) (194, 1.50000000000000000000e+03) (195, 1.50000000000000000000e+03) (196, 1.50000000000000000000e+03) (197, 1.50000000000000000000e+03) (198, 1.50000000000000000000e+03) (199, 1.50000000000000000000e+03) (200, 1.50000000000000000000e+03) (201, 1.50000000000000000000e+03) (202, 1.50000000000000000000e+03) (203, 1.50000000000000000000e+03) (204, 1.50000000000000000000e+03) (205, 1.50000000000000000000e+03) (206, 1.50000000000000000000e+03) (207, 1.50000000000000000000e+03) (208, 1.50000000000000000000e+03) (209, 1.50000000000000000000e+03) (210, 1.50000000000000000000e+03) (211, 1.50000000000000000000e+03) (212, 1.50000000000000000000e+03) (213, 1.50000000000000000000e+03) (214, 1.50000000000000000000e+03) (215, 1.50000000000000000000e+03) (216, 1.50000000000000000000e+03) (217, 1.50000000000000000000e+03) (218, 1.50000000000000000000e+03) (219, 1.50000000000000000000e+03) (220, 1.50000000000000000000e+03) (221, 1.50000000000000000000e+03) (222, 1.50000000000000000000e+03) (223, 1.50000000000000000000e+03) (224, 1.50000000000000000000e+03) (225, 1.50000000000000000000e+03) (226, 1.50000000000000000000e+03) (227, 1.50000000000000000000e+03) (228, 1.50000000000000000000e+03) (229, 1.50000000000000000000e+03) (230, 1.50000000000000000000e+03) (231, 1.50000000000000000000e+03) (232, 1.50000000000000000000e+03) (233, 1.50000000000000000000e+03) (234, 1.50000000000000000000e+03) (235, 1.50000000000000000000e+03) (236, 1.50000000000000000000e+03) (237, 1.50000000000000000000e+03) (238, 1.50000000000000000000e+03) (239, 1.50000000000000000000e+03) (240, 1.50000000000000000000e+03) (241, -1.50000000000000000000e+03) (242, 1.47555126953125000000e+03) (243, 1.50000000000000000000e+03) (244, 1.50000000000000000000e+03) (245, 1.50000000000000000000e+03) (246, 1.50000000000000000000e+03) (247, 1.50000000000000000000e+03) (248, 1.50000000000000000000e+03) (249, 1.50000000000000000000e+03) (250, -1.50000000000000000000e+03) (251, 1.50000000000000000000e+03) (252, -1.41840795898437500000e+03) (253, -1.46762890625000000000e+03) (254, -1.49637548828125000000e+03) (255, 9.49788208007812500000e+02) (256, 1.50000000000000000000e+03) (257, 1.50000000000000000000e+03) (258, 1.50000000000000000000e+03) (259, 1.50000000000000000000e+03) (260, 1.50000000000000000000e+03) (261, 1.50000000000000000000e+03) (262, 1.50000000000000000000e+03) (263, 9.99700866699218750000e+02) (264, 1.38507556152343750000e+03) (265, -8.34502197265625000000e+02) (266, -1.20714831542968750000e+03) (267, -1.49566943359375000000e+03) (268, -1.11797106933593750000e+03) (269, 9.82573730468750000000e+02) (270, 1.48706518554687500000e+03) (271, 3.01081726074218750000e+02) (272, -4.33699645996093750000e+01) (273, 2.89538288116455078125e+00) (274, 4.54644918441772460938e+00) (275, 1.43688232421875000000e+02) (276, 1.56288299560546875000e+02) (277, 2.33167028427124023438e+00) (278, 1.50000000000000000000e+03) (279, 1.50000000000000000000e+03) (280, 1.07426098632812500000e+03) (281, 1.50000000000000000000e+03) (282, 1.45341978073120117188e+01) (283, -1.50000000000000000000e+03) (284, 1.50000000000000000000e+03) (285, 1.50000000000000000000e+03) (286, 1.50000000000000000000e+03) (287, 1.50000000000000000000e+03) (288, 1.50000000000000000000e+03) (289, 1.50000000000000000000e+03) (290, 1.50000000000000000000e+03) (291, 1.50000000000000000000e+03) (292, 1.50000000000000000000e+03) (293, 1.50000000000000000000e+03) (294, 1.50000000000000000000e+03) (295, 1.50000000000000000000e+03) (296, 1.50000000000000000000e+03) (297, 1.50000000000000000000e+03) (298, 1.50000000000000000000e+03) (299, 1.50000000000000000000e+03) (300, 1.50000000000000000000e+03) (301, 1.50000000000000000000e+03) (302, 1.50000000000000000000e+03) (303, 1.50000000000000000000e+03) (304, 1.50000000000000000000e+03) (305, 1.50000000000000000000e+03) (306, 1.50000000000000000000e+03) (307, -1.48592932128906250000e+03) (308, 2.72156357765197753906e+00) (0, 1.49986108398437500000e+03) (1, -1.50000000000000000000e+03) (2, -1.50000000000000000000e+03) (3, -1.49981860351562500000e+03) (4, -1.50000000000000000000e+03) (5, -1.50000000000000000000e+03) (6, -1.49958007812500000000e+03) (7, -1.50000000000000000000e+03) (8, -1.50000000000000000000e+03) (9, -1.49958007812500000000e+03) (10, -1.49981860351562500000e+03) (11, -1.49958007812500000000e+03) (12, -5.68176940917968750000e+02) (13, -1.49981860351562500000e+03) (14, 1.50000000000000000000e+03) (15, 1.50000000000000000000e+03) (16, -1.49997656250000000000e+03) (17, -1.49977624511718750000e+03) (18, -1.49999401855468750000e+03) (19, -1.49863793945312500000e+03) (20, -1.49974487304687500000e+03) (21, -1.43252539062500000000e+03) (22, 1.49947656250000000000e+03) (23, -3.10546325683593750000e+02) (24, -1.59628890991210937500e+02) (25, 2.21466708183288574219e+00) (26, 5.41842956542968750000e+02) (27, -1.50000000000000000000e+03) (28, -1.49844567871093750000e+03) (29, 1.49999987792968750000e+03) (30, 1.49998498535156250000e+03) (31, 1.50000000000000000000e+03) (32, 1.50000000000000000000e+03) (33, -1.50000000000000000000e+03) (34, -1.50000000000000000000e+03) (35, -1.50000000000000000000e+03) (36, -1.50000000000000000000e+03) (37, -1.50000000000000000000e+03) (38, -1.50000000000000000000e+03) (39, -1.50000000000000000000e+03) (40, -1.50000000000000000000e+03) (41, -1.50000000000000000000e+03) (42, -1.50000000000000000000e+03) (43, -1.50000000000000000000e+03) (44, -1.50000000000000000000e+03) (45, 1.49999975585937500000e+03) (46, 1.50000000000000000000e+03) (47, 1.50000000000000000000e+03) (48, 1.50000000000000000000e+03) (49, 1.50000000000000000000e+03) (50, 1.50000000000000000000e+03) (51, 1.50000000000000000000e+03) (52, 1.50000000000000000000e+03) (53, 1.50000000000000000000e+03) (54, 1.50000000000000000000e+03) (55, 1.50000000000000000000e+03) (56, 1.50000000000000000000e+03) (57, 1.50000000000000000000e+03) (58, 1.50000000000000000000e+03) (59, 1.50000000000000000000e+03) (60, -1.50000000000000000000e+03) (61, -1.49981860351562500000e+03) (62, 1.49784362792968750000e+03) (63, 1.50000000000000000000e+03) (64, -6.09565429687500000000e+02) (65, -3.99246612548828125000e+02) (66, 4.10387706756591796875e+00) (67, -3.12211578369140625000e+02) (68, 1.41294982910156250000e+03) (69, -4.91037506103515625000e+02) (70, -1.49924548339843750000e+03) (71, 1.49987121582031250000e+03) (72, -1.49506848144531250000e+03) (73, -1.49981860351562500000e+03) (74, -1.49981860351562500000e+03) (75, 1.50000000000000000000e+03) (76, 1.50000000000000000000e+03) (77, 1.50000000000000000000e+03) (78, 1.50000000000000000000e+03) (79, 1.50000000000000000000e+03) (80, 1.50000000000000000000e+03) (81, 1.50000000000000000000e+03) (82, 1.50000000000000000000e+03) (83, 1.50000000000000000000e+03) (84, 1.50000000000000000000e+03) (85, 1.50000000000000000000e+03) (86, 1.50000000000000000000e+03) (87, 1.50000000000000000000e+03) (88, 1.50000000000000000000e+03) (89, 1.50000000000000000000e+03) (90, 1.50000000000000000000e+03) (91, 1.50000000000000000000e+03) (92, 1.50000000000000000000e+03) (93, 1.50000000000000000000e+03) (94, 1.50000000000000000000e+03) (95, 1.50000000000000000000e+03) (96, 1.50000000000000000000e+03) (97, 1.50000000000000000000e+03) (98, 1.50000000000000000000e+03) (99, 1.50000000000000000000e+03) (100, 1.50000000000000000000e+03) (101, 1.50000000000000000000e+03) (102, 1.50000000000000000000e+03) (103, 1.50000000000000000000e+03) (104, 1.50000000000000000000e+03) (105, 1.50000000000000000000e+03) (106, 1.49954382324218750000e+03) (107, -1.79450012207031250000e+02) (108, -1.94201538085937500000e+02) (109, 2.17945236206054687500e+02) (110, 2.99276466369628906250e+01) (111, 1.41325292968750000000e+03) (112, -1.49599157714843750000e+03) (113, -1.29289001464843750000e+03) (114, 1.50000000000000000000e+03) (115, 1.50000000000000000000e+03) (116, 1.50000000000000000000e+03) (117, 1.50000000000000000000e+03) (118, 1.50000000000000000000e+03) (119, -1.49981860351562500000e+03) (120, 1.50000000000000000000e+03) (121, 1.50000000000000000000e+03) (122, 1.50000000000000000000e+03) (123, 1.50000000000000000000e+03) (124, 1.50000000000000000000e+03) (125, 1.50000000000000000000e+03) (126, 1.50000000000000000000e+03) (127, 1.50000000000000000000e+03) (128, 1.50000000000000000000e+03) (129, 1.50000000000000000000e+03) (130, 1.50000000000000000000e+03) (131, 1.50000000000000000000e+03) (132, 1.50000000000000000000e+03) (133, 1.50000000000000000000e+03) (134, 1.50000000000000000000e+03) (135, 1.50000000000000000000e+03) (136, 1.50000000000000000000e+03) (137, 1.50000000000000000000e+03) (138, 1.50000000000000000000e+03) (139, 1.50000000000000000000e+03) (140, 1.50000000000000000000e+03) (141, 1.50000000000000000000e+03) (142, 1.50000000000000000000e+03) (143, 1.50000000000000000000e+03) (144, 1.50000000000000000000e+03) (145, 1.50000000000000000000e+03) (146, 1.50000000000000000000e+03) (147, 1.50000000000000000000e+03) (148, 1.50000000000000000000e+03) (149, 1.50000000000000000000e+03) (150, 1.50000000000000000000e+03) (151, 1.50000000000000000000e+03) (152, 1.50000000000000000000e+03) (153, 1.50000000000000000000e+03) (154, 1.50000000000000000000e+03) (155, 1.50000000000000000000e+03) (156, 1.50000000000000000000e+03) (157, 1.50000000000000000000e+03) (158, 1.50000000000000000000e+03) (159, 1.50000000000000000000e+03) (160, 1.50000000000000000000e+03) (161, 1.50000000000000000000e+03) (162, 1.50000000000000000000e+03) (163, 1.50000000000000000000e+03) (164, 1.50000000000000000000e+03) (165, 1.50000000000000000000e+03) (166, 1.50000000000000000000e+03) (167, 1.50000000000000000000e+03) (168, 1.50000000000000000000e+03) (169, 1.50000000000000000000e+03) (170, 1.50000000000000000000e+03) (171, 1.50000000000000000000e+03) (172, 1.50000000000000000000e+03) (173, 1.50000000000000000000e+03) (174, 1.50000000000000000000e+03) (175, 1.50000000000000000000e+03) (176, 1.50000000000000000000e+03) (177, 1.50000000000000000000e+03) (178, 1.50000000000000000000e+03) (179, 1.50000000000000000000e+03) (180, 1.50000000000000000000e+03) (181, 1.50000000000000000000e+03) (182, 1.50000000000000000000e+03) (183, 1.50000000000000000000e+03) (184, 1.50000000000000000000e+03) (185, 1.50000000000000000000e+03) (186, 1.50000000000000000000e+03) (187, 1.50000000000000000000e+03) (188, 1.50000000000000000000e+03) (189, 1.50000000000000000000e+03) (190, 1.50000000000000000000e+03) (191, 1.50000000000000000000e+03) (192, 1.50000000000000000000e+03) (193, 1.50000000000000000000e+03) (194, 1.50000000000000000000e+03) (195, 1.50000000000000000000e+03) (196, 1.50000000000000000000e+03) (197, 1.50000000000000000000e+03) (198, 1.50000000000000000000e+03) (199, 1.50000000000000000000e+03) (200, 1.50000000000000000000e+03) (201, 1.50000000000000000000e+03) (202, 1.50000000000000000000e+03) (203, 1.50000000000000000000e+03) (204, 1.50000000000000000000e+03) (205, 1.50000000000000000000e+03) (206, 1.50000000000000000000e+03) (207, 1.50000000000000000000e+03) (208, 1.50000000000000000000e+03) (209, 1.50000000000000000000e+03) (210, 1.50000000000000000000e+03) (211, 1.50000000000000000000e+03) (212, 1.50000000000000000000e+03) (213, 1.50000000000000000000e+03) (214, 1.50000000000000000000e+03) (215, 1.50000000000000000000e+03) (216, 1.50000000000000000000e+03) (217, 1.50000000000000000000e+03) (218, 1.50000000000000000000e+03) (219, 1.50000000000000000000e+03) (220, 1.50000000000000000000e+03) (221, 1.50000000000000000000e+03) (222, 1.50000000000000000000e+03) (223, 1.50000000000000000000e+03) (224, 1.50000000000000000000e+03) (225, 1.50000000000000000000e+03) (226, 1.50000000000000000000e+03) (227, 1.50000000000000000000e+03) (228, 1.50000000000000000000e+03) (229, 1.50000000000000000000e+03) (230, 1.50000000000000000000e+03) (231, 1.50000000000000000000e+03) (232, 1.50000000000000000000e+03) (233, 1.50000000000000000000e+03) (234, 1.50000000000000000000e+03) (235, 1.50000000000000000000e+03) (236, 1.50000000000000000000e+03) (237, 1.50000000000000000000e+03) (238, 1.50000000000000000000e+03) (239, 1.50000000000000000000e+03) (240, -1.50000000000000000000e+03) (241, 1.50000000000000000000e+03) (242, -1.42732873535156250000e+03) (243, -1.50000000000000000000e+03) (244, -1.50000000000000000000e+03) (245, -1.48387573242187500000e+03) (246, -1.50000000000000000000e+03) (247, -1.49981860351562500000e+03) (248, -1.49981860351562500000e+03) (249, -1.49981860351562500000e+03) (250, 1.50000000000000000000e+03) (251, -1.50000000000000000000e+03) (252, 1.49830468750000000000e+03) (253, 1.49993591308593750000e+03) (254, 1.50000000000000000000e+03) (255, -1.45978527832031250000e+03) (256, -1.49398168945312500000e+03) (257, -1.49981860351562500000e+03) (258, -1.49981860351562500000e+03) (259, -1.49981860351562500000e+03) (260, -1.49981860351562500000e+03) (261, -1.49981860351562500000e+03) (262, -1.49981860351562500000e+03) (263, -1.73840682983398437500e+02) (264, 9.26162719726562500000e+02) (265, 1.46100976562500000000e+03) (266, 1.49769665527343750000e+03) (267, 1.49980554199218750000e+03) (268, 1.39907116699218750000e+03) (269, -3.12635559082031250000e+02) (270, -8.60454406738281250000e+02) (271, -1.53778823852539062500e+02) (272, 8.78084945678710937500e+01) (273, 1.38085186481475830078e+00) (274, 4.37746667861938476562e+00) (275, 1.48489700317382812500e+02) (276, 1.76958190917968750000e+02) (277, 9.82613861560821533203e-01) (278, -1.38147802734375000000e+03) (279, 1.47591174316406250000e+03) (280, -1.46831042480468750000e+03) (281, -1.49913989257812500000e+03) (282, -1.45121044921875000000e+03) (283, 1.50000000000000000000e+03) (284, 1.50000000000000000000e+03) (285, 1.50000000000000000000e+03) (286, 1.50000000000000000000e+03) (287, 1.50000000000000000000e+03) (288, 1.50000000000000000000e+03) (289, 1.50000000000000000000e+03) (290, 1.50000000000000000000e+03) (291, 1.50000000000000000000e+03) (292, 1.50000000000000000000e+03) (293, 1.50000000000000000000e+03) (294, 1.50000000000000000000e+03) (295, 1.50000000000000000000e+03) (296, 1.50000000000000000000e+03) (297, 1.50000000000000000000e+03) (298, 1.50000000000000000000e+03) (299, 1.50000000000000000000e+03) (300, 1.50000000000000000000e+03) (301, 1.50000000000000000000e+03) (302, 1.50000000000000000000e+03) (303, 1.50000000000000000000e+03) (304, 1.50000000000000000000e+03) (305, 1.50000000000000000000e+03) (306, 1.50000000000000000000e+03) (307, 1.49999975585937500000e+03) (308, 1.48321282863616943359e+00) (0, 1.49980346679687500000e+03) (1, -1.50000000000000000000e+03) (2, -1.50000000000000000000e+03) (3, -1.50000000000000000000e+03) (4, -1.50000000000000000000e+03) (5, -1.50000000000000000000e+03) (6, -1.50000000000000000000e+03) (7, -1.50000000000000000000e+03) (8, -1.50000000000000000000e+03) (9, -1.50000000000000000000e+03) (10, -1.50000000000000000000e+03) (11, -1.50000000000000000000e+03) (12, 1.50000000000000000000e+03) (13, -1.50000000000000000000e+03) (14, 1.50000000000000000000e+03) (15, 1.50000000000000000000e+03) (16, -1.46313134765625000000e+03) (17, -1.46313134765625000000e+03) (18, -1.46313134765625000000e+03) (19, -1.46313134765625000000e+03) (20, -1.42521801757812500000e+03) (21, -1.49760302734375000000e+03) (22, 1.49947656250000000000e+03) (23, 1.49977282714843750000e+03) (24, 1.49999975585937500000e+03) (25, 4.06873226165771484375e+00) (26, -5.38832519531250000000e+02) (27, -1.50000000000000000000e+03) (28, -1.49329248046875000000e+03) (29, 1.49999987792968750000e+03) (30, 1.49998498535156250000e+03) (31, 1.50000000000000000000e+03) (32, 1.50000000000000000000e+03) (33, -1.50000000000000000000e+03) (34, -1.50000000000000000000e+03) (35, -1.50000000000000000000e+03) (36, -1.50000000000000000000e+03) (37, -1.50000000000000000000e+03) (38, -1.50000000000000000000e+03) (39, -1.50000000000000000000e+03) (40, -1.50000000000000000000e+03) (41, -1.50000000000000000000e+03) (42, -1.50000000000000000000e+03) (43, -1.50000000000000000000e+03) (44, -1.50000000000000000000e+03) (45, 1.49999975585937500000e+03) (46, 1.50000000000000000000e+03) (47, 1.50000000000000000000e+03) (48, 1.50000000000000000000e+03) (49, 1.50000000000000000000e+03) (50, 1.50000000000000000000e+03) (51, 1.50000000000000000000e+03) (52, 1.50000000000000000000e+03) (53, 1.50000000000000000000e+03) (54, 1.50000000000000000000e+03) (55, 1.50000000000000000000e+03) (56, 1.50000000000000000000e+03) (57, 1.50000000000000000000e+03) (58, 1.50000000000000000000e+03) (59, 1.50000000000000000000e+03) (60, -1.50000000000000000000e+03) (61, -1.50000000000000000000e+03) (62, 1.49860473632812500000e+03) (63, 1.50000000000000000000e+03) (64, -7.41804260253906250000e+02) (65, 1.49990246582031250000e+03) (66, 7.81741189956665039062e+00) (67, -3.19051239013671875000e+02) (68, 1.41927087402343750000e+03) (69, 1.49999975585937500000e+03) (70, -1.35312182617187500000e+03) (71, 1.49984155273437500000e+03) (72, -1.46313134765625000000e+03) (73, -1.50000000000000000000e+03) (74, -1.48133764648437500000e+03) (75, 1.50000000000000000000e+03) (76, 1.50000000000000000000e+03) (77, 1.50000000000000000000e+03) (78, 1.50000000000000000000e+03) (79, 1.50000000000000000000e+03) (80, 1.50000000000000000000e+03) (81, 1.50000000000000000000e+03) (82, 1.50000000000000000000e+03) (83, 1.50000000000000000000e+03) (84, 1.50000000000000000000e+03) (85, 1.50000000000000000000e+03) (86, 1.50000000000000000000e+03) (87, 1.50000000000000000000e+03) (88, 1.50000000000000000000e+03) (89, 1.50000000000000000000e+03) (90, 1.50000000000000000000e+03) (91, 1.50000000000000000000e+03) (92, 1.50000000000000000000e+03) (93, 1.50000000000000000000e+03) (94, 1.50000000000000000000e+03) (95, 1.50000000000000000000e+03) (96, 1.50000000000000000000e+03) (97, 1.50000000000000000000e+03) (98, 1.50000000000000000000e+03) (99, 1.50000000000000000000e+03) (100, 1.50000000000000000000e+03) (101, 1.50000000000000000000e+03) (102, 1.50000000000000000000e+03) (103, 1.50000000000000000000e+03) (104, 1.50000000000000000000e+03) (105, 1.49999975585937500000e+03) (106, 1.49953527832031250000e+03) (107, 2.84551219940185546875e+01) (108, -4.27211120605468750000e+02) (109, 2.03756301879882812500e+02) (110, -1.48161254882812500000e+03) (111, -1.49630993652343750000e+03) (112, -1.49599157714843750000e+03) (113, -1.29289294433593750000e+03) (114, 1.50000000000000000000e+03) (115, 1.50000000000000000000e+03) (116, 1.50000000000000000000e+03) (117, 1.50000000000000000000e+03) (118, 1.50000000000000000000e+03) (119, -1.50000000000000000000e+03) (120, 1.50000000000000000000e+03) (121, 1.50000000000000000000e+03) (122, 1.50000000000000000000e+03) (123, 1.50000000000000000000e+03) (124, 1.50000000000000000000e+03) (125, 1.50000000000000000000e+03) (126, 1.50000000000000000000e+03) (127, 1.50000000000000000000e+03) (128, 1.50000000000000000000e+03) (129, 1.50000000000000000000e+03) (130, 1.50000000000000000000e+03) (131, 1.50000000000000000000e+03) (132, 1.50000000000000000000e+03) (133, 1.50000000000000000000e+03) (134, 1.50000000000000000000e+03) (135, 1.50000000000000000000e+03) (136, 1.50000000000000000000e+03) (137, 1.50000000000000000000e+03) (138, 1.50000000000000000000e+03) (139, 1.50000000000000000000e+03) (140, 1.50000000000000000000e+03) (141, 1.50000000000000000000e+03) (142, 1.50000000000000000000e+03) (143, 1.50000000000000000000e+03) (144, 1.50000000000000000000e+03) (145, 1.50000000000000000000e+03) (146, 1.50000000000000000000e+03) (147, 1.50000000000000000000e+03) (148, 1.50000000000000000000e+03) (149, 1.50000000000000000000e+03) (150, 1.50000000000000000000e+03) (151, 1.50000000000000000000e+03) (152, 1.50000000000000000000e+03) (153, 1.50000000000000000000e+03) (154, 1.50000000000000000000e+03) (155, 1.50000000000000000000e+03) (156, 1.50000000000000000000e+03) (157, 1.50000000000000000000e+03) (158, 1.50000000000000000000e+03) (159, 1.50000000000000000000e+03) (160, 1.50000000000000000000e+03) (161, 1.50000000000000000000e+03) (162, 1.50000000000000000000e+03) (163, 1.50000000000000000000e+03) (164, 1.50000000000000000000e+03) (165, 1.50000000000000000000e+03) (166, 1.50000000000000000000e+03) (167, 1.50000000000000000000e+03) (168, 1.50000000000000000000e+03) (169, 1.50000000000000000000e+03) (170, 1.50000000000000000000e+03) (171, 1.50000000000000000000e+03) (172, 1.50000000000000000000e+03) (173, 1.50000000000000000000e+03) (174, 1.50000000000000000000e+03) (175, 1.50000000000000000000e+03) (176, 1.50000000000000000000e+03) (177, 1.50000000000000000000e+03) (178, 1.50000000000000000000e+03) (179, 1.50000000000000000000e+03) (180, 1.50000000000000000000e+03) (181, 1.50000000000000000000e+03) (182, 1.50000000000000000000e+03) (183, 1.50000000000000000000e+03) (184, 1.50000000000000000000e+03) (185, 1.50000000000000000000e+03) (186, 1.50000000000000000000e+03) (187, 1.50000000000000000000e+03) (188, 1.50000000000000000000e+03) (189, 1.50000000000000000000e+03) (190, 1.50000000000000000000e+03) (191, 1.50000000000000000000e+03) (192, 1.50000000000000000000e+03) (193, 1.50000000000000000000e+03) (194, 1.50000000000000000000e+03) (195, 1.50000000000000000000e+03) (196, 1.50000000000000000000e+03) (197, 1.50000000000000000000e+03) (198, 1.50000000000000000000e+03) (199, 1.50000000000000000000e+03) (200, 1.50000000000000000000e+03) (201, 1.50000000000000000000e+03) (202, 1.50000000000000000000e+03) (203, 1.50000000000000000000e+03) (204, 1.50000000000000000000e+03) (205, 1.50000000000000000000e+03) (206, 1.50000000000000000000e+03) (207, 1.50000000000000000000e+03) (208, 1.50000000000000000000e+03) (209, 1.50000000000000000000e+03) (210, 1.50000000000000000000e+03) (211, 1.50000000000000000000e+03) (212, 1.50000000000000000000e+03) (213, 1.50000000000000000000e+03) (214, 1.50000000000000000000e+03) (215, 1.50000000000000000000e+03) (216, 1.50000000000000000000e+03) (217, 1.50000000000000000000e+03) (218, 1.50000000000000000000e+03) (219, 1.50000000000000000000e+03) (220, 1.50000000000000000000e+03) (221, 1.50000000000000000000e+03) (222, 1.50000000000000000000e+03) (223, 1.50000000000000000000e+03) (224, 1.50000000000000000000e+03) (225, 1.50000000000000000000e+03) (226, 1.50000000000000000000e+03) (227, 1.50000000000000000000e+03) (228, 1.50000000000000000000e+03) (229, 1.50000000000000000000e+03) (230, 1.50000000000000000000e+03) (231, 1.50000000000000000000e+03) (232, 1.50000000000000000000e+03) (233, 1.50000000000000000000e+03) (234, 1.50000000000000000000e+03) (235, 1.50000000000000000000e+03) (236, 1.50000000000000000000e+03) (237, 1.50000000000000000000e+03) (238, 1.50000000000000000000e+03) (239, 1.50000000000000000000e+03) (240, -1.50000000000000000000e+03) (241, 1.50000000000000000000e+03) (242, -1.42735058593750000000e+03) (243, -1.50000000000000000000e+03) (244, -1.50000000000000000000e+03) (245, -1.50000000000000000000e+03) (246, -1.50000000000000000000e+03) (247, -1.50000000000000000000e+03) (248, -1.50000000000000000000e+03) (249, -1.50000000000000000000e+03) (250, 1.50000000000000000000e+03) (251, -1.50000000000000000000e+03) (252, 1.49830505371093750000e+03) (253, 1.49992199707031250000e+03) (254, 1.49999975585937500000e+03) (255, -1.48317431640625000000e+03) (256, -1.48133764648437500000e+03) (257, -1.50000000000000000000e+03) (258, -1.50000000000000000000e+03) (259, -1.50000000000000000000e+03) (260, -1.50000000000000000000e+03) (261, -1.50000000000000000000e+03) (262, -1.48133764648437500000e+03) (263, -1.49319128417968750000e+03) (264, -1.07410717773437500000e+03) (265, -4.56971557617187500000e+02) (266, 1.25253930664062500000e+03) (267, 1.49974414062500000000e+03) (268, 1.47475415039062500000e+03) (269, 1.13917248535156250000e+03) (270, -1.29498889160156250000e+03) (271, -1.41329330444335937500e+02) (272, 9.47196121215820312500e+01) (273, 4.41098880767822265625e+00) (274, 7.87602853775024414062e+00) (275, 1.27004980468750000000e+03) (276, 1.46531640625000000000e+03) (277, 2.09657878875732421875e+01) (278, -6.25260070800781250000e+02) (279, -1.42461450195312500000e+03) (280, -2.37425537109375000000e+02) (281, -8.65698486328125000000e+02) (282, 1.15421972656250000000e+03) (283, 1.50000000000000000000e+03) (284, 1.50000000000000000000e+03) (285, 1.50000000000000000000e+03) (286, 1.50000000000000000000e+03) (287, 1.50000000000000000000e+03) (288, 1.50000000000000000000e+03) (289, 1.50000000000000000000e+03) (290, 1.50000000000000000000e+03) (291, 1.50000000000000000000e+03) (292, 1.50000000000000000000e+03) (293, 1.50000000000000000000e+03) (294, 1.50000000000000000000e+03) (295, 1.50000000000000000000e+03) (296, 1.50000000000000000000e+03) (297, 1.50000000000000000000e+03) (298, 1.50000000000000000000e+03) (299, 1.50000000000000000000e+03) (300, 1.50000000000000000000e+03) (301, 1.50000000000000000000e+03) (302, 1.50000000000000000000e+03) (303, 1.50000000000000000000e+03) (304, 1.50000000000000000000e+03) (305, 1.50000000000000000000e+03) (306, 1.50000000000000000000e+03) (307, 1.49999975585937500000e+03) (308, 3.35432887077331542969e+00) (0, -1.44852575683593750000e+03) (1, 1.50000000000000000000e+03) (2, 1.50000000000000000000e+03) (3, 1.50000000000000000000e+03) (4, 1.50000000000000000000e+03) (5, 1.50000000000000000000e+03) (6, 1.50000000000000000000e+03) (7, 1.50000000000000000000e+03) (8, 1.50000000000000000000e+03) (9, 1.50000000000000000000e+03) (10, 1.50000000000000000000e+03) (11, 1.50000000000000000000e+03) (12, -1.50000000000000000000e+03) (13, 1.50000000000000000000e+03) (14, -1.50000000000000000000e+03) (15, -1.50000000000000000000e+03) (16, 1.50000000000000000000e+03) (17, 1.50000000000000000000e+03) (18, 1.50000000000000000000e+03) (19, 1.50000000000000000000e+03) (20, 1.50000000000000000000e+03) (21, 1.50000000000000000000e+03) (22, -1.46191418457031250000e+03) (23, -1.49337170410156250000e+03) (24, -1.49568725585937500000e+03) (25, 2.03987884521484375000e+00) (26, 4.01017272949218750000e+02) (27, 1.50000000000000000000e+03) (28, 1.50000000000000000000e+03) (29, -1.46281750488281250000e+03) (30, -1.48080432128906250000e+03) (31, -1.50000000000000000000e+03) (32, -1.50000000000000000000e+03) (33, 1.50000000000000000000e+03) (34, 1.50000000000000000000e+03) (35, 1.50000000000000000000e+03) (36, 1.50000000000000000000e+03) (37, 1.50000000000000000000e+03) (38, 1.50000000000000000000e+03) (39, 1.50000000000000000000e+03) (40, 1.50000000000000000000e+03) (41, 1.50000000000000000000e+03) (42, 1.50000000000000000000e+03) (43, 1.50000000000000000000e+03) (44, 1.50000000000000000000e+03) (45, -1.49297143554687500000e+03) (46, 1.50000000000000000000e+03) (47, 1.50000000000000000000e+03) (48, 1.50000000000000000000e+03) (49, 1.50000000000000000000e+03) (50, 1.50000000000000000000e+03) (51, 1.50000000000000000000e+03) (52, 1.50000000000000000000e+03) (53, 1.50000000000000000000e+03) (54, 1.50000000000000000000e+03) (55, 1.50000000000000000000e+03) (56, 1.50000000000000000000e+03) (57, 1.50000000000000000000e+03) (58, 1.50000000000000000000e+03) (59, 1.50000000000000000000e+03) (60, 1.50000000000000000000e+03) (61, 1.50000000000000000000e+03) (62, -1.41598840332031250000e+03) (63, -1.50000000000000000000e+03) (64, 1.18221667480468750000e+03) (65, -1.36772839355468750000e+03) (66, -1.35653364658355712891e+00) (67, 1.25987377929687500000e+03) (68, -1.00502636718750000000e+03) (69, -1.49763928222656250000e+03) (70, 1.50000000000000000000e+03) (71, -1.48226599121093750000e+03) (72, 1.50000000000000000000e+03) (73, 1.50000000000000000000e+03) (74, 1.50000000000000000000e+03) (75, 1.50000000000000000000e+03) (76, 1.50000000000000000000e+03) (77, 1.50000000000000000000e+03) (78, 1.50000000000000000000e+03) (79, 1.50000000000000000000e+03) (80, 1.50000000000000000000e+03) (81, 1.50000000000000000000e+03) (82, 1.50000000000000000000e+03) (83, 1.50000000000000000000e+03) (84, 1.50000000000000000000e+03) (85, 1.50000000000000000000e+03) (86, 1.50000000000000000000e+03) (87, 1.50000000000000000000e+03) (88, 1.50000000000000000000e+03) (89, 1.50000000000000000000e+03) (90, 1.50000000000000000000e+03) (91, 1.50000000000000000000e+03) (92, 1.50000000000000000000e+03) (93, 1.50000000000000000000e+03) (94, 1.50000000000000000000e+03) (95, 1.50000000000000000000e+03) (96, 1.50000000000000000000e+03) (97, 1.50000000000000000000e+03) (98, 1.50000000000000000000e+03) (99, 1.50000000000000000000e+03) (100, 1.50000000000000000000e+03) (101, 1.50000000000000000000e+03) (102, 1.50000000000000000000e+03) (103, 1.50000000000000000000e+03) (104, 1.50000000000000000000e+03) (105, -1.43301220703125000000e+03) (106, -1.49208642578125000000e+03) (107, 1.81751129150390625000e+02) (108, 3.46473449707031250000e+02) (109, -1.24103744506835937500e+02) (110, 1.50000000000000000000e+03) (111, 1.50000000000000000000e+03) (112, 1.50000000000000000000e+03) (113, 1.36518078613281250000e+03) (114, -1.50000000000000000000e+03) (115, -1.50000000000000000000e+03) (116, -1.50000000000000000000e+03) (117, -1.50000000000000000000e+03) (118, -1.50000000000000000000e+03) (119, 1.50000000000000000000e+03) (120, 1.50000000000000000000e+03) (121, 1.50000000000000000000e+03) (122, 1.50000000000000000000e+03) (123, 1.50000000000000000000e+03) (124, 1.50000000000000000000e+03) (125, 1.50000000000000000000e+03) (126, 1.50000000000000000000e+03) (127, 1.50000000000000000000e+03) (128, 1.50000000000000000000e+03) (129, 1.50000000000000000000e+03) (130, 1.50000000000000000000e+03) (131, 1.50000000000000000000e+03) (132, 1.50000000000000000000e+03) (133, 1.50000000000000000000e+03) (134, 1.50000000000000000000e+03) (135, 1.50000000000000000000e+03) (136, 1.50000000000000000000e+03) (137, 1.50000000000000000000e+03) (138, 1.50000000000000000000e+03) (139, 1.50000000000000000000e+03) (140, 1.50000000000000000000e+03) (141, 1.50000000000000000000e+03) (142, 1.50000000000000000000e+03) (143, 1.50000000000000000000e+03) (144, 1.50000000000000000000e+03) (145, 1.50000000000000000000e+03) (146, 1.50000000000000000000e+03) (147, 1.50000000000000000000e+03) (148, 1.50000000000000000000e+03) (149, 1.50000000000000000000e+03) (150, 1.50000000000000000000e+03) (151, 1.50000000000000000000e+03) (152, 1.50000000000000000000e+03) (153, 1.50000000000000000000e+03) (154, 1.50000000000000000000e+03) (155, 1.50000000000000000000e+03) (156, 1.50000000000000000000e+03) (157, 1.50000000000000000000e+03) (158, 1.50000000000000000000e+03) (159, 1.50000000000000000000e+03) (160, 1.50000000000000000000e+03) (161, 1.50000000000000000000e+03) (162, 1.50000000000000000000e+03) (163, 1.50000000000000000000e+03) (164, 1.50000000000000000000e+03) (165, 1.50000000000000000000e+03) (166, 1.50000000000000000000e+03) (167, 1.50000000000000000000e+03) (168, 1.50000000000000000000e+03) (169, 1.50000000000000000000e+03) (170, 1.50000000000000000000e+03) (171, 1.50000000000000000000e+03) (172, 1.50000000000000000000e+03) (173, 1.50000000000000000000e+03) (174, 1.50000000000000000000e+03) (175, 1.50000000000000000000e+03) (176, 1.50000000000000000000e+03) (177, 1.50000000000000000000e+03) (178, 1.50000000000000000000e+03) (179, 1.50000000000000000000e+03) (180, 1.50000000000000000000e+03) (181, 1.50000000000000000000e+03) (182, 1.50000000000000000000e+03) (183, 1.50000000000000000000e+03) (184, 1.50000000000000000000e+03) (185, 1.50000000000000000000e+03) (186, 1.50000000000000000000e+03) (187, 1.50000000000000000000e+03) (188, 1.50000000000000000000e+03) (189, 1.50000000000000000000e+03) (190, 1.50000000000000000000e+03) (191, 1.50000000000000000000e+03) (192, 1.50000000000000000000e+03) (193, 1.50000000000000000000e+03) (194, 1.50000000000000000000e+03) (195, 1.50000000000000000000e+03) (196, 1.50000000000000000000e+03) (197, 1.50000000000000000000e+03) (198, 1.50000000000000000000e+03) (199, 1.50000000000000000000e+03) (200, 1.50000000000000000000e+03) (201, 1.50000000000000000000e+03) (202, 1.50000000000000000000e+03) (203, 1.50000000000000000000e+03) (204, 1.50000000000000000000e+03) (205, 1.50000000000000000000e+03) (206, 1.50000000000000000000e+03) (207, 1.50000000000000000000e+03) (208, 1.50000000000000000000e+03) (209, 1.50000000000000000000e+03) (210, 1.50000000000000000000e+03) (211, 1.50000000000000000000e+03) (212, 1.50000000000000000000e+03) (213, 1.50000000000000000000e+03) (214, 1.50000000000000000000e+03) (215, 1.50000000000000000000e+03) (216, 1.50000000000000000000e+03) (217, 1.50000000000000000000e+03) (218, 1.50000000000000000000e+03) (219, 1.50000000000000000000e+03) (220, 1.50000000000000000000e+03) (221, 1.50000000000000000000e+03) (222, 1.50000000000000000000e+03) (223, 1.50000000000000000000e+03) (224, 1.50000000000000000000e+03) (225, 1.50000000000000000000e+03) (226, 1.50000000000000000000e+03) (227, 1.50000000000000000000e+03) (228, 1.50000000000000000000e+03) (229, 1.50000000000000000000e+03) (230, 1.50000000000000000000e+03) (231, 1.50000000000000000000e+03) (232, 1.50000000000000000000e+03) (233, 1.50000000000000000000e+03) (234, 1.50000000000000000000e+03) (235, 1.50000000000000000000e+03) (236, 1.50000000000000000000e+03) (237, 1.50000000000000000000e+03) (238, 1.50000000000000000000e+03) (239, 1.50000000000000000000e+03) (240, 1.50000000000000000000e+03) (241, -1.50000000000000000000e+03) (242, 1.47656835937500000000e+03) (243, 1.50000000000000000000e+03) (244, 1.50000000000000000000e+03) (245, 1.50000000000000000000e+03) (246, 1.50000000000000000000e+03) (247, 1.50000000000000000000e+03) (248, 1.50000000000000000000e+03) (249, 1.50000000000000000000e+03) (250, -1.50000000000000000000e+03) (251, 1.50000000000000000000e+03) (252, -1.41621386718750000000e+03) (253, -1.44272229003906250000e+03) (254, -1.47443579101562500000e+03) (255, 1.50000000000000000000e+03) (256, 1.50000000000000000000e+03) (257, 1.50000000000000000000e+03) (258, 1.50000000000000000000e+03) (259, 1.50000000000000000000e+03) (260, 1.50000000000000000000e+03) (261, 1.50000000000000000000e+03) (262, 1.50000000000000000000e+03) (263, 1.49849816894531250000e+03) (264, 1.12979223632812500000e+03) (265, 8.62560058593750000000e+02) (266, -1.19404785156250000000e+03) (267, -1.49564538574218750000e+03) (268, -1.43767211914062500000e+03) (269, -8.07361816406250000000e+02) (270, 1.42098632812500000000e+03) (271, 2.42860321044921875000e+02) (272, -5.91721343994140625000e+01) (273, -2.07162216305732727051e-01) (274, -2.24863147735595703125e+00) (275, -1.03239648437500000000e+03) (276, -1.39830078125000000000e+03) (277, -9.15861892700195312500e+00) (278, 1.50000000000000000000e+03) (279, 1.50000000000000000000e+03) (280, 1.49357324218750000000e+03) (281, 1.47904663085937500000e+03) (282, 1.50000000000000000000e+03) (283, -1.50000000000000000000e+03) (284, 1.50000000000000000000e+03) (285, 1.50000000000000000000e+03) (286, 1.50000000000000000000e+03) (287, 1.50000000000000000000e+03) (288, 1.50000000000000000000e+03) (289, 1.50000000000000000000e+03) (290, 1.50000000000000000000e+03) (291, 1.50000000000000000000e+03) (292, 1.50000000000000000000e+03) (293, 1.50000000000000000000e+03) (294, 1.50000000000000000000e+03) (295, 1.50000000000000000000e+03) (296, 1.50000000000000000000e+03) (297, 1.50000000000000000000e+03) (298, 1.50000000000000000000e+03) (299, 1.50000000000000000000e+03) (300, 1.50000000000000000000e+03) (301, 1.50000000000000000000e+03) (302, 1.50000000000000000000e+03) (303, 1.50000000000000000000e+03) (304, 1.50000000000000000000e+03) (305, 1.50000000000000000000e+03) (306, 1.50000000000000000000e+03) (307, -1.49297143554687500000e+03) (308, 7.41236150264739990234e-01) (0, 1.49981311035156250000e+03) (1, -1.50000000000000000000e+03) (2, -1.50000000000000000000e+03) (3, -1.50000000000000000000e+03) (4, -1.50000000000000000000e+03) (5, -1.50000000000000000000e+03) (6, -1.48133764648437500000e+03) (7, -1.50000000000000000000e+03) (8, -1.50000000000000000000e+03) (9, -1.50000000000000000000e+03) (10, -1.50000000000000000000e+03) (11, -1.47500000000000000000e+03) (12, 1.50000000000000000000e+03) (13, -1.48133764648437500000e+03) (14, 1.50000000000000000000e+03) (15, 1.50000000000000000000e+03) (16, 2.89245605468750000000e+02) (17, -1.46342602539062500000e+03) (18, -5.21944274902343750000e+02) (19, -1.42476000976562500000e+03) (20, -4.79095214843750000000e+02) (21, -1.48597412109375000000e+03) (22, 1.49947619628906250000e+03) (23, -8.10789489746093750000e+02) (24, 4.44413665771484375000e+02) (25, 2.13300728797912597656e+00) (26, 1.19916366577148437500e+02) (27, -1.50000000000000000000e+03) (28, -1.49967382812500000000e+03) (29, 1.49999987792968750000e+03) (30, 1.49998498535156250000e+03) (31, 1.50000000000000000000e+03) (32, 1.50000000000000000000e+03) (33, -1.50000000000000000000e+03) (34, -1.50000000000000000000e+03) (35, -1.50000000000000000000e+03) (36, -1.50000000000000000000e+03) (37, -1.50000000000000000000e+03) (38, -1.50000000000000000000e+03) (39, -1.50000000000000000000e+03) (40, -1.50000000000000000000e+03) (41, -1.50000000000000000000e+03) (42, -1.50000000000000000000e+03) (43, -1.50000000000000000000e+03) (44, -1.50000000000000000000e+03) (45, 1.49999975585937500000e+03) (46, 1.50000000000000000000e+03) (47, 1.50000000000000000000e+03) (48, 1.50000000000000000000e+03) (49, 1.50000000000000000000e+03) (50, 1.50000000000000000000e+03) (51, 1.50000000000000000000e+03) (52, 1.50000000000000000000e+03) (53, 1.50000000000000000000e+03) (54, 1.50000000000000000000e+03) (55, 1.50000000000000000000e+03) (56, 1.50000000000000000000e+03) (57, 1.50000000000000000000e+03) (58, 1.50000000000000000000e+03) (59, 1.50000000000000000000e+03) (60, -1.50000000000000000000e+03) (61, -1.48133764648437500000e+03) (62, 1.50000000000000000000e+03) (63, 1.50000000000000000000e+03) (64, 3.11607086181640625000e+02) (65, -7.36132446289062500000e+02) (66, 5.88459062576293945312e+00) (67, 9.84381713867187500000e+01) (68, -4.11901062011718750000e+02) (69, -9.82152954101562500000e+02) (70, -8.15329040527343750000e+02) (71, 1.49996850585937500000e+03) (72, -1.21224841308593750000e+03) (73, -1.48133764648437500000e+03) (74, -1.49989294433593750000e+03) (75, 1.50000000000000000000e+03) (76, 1.50000000000000000000e+03) (77, 1.50000000000000000000e+03) (78, 1.50000000000000000000e+03) (79, 1.50000000000000000000e+03) (80, 1.50000000000000000000e+03) (81, 1.50000000000000000000e+03) (82, 1.50000000000000000000e+03) (83, 1.50000000000000000000e+03) (84, 1.50000000000000000000e+03) (85, 1.50000000000000000000e+03) (86, 1.50000000000000000000e+03) (87, 1.50000000000000000000e+03) (88, 1.50000000000000000000e+03) (89, 1.50000000000000000000e+03) (90, 1.50000000000000000000e+03) (91, 1.50000000000000000000e+03) (92, 1.50000000000000000000e+03) (93, 1.50000000000000000000e+03) (94, 1.50000000000000000000e+03) (95, 1.50000000000000000000e+03) (96, 1.50000000000000000000e+03) (97, 1.50000000000000000000e+03) (98, 1.50000000000000000000e+03) (99, 1.50000000000000000000e+03) (100, 1.50000000000000000000e+03) (101, 1.50000000000000000000e+03) (102, 1.50000000000000000000e+03) (103, 1.50000000000000000000e+03) (104, 1.50000000000000000000e+03) (105, 1.49840014648437500000e+03) (106, 1.49953662109375000000e+03) (107, -3.24988708496093750000e+01) (108, 2.03069274902343750000e+02) (109, 1.57667968750000000000e+02) (110, 1.31387194824218750000e+03) (111, -1.29949243164062500000e+03) (112, -1.49599157714843750000e+03) (113, -1.29288793945312500000e+03) (114, 1.50000000000000000000e+03) (115, 1.50000000000000000000e+03) (116, 1.50000000000000000000e+03) (117, 1.50000000000000000000e+03) (118, 1.50000000000000000000e+03) (119, -1.48133764648437500000e+03) (120, 1.50000000000000000000e+03) (121, 1.50000000000000000000e+03) (122, 1.50000000000000000000e+03) (123, 1.50000000000000000000e+03) (124, 1.50000000000000000000e+03) (125, 1.50000000000000000000e+03) (126, 1.50000000000000000000e+03) (127, 1.50000000000000000000e+03) (128, 1.50000000000000000000e+03) (129, 1.50000000000000000000e+03) (130, 1.50000000000000000000e+03) (131, 1.50000000000000000000e+03) (132, 1.50000000000000000000e+03) (133, 1.50000000000000000000e+03) (134, 1.50000000000000000000e+03) (135, 1.50000000000000000000e+03) (136, 1.50000000000000000000e+03) (137, 1.50000000000000000000e+03) (138, 1.50000000000000000000e+03) (139, 1.50000000000000000000e+03) (140, 1.50000000000000000000e+03) (141, 1.50000000000000000000e+03) (142, 1.50000000000000000000e+03) (143, 1.50000000000000000000e+03) (144, 1.50000000000000000000e+03) (145, 1.50000000000000000000e+03) (146, 1.50000000000000000000e+03) (147, 1.50000000000000000000e+03) (148, 1.50000000000000000000e+03) (149, 1.50000000000000000000e+03) (150, 1.50000000000000000000e+03) (151, 1.50000000000000000000e+03) (152, 1.50000000000000000000e+03) (153, 1.50000000000000000000e+03) (154, 1.50000000000000000000e+03) (155, 1.50000000000000000000e+03) (156, 1.50000000000000000000e+03) (157, 1.50000000000000000000e+03) (158, 1.50000000000000000000e+03) (159, 1.50000000000000000000e+03) (160, 1.50000000000000000000e+03) (161, 1.50000000000000000000e+03) (162, 1.50000000000000000000e+03) (163, 1.50000000000000000000e+03) (164, 1.50000000000000000000e+03) (165, 1.50000000000000000000e+03) (166, 1.50000000000000000000e+03) (167, 1.50000000000000000000e+03) (168, 1.50000000000000000000e+03) (169, 1.50000000000000000000e+03) (170, 1.50000000000000000000e+03) (171, 1.50000000000000000000e+03) (172, 1.50000000000000000000e+03) (173, 1.50000000000000000000e+03) (174, 1.50000000000000000000e+03) (175, 1.50000000000000000000e+03) (176, 1.50000000000000000000e+03) (177, 1.50000000000000000000e+03) (178, 1.50000000000000000000e+03) (179, 1.50000000000000000000e+03) (180, 1.50000000000000000000e+03) (181, 1.50000000000000000000e+03) (182, 1.50000000000000000000e+03) (183, 1.50000000000000000000e+03) (184, 1.50000000000000000000e+03) (185, 1.50000000000000000000e+03) (186, 1.50000000000000000000e+03) (187, 1.50000000000000000000e+03) (188, 1.50000000000000000000e+03) (189, 1.50000000000000000000e+03) (190, 1.50000000000000000000e+03) (191, 1.50000000000000000000e+03) (192, 1.50000000000000000000e+03) (193, 1.50000000000000000000e+03) (194, 1.50000000000000000000e+03) (195, 1.50000000000000000000e+03) (196, 1.50000000000000000000e+03) (197, 1.50000000000000000000e+03) (198, 1.50000000000000000000e+03) (199, 1.50000000000000000000e+03) (200, 1.50000000000000000000e+03) (201, 1.50000000000000000000e+03) (202, 1.50000000000000000000e+03) (203, 1.50000000000000000000e+03) (204, 1.50000000000000000000e+03) (205, 1.50000000000000000000e+03) (206, 1.50000000000000000000e+03) (207, 1.50000000000000000000e+03) (208, 1.50000000000000000000e+03) (209, 1.50000000000000000000e+03) (210, 1.50000000000000000000e+03) (211, 1.50000000000000000000e+03) (212, 1.50000000000000000000e+03) (213, 1.50000000000000000000e+03) (214, 1.50000000000000000000e+03) (215, 1.50000000000000000000e+03) (216, 1.50000000000000000000e+03) (217, 1.50000000000000000000e+03) (218, 1.50000000000000000000e+03) (219, 1.50000000000000000000e+03) (220, 1.50000000000000000000e+03) (221, 1.50000000000000000000e+03) (222, 1.50000000000000000000e+03) (223, 1.50000000000000000000e+03) (224, 1.50000000000000000000e+03) (225, 1.50000000000000000000e+03) (226, 1.50000000000000000000e+03) (227, 1.50000000000000000000e+03) (228, 1.50000000000000000000e+03) (229, 1.50000000000000000000e+03) (230, 1.50000000000000000000e+03) (231, 1.50000000000000000000e+03) (232, 1.50000000000000000000e+03) (233, 1.50000000000000000000e+03) (234, 1.50000000000000000000e+03) (235, 1.50000000000000000000e+03) (236, 1.50000000000000000000e+03) (237, 1.50000000000000000000e+03) (238, 1.50000000000000000000e+03) (239, 1.50000000000000000000e+03) (240, -1.50000000000000000000e+03) (241, 1.50000000000000000000e+03) (242, -1.42665100097656250000e+03) (243, -1.48133764648437500000e+03) (244, -1.50000000000000000000e+03) (245, -1.50000000000000000000e+03) (246, -1.48133764648437500000e+03) (247, -1.48133764648437500000e+03) (248, -1.47500000000000000000e+03) (249, -1.50000000000000000000e+03) (250, 1.50000000000000000000e+03) (251, -1.48133764648437500000e+03) (252, 1.49836181640625000000e+03) (253, 1.49999975585937500000e+03) (254, 1.49945483398437500000e+03) (255, -2.73926696777343750000e+02) (256, -1.44901965332031250000e+03) (257, -1.48133764648437500000e+03) (258, -1.48133764648437500000e+03) (259, -1.48133764648437500000e+03) (260, -1.48133764648437500000e+03) (261, -1.48658483886718750000e+03) (262, -1.49500097656250000000e+03) (263, -8.03222412109375000000e+02) (264, -2.57545166015625000000e+02) (265, -4.70605545043945312500e+01) (266, 1.34134191894531250000e+03) (267, 1.49978051757812500000e+03) (268, 1.45899975585937500000e+03) (269, -9.43806518554687500000e+02) (270, -8.70462097167968750000e+02) (271, -2.30607162475585937500e+02) (272, 9.48419418334960937500e+01) (273, 3.84584856033325195312e+00) (274, 4.69465398788452148438e+00) (275, -1.29109436035156250000e+03) (276, 3.37188339233398437500e+01) (277, 1.70004081726074218750e+01) (278, -9.37601867675781250000e+02) (279, -5.37062133789062500000e+02) (280, 7.63237121582031250000e+02) (281, -3.91450988769531250000e+02) (282, 1.60629531860351562500e+02) (283, 1.50000000000000000000e+03) (284, 1.50000000000000000000e+03) (285, 1.50000000000000000000e+03) (286, 1.50000000000000000000e+03) (287, 1.50000000000000000000e+03) (288, 1.50000000000000000000e+03) (289, 1.50000000000000000000e+03) (290, 1.50000000000000000000e+03) (291, 1.50000000000000000000e+03) (292, 1.50000000000000000000e+03) (293, 1.50000000000000000000e+03) (294, 1.50000000000000000000e+03) (295, 1.50000000000000000000e+03) (296, 1.50000000000000000000e+03) (297, 1.50000000000000000000e+03) (298, 1.50000000000000000000e+03) (299, 1.50000000000000000000e+03) (300, 1.50000000000000000000e+03) (301, 1.50000000000000000000e+03) (302, 1.50000000000000000000e+03) (303, 1.50000000000000000000e+03) (304, 1.50000000000000000000e+03) (305, 1.50000000000000000000e+03) (306, 1.50000000000000000000e+03) (307, 1.49999975585937500000e+03) (308, 1.85760700702667236328e+00) (0, 1.49980371093750000000e+03) (1, -1.50000000000000000000e+03) (2, -1.50000000000000000000e+03) (3, -1.50000000000000000000e+03) (4, -1.50000000000000000000e+03) (5, -1.50000000000000000000e+03) (6, -1.50000000000000000000e+03) (7, -1.50000000000000000000e+03) (8, -1.50000000000000000000e+03) (9, -1.50000000000000000000e+03) (10, -1.50000000000000000000e+03) (11, -1.50000000000000000000e+03) (12, 1.50000000000000000000e+03) (13, -1.50000000000000000000e+03) (14, 1.50000000000000000000e+03) (15, 1.50000000000000000000e+03) (16, -1.46313134765625000000e+03) (17, -1.46313134765625000000e+03) (18, -1.48402221679687500000e+03) (19, -1.49942919921875000000e+03) (20, -1.49457592773437500000e+03) (21, -1.47489208984375000000e+03) (22, 1.49947741699218750000e+03) (23, -1.19268273925781250000e+03) (24, 7.78671264648437500000e+02) (25, 1.67297863960266113281e+00) (26, -7.98411254882812500000e+02) (27, -1.50000000000000000000e+03) (28, -1.49962548828125000000e+03) (29, 1.49999987792968750000e+03) (30, 1.49998498535156250000e+03) (31, 1.50000000000000000000e+03) (32, 1.50000000000000000000e+03) (33, -1.50000000000000000000e+03) (34, -1.50000000000000000000e+03) (35, -1.50000000000000000000e+03) (36, -1.50000000000000000000e+03) (37, -1.50000000000000000000e+03) (38, -1.50000000000000000000e+03) (39, -1.50000000000000000000e+03) (40, -1.50000000000000000000e+03) (41, -1.50000000000000000000e+03) (42, -1.50000000000000000000e+03) (43, -1.50000000000000000000e+03) (44, -1.50000000000000000000e+03) (45, 1.49999975585937500000e+03) (46, 1.50000000000000000000e+03) (47, 1.50000000000000000000e+03) (48, 1.50000000000000000000e+03) (49, 1.50000000000000000000e+03) (50, 1.50000000000000000000e+03) (51, 1.50000000000000000000e+03) (52, 1.50000000000000000000e+03) (53, 1.50000000000000000000e+03) (54, 1.50000000000000000000e+03) (55, 1.50000000000000000000e+03) (56, 1.50000000000000000000e+03) (57, 1.50000000000000000000e+03) (58, 1.50000000000000000000e+03) (59, 1.50000000000000000000e+03) (60, -1.50000000000000000000e+03) (61, -1.50000000000000000000e+03) (62, 1.49999780273437500000e+03) (63, 1.50000000000000000000e+03) (64, -6.78500732421875000000e+02) (65, -7.36132934570312500000e+02) (66, 4.10553634166717529297e-01) (67, 3.39526153564453125000e+02) (68, -8.04712402343750000000e+02) (69, -4.48323272705078125000e+02) (70, -1.14265869140625000000e+03) (71, 1.49989465332031250000e+03) (72, -1.46313134765625000000e+03) (73, -1.50000000000000000000e+03) (74, -1.48133764648437500000e+03) (75, 1.50000000000000000000e+03) (76, 1.50000000000000000000e+03) (77, 1.50000000000000000000e+03) (78, 1.50000000000000000000e+03) (79, 1.50000000000000000000e+03) (80, 1.50000000000000000000e+03) (81, 1.50000000000000000000e+03) (82, 1.50000000000000000000e+03) (83, 1.50000000000000000000e+03) (84, 1.50000000000000000000e+03) (85, 1.50000000000000000000e+03) (86, 1.50000000000000000000e+03) (87, 1.50000000000000000000e+03) (88, 1.50000000000000000000e+03) (89, 1.50000000000000000000e+03) (90, 1.50000000000000000000e+03) (91, 1.50000000000000000000e+03) (92, 1.50000000000000000000e+03) (93, 1.50000000000000000000e+03) (94, 1.50000000000000000000e+03) (95, 1.50000000000000000000e+03) (96, 1.50000000000000000000e+03) (97, 1.50000000000000000000e+03) (98, 1.50000000000000000000e+03) (99, 1.50000000000000000000e+03) (100, 1.50000000000000000000e+03) (101, 1.50000000000000000000e+03) (102, 1.50000000000000000000e+03) (103, 1.50000000000000000000e+03) (104, 1.50000000000000000000e+03) (105, 1.49999975585937500000e+03) (106, 1.49969506835937500000e+03) (107, -6.18779029846191406250e+01) (108, 5.29483154296875000000e+02) (109, 1.23047485351562500000e+02) (110, 1.38031884765625000000e+03) (111, -8.58161865234375000000e+02) (112, -1.49599072265625000000e+03) (113, -1.29568591308593750000e+03) (114, 1.50000000000000000000e+03) (115, 1.50000000000000000000e+03) (116, 1.50000000000000000000e+03) (117, 1.50000000000000000000e+03) (118, 1.50000000000000000000e+03) (119, -1.50000000000000000000e+03) (120, 1.50000000000000000000e+03) (121, 1.50000000000000000000e+03) (122, 1.50000000000000000000e+03) (123, 1.50000000000000000000e+03) (124, 1.50000000000000000000e+03) (125, 1.50000000000000000000e+03) (126, 1.50000000000000000000e+03) (127, 1.50000000000000000000e+03) (128, 1.50000000000000000000e+03) (129, 1.50000000000000000000e+03) (130, 1.50000000000000000000e+03) (131, 1.50000000000000000000e+03) (132, 1.50000000000000000000e+03) (133, 1.50000000000000000000e+03) (134, 1.50000000000000000000e+03) (135, 1.50000000000000000000e+03) (136, 1.50000000000000000000e+03) (137, 1.50000000000000000000e+03) (138, 1.50000000000000000000e+03) (139, 1.50000000000000000000e+03) (140, 1.50000000000000000000e+03) (141, 1.50000000000000000000e+03) (142, 1.50000000000000000000e+03) (143, 1.50000000000000000000e+03) (144, 1.50000000000000000000e+03) (145, 1.50000000000000000000e+03) (146, 1.50000000000000000000e+03) (147, 1.50000000000000000000e+03) (148, 1.50000000000000000000e+03) (149, 1.50000000000000000000e+03) (150, 1.50000000000000000000e+03) (151, 1.50000000000000000000e+03) (152, 1.50000000000000000000e+03) (153, 1.50000000000000000000e+03) (154, 1.50000000000000000000e+03) (155, 1.50000000000000000000e+03) (156, 1.50000000000000000000e+03) (157, 1.50000000000000000000e+03) (158, 1.50000000000000000000e+03) (159, 1.50000000000000000000e+03) (160, 1.50000000000000000000e+03) (161, 1.50000000000000000000e+03) (162, 1.50000000000000000000e+03) (163, 1.50000000000000000000e+03) (164, 1.50000000000000000000e+03) (165, 1.50000000000000000000e+03) (166, 1.50000000000000000000e+03) (167, 1.50000000000000000000e+03) (168, 1.50000000000000000000e+03) (169, 1.50000000000000000000e+03) (170, 1.50000000000000000000e+03) (171, 1.50000000000000000000e+03) (172, 1.50000000000000000000e+03) (173, 1.50000000000000000000e+03) (174, 1.50000000000000000000e+03) (175, 1.50000000000000000000e+03) (176, 1.50000000000000000000e+03) (177, 1.50000000000000000000e+03) (178, 1.50000000000000000000e+03) (179, 1.50000000000000000000e+03) (180, 1.50000000000000000000e+03) (181, 1.50000000000000000000e+03) (182, 1.50000000000000000000e+03) (183, 1.50000000000000000000e+03) (184, 1.50000000000000000000e+03) (185, 1.50000000000000000000e+03) (186, 1.50000000000000000000e+03) (187, 1.50000000000000000000e+03) (188, 1.50000000000000000000e+03) (189, 1.50000000000000000000e+03) (190, 1.50000000000000000000e+03) (191, 1.50000000000000000000e+03) (192, 1.50000000000000000000e+03) (193, 1.50000000000000000000e+03) (194, 1.50000000000000000000e+03) (195, 1.50000000000000000000e+03) (196, 1.50000000000000000000e+03) (197, 1.50000000000000000000e+03) (198, 1.50000000000000000000e+03) (199, 1.50000000000000000000e+03) (200, 1.50000000000000000000e+03) (201, 1.50000000000000000000e+03) (202, 1.50000000000000000000e+03) (203, 1.50000000000000000000e+03) (204, 1.50000000000000000000e+03) (205, 1.50000000000000000000e+03) (206, 1.50000000000000000000e+03) (207, 1.50000000000000000000e+03) (208, 1.50000000000000000000e+03) (209, 1.50000000000000000000e+03) (210, 1.50000000000000000000e+03) (211, 1.50000000000000000000e+03) (212, 1.50000000000000000000e+03) (213, 1.50000000000000000000e+03) (214, 1.50000000000000000000e+03) (215, 1.50000000000000000000e+03) (216, 1.50000000000000000000e+03) (217, 1.50000000000000000000e+03) (218, 1.50000000000000000000e+03) (219, 1.50000000000000000000e+03) (220, 1.50000000000000000000e+03) (221, 1.50000000000000000000e+03) (222, 1.50000000000000000000e+03) (223, 1.50000000000000000000e+03) (224, 1.50000000000000000000e+03) (225, 1.50000000000000000000e+03) (226, 1.50000000000000000000e+03) (227, 1.50000000000000000000e+03) (228, 1.50000000000000000000e+03) (229, 1.50000000000000000000e+03) (230, 1.50000000000000000000e+03) (231, 1.50000000000000000000e+03) (232, 1.50000000000000000000e+03) (233, 1.50000000000000000000e+03) (234, 1.50000000000000000000e+03) (235, 1.50000000000000000000e+03) (236, 1.50000000000000000000e+03) (237, 1.50000000000000000000e+03) (238, 1.50000000000000000000e+03) (239, 1.50000000000000000000e+03) (240, -1.50000000000000000000e+03) (241, 1.50000000000000000000e+03) (242, -1.42734118652343750000e+03) (243, -1.50000000000000000000e+03) (244, -1.50000000000000000000e+03) (245, -1.50000000000000000000e+03) (246, -1.50000000000000000000e+03) (247, -1.50000000000000000000e+03) (248, -1.50000000000000000000e+03) (249, -1.50000000000000000000e+03) (250, 1.50000000000000000000e+03) (251, -1.50000000000000000000e+03) (252, 1.49830395507812500000e+03) (253, 1.49993139648437500000e+03) (254, 1.49999975585937500000e+03) (255, -1.31040979003906250000e+03) (256, -1.48133764648437500000e+03) (257, -1.50000000000000000000e+03) (258, -1.50000000000000000000e+03) (259, -1.50000000000000000000e+03) (260, -1.50000000000000000000e+03) (261, -1.50000000000000000000e+03) (262, -1.48133764648437500000e+03) (263, -1.07087292480468750000e+03) (264, 9.46098388671875000000e+02) (265, 3.49155944824218750000e+02) (266, 1.34330578613281250000e+03) (267, 1.49974157714843750000e+03) (268, 1.43778869628906250000e+03) (269, 9.59411392211914062500e+01) (270, -8.65072143554687500000e+02) (271, -1.79659393310546875000e+02) (272, 9.54056549072265625000e+01) (273, -1.88160967826843261719e+00) (274, -3.27657008171081542969e+00) (275, -1.32244934082031250000e+03) (276, 6.59441406250000000000e+02) (277, -1.03067054748535156250e+01) (278, -1.06313244628906250000e+03) (279, -4.70619781494140625000e+02) (280, 4.91342315673828125000e+02) (281, -4.35961914062500000000e+02) (282, -1.45053161621093750000e+03) (283, 1.50000000000000000000e+03) (284, 1.50000000000000000000e+03) (285, 1.50000000000000000000e+03) (286, 1.50000000000000000000e+03) (287, 1.50000000000000000000e+03) (288, 1.50000000000000000000e+03) (289, 1.50000000000000000000e+03) (290, 1.50000000000000000000e+03) (291, 1.50000000000000000000e+03) (292, 1.50000000000000000000e+03) (293, 1.50000000000000000000e+03) (294, 1.50000000000000000000e+03) (295, 1.50000000000000000000e+03) (296, 1.50000000000000000000e+03) (297, 1.50000000000000000000e+03) (298, 1.50000000000000000000e+03) (299, 1.50000000000000000000e+03) (300, 1.50000000000000000000e+03) (301, 1.50000000000000000000e+03) (302, 1.50000000000000000000e+03) (303, 1.50000000000000000000e+03) (304, 1.50000000000000000000e+03) (305, 1.50000000000000000000e+03) (306, 1.50000000000000000000e+03) (307, 1.49999975585937500000e+03) (308, -4.66883927583694458008e-01) (0, 1.49980297851562500000e+03) (1, -1.50000000000000000000e+03) (2, -1.50000000000000000000e+03) (3, -1.50000000000000000000e+03) (4, -1.50000000000000000000e+03) (5, -1.50000000000000000000e+03) (6, -1.50000000000000000000e+03) (7, -1.50000000000000000000e+03) (8, -1.50000000000000000000e+03) (9, -1.50000000000000000000e+03) (10, -1.50000000000000000000e+03) (11, -1.50000000000000000000e+03) (12, 1.50000000000000000000e+03) (13, -1.50000000000000000000e+03) (14, 1.50000000000000000000e+03) (15, 1.50000000000000000000e+03) (16, -1.46313134765625000000e+03) (17, -1.46313134765625000000e+03) (18, -1.46313134765625000000e+03) (19, -1.46313134765625000000e+03) (20, -1.42521801757812500000e+03) (21, -1.49760302734375000000e+03) (22, -1.46329138183593750000e+03) (23, -1.49405053710937500000e+03) (24, -9.43851257324218750000e+02) (25, 2.67928123474121093750e+00) (26, 6.43973571777343750000e+02) (27, -1.50000000000000000000e+03) (28, -1.49847192382812500000e+03) (29, 1.49999987792968750000e+03) (30, 1.49998498535156250000e+03) (31, 1.50000000000000000000e+03) (32, 1.50000000000000000000e+03) (33, -1.50000000000000000000e+03) (34, -1.50000000000000000000e+03) (35, -1.50000000000000000000e+03) (36, -1.50000000000000000000e+03) (37, -1.50000000000000000000e+03) (38, -1.50000000000000000000e+03) (39, -1.50000000000000000000e+03) (40, -1.50000000000000000000e+03) (41, -1.50000000000000000000e+03) (42, -1.50000000000000000000e+03) (43, -1.50000000000000000000e+03) (44, -1.50000000000000000000e+03) (45, 1.49999975585937500000e+03) (46, 1.50000000000000000000e+03) (47, 1.50000000000000000000e+03) (48, 1.50000000000000000000e+03) (49, 1.50000000000000000000e+03) (50, 1.50000000000000000000e+03) (51, 1.50000000000000000000e+03) (52, 1.50000000000000000000e+03) (53, 1.50000000000000000000e+03) (54, 1.50000000000000000000e+03) (55, 1.50000000000000000000e+03) (56, 1.50000000000000000000e+03) (57, 1.50000000000000000000e+03) (58, 1.50000000000000000000e+03) (59, 1.50000000000000000000e+03) (60, -1.50000000000000000000e+03) (61, -1.50000000000000000000e+03) (62, 1.49860473632812500000e+03) (63, 1.50000000000000000000e+03) (64, -1.49512963867187500000e+03) (65, -1.36523205566406250000e+03) (66, 2.89206445217132568359e-01) (67, 5.06590789794921875000e+02) (68, 1.12882301330566406250e+02) (69, -1.40448205566406250000e+03) (70, -1.49925109863281250000e+03) (71, 1.49984155273437500000e+03) (72, -1.46313134765625000000e+03) (73, -1.50000000000000000000e+03) (74, -1.48133764648437500000e+03) (75, 1.50000000000000000000e+03) (76, 1.50000000000000000000e+03) (77, 1.50000000000000000000e+03) (78, 1.50000000000000000000e+03) (79, 1.50000000000000000000e+03) (80, 1.50000000000000000000e+03) (81, 1.50000000000000000000e+03) (82, 1.50000000000000000000e+03) (83, 1.50000000000000000000e+03) (84, 1.50000000000000000000e+03) (85, 1.50000000000000000000e+03) (86, 1.50000000000000000000e+03) (87, 1.50000000000000000000e+03) (88, 1.50000000000000000000e+03) (89, 1.50000000000000000000e+03) (90, 1.50000000000000000000e+03) (91, 1.50000000000000000000e+03) (92, 1.50000000000000000000e+03) (93, 1.50000000000000000000e+03) (94, 1.50000000000000000000e+03) (95, 1.50000000000000000000e+03) (96, 1.50000000000000000000e+03) (97, 1.50000000000000000000e+03) (98, 1.50000000000000000000e+03) (99, 1.50000000000000000000e+03) (100, 1.50000000000000000000e+03) (101, 1.50000000000000000000e+03) (102, 1.50000000000000000000e+03) (103, 1.50000000000000000000e+03) (104, 1.50000000000000000000e+03) (105, 1.49999975585937500000e+03) (106, -1.12132275390625000000e+03) (107, 3.18187408447265625000e+02) (108, 5.92231811523437500000e+02) (109, 1.65968078613281250000e+02) (110, 1.49956848144531250000e+03) (111, 1.41331982421875000000e+03) (112, -1.49599157714843750000e+03) (113, -1.29289294433593750000e+03) (114, 1.50000000000000000000e+03) (115, 1.50000000000000000000e+03) (116, 1.50000000000000000000e+03) (117, 1.50000000000000000000e+03) (118, 1.50000000000000000000e+03) (119, -1.50000000000000000000e+03) (120, 1.50000000000000000000e+03) (121, 1.50000000000000000000e+03) (122, 1.50000000000000000000e+03) (123, 1.50000000000000000000e+03) (124, 1.50000000000000000000e+03) (125, 1.50000000000000000000e+03) (126, 1.50000000000000000000e+03) (127, 1.50000000000000000000e+03) (128, 1.50000000000000000000e+03) (129, 1.50000000000000000000e+03) (130, 1.50000000000000000000e+03) (131, 1.50000000000000000000e+03) (132, 1.50000000000000000000e+03) (133, 1.50000000000000000000e+03) (134, 1.50000000000000000000e+03) (135, 1.50000000000000000000e+03) (136, 1.50000000000000000000e+03) (137, 1.50000000000000000000e+03) (138, 1.50000000000000000000e+03) (139, 1.50000000000000000000e+03) (140, 1.50000000000000000000e+03) (141, 1.50000000000000000000e+03) (142, 1.50000000000000000000e+03) (143, 1.50000000000000000000e+03) (144, 1.50000000000000000000e+03) (145, 1.50000000000000000000e+03) (146, 1.50000000000000000000e+03) (147, 1.50000000000000000000e+03) (148, 1.50000000000000000000e+03) (149, 1.50000000000000000000e+03) (150, 1.50000000000000000000e+03) (151, 1.50000000000000000000e+03) (152, 1.50000000000000000000e+03) (153, 1.50000000000000000000e+03) (154, 1.50000000000000000000e+03) (155, 1.50000000000000000000e+03) (156, 1.50000000000000000000e+03) (157, 1.50000000000000000000e+03) (158, 1.50000000000000000000e+03) (159, 1.50000000000000000000e+03) (160, 1.50000000000000000000e+03) (161, 1.50000000000000000000e+03) (162, 1.50000000000000000000e+03) (163, 1.50000000000000000000e+03) (164, 1.50000000000000000000e+03) (165, 1.50000000000000000000e+03) (166, 1.50000000000000000000e+03) (167, 1.50000000000000000000e+03) (168, 1.50000000000000000000e+03) (169, 1.50000000000000000000e+03) (170, 1.50000000000000000000e+03) (171, 1.50000000000000000000e+03) (172, 1.50000000000000000000e+03) (173, 1.50000000000000000000e+03) (174, 1.50000000000000000000e+03) (175, 1.50000000000000000000e+03) (176, 1.50000000000000000000e+03) (177, 1.50000000000000000000e+03) (178, 1.50000000000000000000e+03) (179, 1.50000000000000000000e+03) (180, 1.50000000000000000000e+03) (181, 1.50000000000000000000e+03) (182, 1.50000000000000000000e+03) (183, 1.50000000000000000000e+03) (184, 1.50000000000000000000e+03) (185, 1.50000000000000000000e+03) (186, 1.50000000000000000000e+03) (187, 1.50000000000000000000e+03) (188, 1.50000000000000000000e+03) (189, 1.50000000000000000000e+03) (190, 1.50000000000000000000e+03) (191, 1.50000000000000000000e+03) (192, 1.50000000000000000000e+03) (193, 1.50000000000000000000e+03) (194, 1.50000000000000000000e+03) (195, 1.50000000000000000000e+03) (196, 1.50000000000000000000e+03) (197, 1.50000000000000000000e+03) (198, 1.50000000000000000000e+03) (199, 1.50000000000000000000e+03) (200, 1.50000000000000000000e+03) (201, 1.50000000000000000000e+03) (202, 1.50000000000000000000e+03) (203, 1.50000000000000000000e+03) (204, 1.50000000000000000000e+03) (205, 1.50000000000000000000e+03) (206, 1.50000000000000000000e+03) (207, 1.50000000000000000000e+03) (208, 1.50000000000000000000e+03) (209, 1.50000000000000000000e+03) (210, 1.50000000000000000000e+03) (211, 1.50000000000000000000e+03) (212, 1.50000000000000000000e+03) (213, 1.50000000000000000000e+03) (214, 1.50000000000000000000e+03) (215, 1.50000000000000000000e+03) (216, 1.50000000000000000000e+03) (217, 1.50000000000000000000e+03) (218, 1.50000000000000000000e+03) (219, 1.50000000000000000000e+03) (220, 1.50000000000000000000e+03) (221, 1.50000000000000000000e+03) (222, 1.50000000000000000000e+03) (223, 1.50000000000000000000e+03) (224, 1.50000000000000000000e+03) (225, 1.50000000000000000000e+03) (226, 1.50000000000000000000e+03) (227, 1.50000000000000000000e+03) (228, 1.50000000000000000000e+03) (229, 1.50000000000000000000e+03) (230, 1.50000000000000000000e+03) (231, 1.50000000000000000000e+03) (232, 1.50000000000000000000e+03) (233, 1.50000000000000000000e+03) (234, 1.50000000000000000000e+03) (235, 1.50000000000000000000e+03) (236, 1.50000000000000000000e+03) (237, 1.50000000000000000000e+03) (238, 1.50000000000000000000e+03) (239, 1.50000000000000000000e+03) (240, -1.50000000000000000000e+03) (241, 1.50000000000000000000e+03) (242, -1.42735058593750000000e+03) (243, -1.50000000000000000000e+03) (244, -1.50000000000000000000e+03) (245, -1.50000000000000000000e+03) (246, -1.50000000000000000000e+03) (247, -1.50000000000000000000e+03) (248, -1.50000000000000000000e+03) (249, -1.50000000000000000000e+03) (250, 1.50000000000000000000e+03) (251, -1.50000000000000000000e+03) (252, 1.49830334472656250000e+03) (253, 1.49992199707031250000e+03) (254, 1.49999975585937500000e+03) (255, -1.45979064941406250000e+03) (256, -1.48133764648437500000e+03) (257, -1.50000000000000000000e+03) (258, -1.50000000000000000000e+03) (259, -1.50000000000000000000e+03) (260, -1.50000000000000000000e+03) (261, -1.50000000000000000000e+03) (262, -1.48133764648437500000e+03) (263, -1.49318945312500000000e+03) (264, -8.83862182617187500000e+02) (265, -1.33592666625976562500e+02) (266, -1.48344055175781250000e+03) (267, -1.46016882324218750000e+03) (268, -1.49856994628906250000e+03) (269, -1.00675909423828125000e+03) (270, -9.61177795410156250000e+02) (271, -1.36902557373046875000e+02) (272, -2.22145141601562500000e+02) (273, -1.32778429985046386719e+00) (274, -2.49160289764404296875e+00) (275, -1.23006726074218750000e+03) (276, -1.37769848632812500000e+03) (277, -5.08298635482788085938e+00) (278, 1.49956652832031250000e+03) (279, 1.49720239257812500000e+03) (280, -6.25877502441406250000e+02) (281, -1.44916027832031250000e+03) (282, -1.45053161621093750000e+03) (283, 1.50000000000000000000e+03) (284, 1.50000000000000000000e+03) (285, 1.50000000000000000000e+03) (286, 1.50000000000000000000e+03) (287, 1.50000000000000000000e+03) (288, 1.50000000000000000000e+03) (289, 1.50000000000000000000e+03) (290, 1.50000000000000000000e+03) (291, 1.50000000000000000000e+03) (292, 1.50000000000000000000e+03) (293, 1.50000000000000000000e+03) (294, 1.50000000000000000000e+03) (295, 1.50000000000000000000e+03) (296, 1.50000000000000000000e+03) (297, 1.50000000000000000000e+03) (298, 1.50000000000000000000e+03) (299, 1.50000000000000000000e+03) (300, 1.50000000000000000000e+03) (301, 1.50000000000000000000e+03) (302, 1.50000000000000000000e+03) (303, 1.50000000000000000000e+03) (304, 1.50000000000000000000e+03) (305, 1.50000000000000000000e+03) (306, 1.50000000000000000000e+03) (307, 1.49999975585937500000e+03) (308, -3.80272954702377319336e-01) (0, 1.49980346679687500000e+03) (1, -1.50000000000000000000e+03) (2, -1.50000000000000000000e+03) (3, -1.50000000000000000000e+03) (4, -1.50000000000000000000e+03) (5, -1.50000000000000000000e+03) (6, -1.50000000000000000000e+03) (7, -1.50000000000000000000e+03) (8, -1.50000000000000000000e+03) (9, -1.50000000000000000000e+03) (10, -1.50000000000000000000e+03) (11, -1.50000000000000000000e+03) (12, 1.50000000000000000000e+03) (13, -1.50000000000000000000e+03) (14, 1.50000000000000000000e+03) (15, 1.50000000000000000000e+03) (16, -1.46313134765625000000e+03) (17, -1.46313134765625000000e+03) (18, -1.46313134765625000000e+03) (19, -1.46313134765625000000e+03) (20, -1.42521801757812500000e+03) (21, -1.49760302734375000000e+03) (22, 1.49947656250000000000e+03) (23, 1.49977282714843750000e+03) (24, 1.49999975585937500000e+03) (25, 2.42464256286621093750e+00) (26, -4.37787780761718750000e+02) (27, -1.50000000000000000000e+03) (28, -1.49847167968750000000e+03) (29, 1.49999987792968750000e+03) (30, 1.49998498535156250000e+03) (31, 1.50000000000000000000e+03) (32, 1.50000000000000000000e+03) (33, -1.50000000000000000000e+03) (34, -1.50000000000000000000e+03) (35, -1.50000000000000000000e+03) (36, -1.50000000000000000000e+03) (37, -1.50000000000000000000e+03) (38, -1.50000000000000000000e+03) (39, -1.50000000000000000000e+03) (40, -1.50000000000000000000e+03) (41, -1.50000000000000000000e+03) (42, -1.50000000000000000000e+03) (43, -1.50000000000000000000e+03) (44, -1.50000000000000000000e+03) (45, 1.49999975585937500000e+03) (46, 1.50000000000000000000e+03) (47, 1.50000000000000000000e+03) (48, 1.50000000000000000000e+03) (49, 1.50000000000000000000e+03) (50, 1.50000000000000000000e+03) (51, 1.50000000000000000000e+03) (52, 1.50000000000000000000e+03) (53, 1.50000000000000000000e+03) (54, 1.50000000000000000000e+03) (55, 1.50000000000000000000e+03) (56, 1.50000000000000000000e+03) (57, 1.50000000000000000000e+03) (58, 1.50000000000000000000e+03) (59, 1.50000000000000000000e+03) (60, -1.50000000000000000000e+03) (61, -1.50000000000000000000e+03) (62, 1.49860473632812500000e+03) (63, 1.50000000000000000000e+03) (64, -7.41928344726562500000e+02) (65, 1.49990124511718750000e+03) (66, 5.13397073745727539062e+00) (67, -3.16987701416015625000e+02) (68, 1.41641455078125000000e+03) (69, 1.49999975585937500000e+03) (70, -1.34622924804687500000e+03) (71, 1.49984155273437500000e+03) (72, -1.46313134765625000000e+03) (73, -1.50000000000000000000e+03) (74, -1.48133764648437500000e+03) (75, 1.50000000000000000000e+03) (76, 1.50000000000000000000e+03) (77, 1.50000000000000000000e+03) (78, 1.50000000000000000000e+03) (79, 1.50000000000000000000e+03) (80, 1.50000000000000000000e+03) (81, 1.50000000000000000000e+03) (82, 1.50000000000000000000e+03) (83, 1.50000000000000000000e+03) (84, 1.50000000000000000000e+03) (85, 1.50000000000000000000e+03) (86, 1.50000000000000000000e+03) (87, 1.50000000000000000000e+03) (88, 1.50000000000000000000e+03) (89, 1.50000000000000000000e+03) (90, 1.50000000000000000000e+03) (91, 1.50000000000000000000e+03) (92, 1.50000000000000000000e+03) (93, 1.50000000000000000000e+03) (94, 1.50000000000000000000e+03) (95, 1.50000000000000000000e+03) (96, 1.50000000000000000000e+03) (97, 1.50000000000000000000e+03) (98, 1.50000000000000000000e+03) (99, 1.50000000000000000000e+03) (100, 1.50000000000000000000e+03) (101, 1.50000000000000000000e+03) (102, 1.50000000000000000000e+03) (103, 1.50000000000000000000e+03) (104, 1.50000000000000000000e+03) (105, 1.49999975585937500000e+03) (106, 1.49953344726562500000e+03) (107, -3.14409942626953125000e+01) (108, -2.01279724121093750000e+02) (109, 2.03042877197265625000e+02) (110, -1.48161181640625000000e+03) (111, -1.49631005859375000000e+03) (112, -1.49599157714843750000e+03) (113, -1.29289294433593750000e+03) (114, 1.50000000000000000000e+03) (115, 1.50000000000000000000e+03) (116, 1.50000000000000000000e+03) (117, 1.50000000000000000000e+03) (118, 1.50000000000000000000e+03) (119, -1.50000000000000000000e+03) (120, 1.50000000000000000000e+03) (121, 1.50000000000000000000e+03) (122, 1.50000000000000000000e+03) (123, 1.50000000000000000000e+03) (124, 1.50000000000000000000e+03) (125, 1.50000000000000000000e+03) (126, 1.50000000000000000000e+03) (127, 1.50000000000000000000e+03) (128, 1.50000000000000000000e+03) (129, 1.50000000000000000000e+03) (130, 1.50000000000000000000e+03) (131, 1.50000000000000000000e+03) (132, 1.50000000000000000000e+03) (133, 1.50000000000000000000e+03) (134, 1.50000000000000000000e+03) (135, 1.50000000000000000000e+03) (136, 1.50000000000000000000e+03) (137, 1.50000000000000000000e+03) (138, 1.50000000000000000000e+03) (139, 1.50000000000000000000e+03) (140, 1.50000000000000000000e+03) (141, 1.50000000000000000000e+03) (142, 1.50000000000000000000e+03) (143, 1.50000000000000000000e+03) (144, 1.50000000000000000000e+03) (145, 1.50000000000000000000e+03) (146, 1.50000000000000000000e+03) (147, 1.50000000000000000000e+03) (148, 1.50000000000000000000e+03) (149, 1.50000000000000000000e+03) (150, 1.50000000000000000000e+03) (151, 1.50000000000000000000e+03) (152, 1.50000000000000000000e+03) (153, 1.50000000000000000000e+03) (154, 1.50000000000000000000e+03) (155, 1.50000000000000000000e+03) (156, 1.50000000000000000000e+03) (157, 1.50000000000000000000e+03) (158, 1.50000000000000000000e+03) (159, 1.50000000000000000000e+03) (160, 1.50000000000000000000e+03) (161, 1.50000000000000000000e+03) (162, 1.50000000000000000000e+03) (163, 1.50000000000000000000e+03) (164, 1.50000000000000000000e+03) (165, 1.50000000000000000000e+03) (166, 1.50000000000000000000e+03) (167, 1.50000000000000000000e+03) (168, 1.50000000000000000000e+03) (169, 1.50000000000000000000e+03) (170, 1.50000000000000000000e+03) (171, 1.50000000000000000000e+03) (172, 1.50000000000000000000e+03) (173, 1.50000000000000000000e+03) (174, 1.50000000000000000000e+03) (175, 1.50000000000000000000e+03) (176, 1.50000000000000000000e+03) (177, 1.50000000000000000000e+03) (178, 1.50000000000000000000e+03) (179, 1.50000000000000000000e+03) (180, 1.50000000000000000000e+03) (181, 1.50000000000000000000e+03) (182, 1.50000000000000000000e+03) (183, 1.50000000000000000000e+03) (184, 1.50000000000000000000e+03) (185, 1.50000000000000000000e+03) (186, 1.50000000000000000000e+03) (187, 1.50000000000000000000e+03) (188, 1.50000000000000000000e+03) (189, 1.50000000000000000000e+03) (190, 1.50000000000000000000e+03) (191, 1.50000000000000000000e+03) (192, 1.50000000000000000000e+03) (193, 1.50000000000000000000e+03) (194, 1.50000000000000000000e+03) (195, 1.50000000000000000000e+03) (196, 1.50000000000000000000e+03) (197, 1.50000000000000000000e+03) (198, 1.50000000000000000000e+03) (199, 1.50000000000000000000e+03) (200, 1.50000000000000000000e+03) (201, 1.50000000000000000000e+03) (202, 1.50000000000000000000e+03) (203, 1.50000000000000000000e+03) (204, 1.50000000000000000000e+03) (205, 1.50000000000000000000e+03) (206, 1.50000000000000000000e+03) (207, 1.50000000000000000000e+03) (208, 1.50000000000000000000e+03) (209, 1.50000000000000000000e+03) (210, 1.50000000000000000000e+03) (211, 1.50000000000000000000e+03) (212, 1.50000000000000000000e+03) (213, 1.50000000000000000000e+03) (214, 1.50000000000000000000e+03) (215, 1.50000000000000000000e+03) (216, 1.50000000000000000000e+03) (217, 1.50000000000000000000e+03) (218, 1.50000000000000000000e+03) (219, 1.50000000000000000000e+03) (220, 1.50000000000000000000e+03) (221, 1.50000000000000000000e+03) (222, 1.50000000000000000000e+03) (223, 1.50000000000000000000e+03) (224, 1.50000000000000000000e+03) (225, 1.50000000000000000000e+03) (226, 1.50000000000000000000e+03) (227, 1.50000000000000000000e+03) (228, 1.50000000000000000000e+03) (229, 1.50000000000000000000e+03) (230, 1.50000000000000000000e+03) (231, 1.50000000000000000000e+03) (232, 1.50000000000000000000e+03) (233, 1.50000000000000000000e+03) (234, 1.50000000000000000000e+03) (235, 1.50000000000000000000e+03) (236, 1.50000000000000000000e+03) (237, 1.50000000000000000000e+03) (238, 1.50000000000000000000e+03) (239, 1.50000000000000000000e+03) (240, -1.50000000000000000000e+03) (241, 1.50000000000000000000e+03) (242, -1.42735058593750000000e+03) (243, -1.50000000000000000000e+03) (244, -1.50000000000000000000e+03) (245, -1.50000000000000000000e+03) (246, -1.50000000000000000000e+03) (247, -1.50000000000000000000e+03) (248, -1.50000000000000000000e+03) (249, -1.50000000000000000000e+03) (250, 1.50000000000000000000e+03) (251, -1.50000000000000000000e+03) (252, 1.49825268554687500000e+03) (253, 1.49992199707031250000e+03) (254, 1.49999975585937500000e+03) (255, -1.45979064941406250000e+03) (256, -1.48133764648437500000e+03) (257, -1.50000000000000000000e+03) (258, -1.50000000000000000000e+03) (259, -1.50000000000000000000e+03) (260, -1.50000000000000000000e+03) (261, -1.50000000000000000000e+03) (262, -1.48133764648437500000e+03) (263, -1.49318994140625000000e+03) (264, -1.20013891601562500000e+03) (265, -1.49368606567382812500e+02) (266, 1.34125854492187500000e+03) (267, 1.49974340820312500000e+03) (268, 1.45626037597656250000e+03) (269, 1.14209936523437500000e+03) (270, -1.20158337402343750000e+03) (271, -2.01468170166015625000e+02) (272, 9.46274108886718750000e+01) (273, 2.50421690940856933594e+00) (274, 5.23755502700805664062e+00) (275, 1.27003686523437500000e+03) (276, 1.46531445312500000000e+03) (277, 9.16161251068115234375e+00) (278, -9.00005249023437500000e+02) (279, -1.43683825683593750000e+03) (280, -1.46086572265625000000e+03) (281, -1.44886352539062500000e+03) (282, -1.45053161621093750000e+03) (283, 1.50000000000000000000e+03) (284, 1.50000000000000000000e+03) (285, 1.50000000000000000000e+03) (286, 1.50000000000000000000e+03) (287, 1.50000000000000000000e+03) (288, 1.50000000000000000000e+03) (289, 1.50000000000000000000e+03) (290, 1.50000000000000000000e+03) (291, 1.50000000000000000000e+03) (292, 1.50000000000000000000e+03) (293, 1.50000000000000000000e+03) (294, 1.50000000000000000000e+03) (295, 1.50000000000000000000e+03) (296, 1.50000000000000000000e+03) (297, 1.50000000000000000000e+03) (298, 1.50000000000000000000e+03) (299, 1.50000000000000000000e+03) (300, 1.50000000000000000000e+03) (301, 1.50000000000000000000e+03) (302, 1.50000000000000000000e+03) (303, 1.50000000000000000000e+03) (304, 1.50000000000000000000e+03) (305, 1.50000000000000000000e+03) (306, 1.50000000000000000000e+03) (307, 1.49999975585937500000e+03) (308, 2.44430160522460937500e+00) (309, -5.31342387199401855469e-01) (310, -1.05148432776331901550e-02) (311, 4.39529478549957275391e-01) (312, 1.30272376537322998047e+00) (313, 8.52176129817962646484e-01) (314, 1.50999748706817626953e+00) (315, 1.59801697731018066406e+00) (316, 8.27419757843017578125e-01) (317, 2.20734691619873046875e+00) (309, 2.81381058692932128906e+00) (310, 2.37014412879943847656e+00) (311, 2.34398674964904785156e+00) (312, 3.70238828659057617188e+00) (313, 3.27099061012268066406e+00) (314, 3.11997818946838378906e+00) (315, 3.48069906234741210938e+00) (316, 2.38737201690673828125e+00) (317, 7.99454152584075927734e-01) (309, 2.49143719673156738281e+00) (310, 4.06002187728881835938e+00) (311, 4.71359223127365112305e-01) (312, 1.07892000675201416016e+00) (313, 1.05819475650787353516e+00) (314, 1.41838216781616210938e+00) (315, 1.63569545745849609375e+00) (316, 7.56106734275817871094e-01) (317, 2.51148223876953125000e+00) (309, 9.86037313938140869141e-01) (310, 1.79783284664154052734e+00) (311, 1.54495346546173095703e+00) (312, 6.47771477699279785156e-01) (313, 1.95255875587463378906e+00) (314, 8.16572070121765136719e-01) (315, 1.13979840278625488281e+00) (316, 1.05122673511505126953e+00) (317, 3.40378999710083007812e+00) (309, 1.10459542274475097656e+00) (310, 1.88702559471130371094e+00) (311, 1.46970772743225097656e+00) (312, 5.44877588748931884766e-01) (313, 2.05722951889038085938e+00) (314, 8.25519323348999023438e-01) (315, 1.14724242687225341797e+00) (316, 1.18175494670867919922e+00) (317, 3.37242054939270019531e+00) (309, 8.90771210193634033203e-01) (310, 1.65968871116638183594e+00) (311, 8.17319333553314208984e-01) (312, 9.12091612815856933594e-01) (313, 1.40556049346923828125e+00) (314, 1.19959819316864013672e+00) (315, 1.35451269149780273438e+00) (316, 1.42749571800231933594e+00) (317, 2.59828615188598632812e+00) (309, 2.97229003906250000000e+00) (310, 2.31281352043151855469e+00) (311, 2.38794040679931640625e+00) (312, 3.66402268409729003906e+00) (313, 3.40930771827697753906e+00) (314, 3.24660181999206542969e+00) (315, 3.46339726448059082031e+00) (316, 2.29645299911499023438e+00) (317, 7.33832418918609619141e-01) (309, 2.80062055587768554688e+00) (310, 2.35088491439819335938e+00) (311, 2.39297842979431152344e+00) (312, 3.68679380416870117188e+00) (313, 3.36515140533447265625e+00) (314, 3.14133024215698242188e+00) (315, 3.41083478927612304688e+00) (316, 2.34923458099365234375e+00) (317, 7.33244359493255615234e-01) (318, 3.68399620056152343750e+00) (319, -1.35483431816101074219e+00) (320, 1.01068043708801269531e+00) (321, 1.80174112319946289062e+00) (322, 1.92334449291229248047e+00) (323, 9.40029144287109375000e-01) (324, -1.23250234127044677734e+00) (325, -8.01572203636169433594e-01) (326, 3.42435288429260253906e+00) 
