FANN_FLO_2.1
num_layers=4
learning_rate=0.700000
connection_rate=1.000000
network_type=0
learning_momentum=0.000000
training_algorithm=2
train_error_function=1
train_stop_function=0
cascade_output_change_fraction=0.010000
quickprop_decay=-0.000100
quickprop_mu=1.750000
rprop_increase_factor=1.200000
rprop_decrease_factor=0.500000
rprop_delta_min=0.000000
rprop_delta_max=50.000000
rprop_delta_zero=0.100000
cascade_output_stagnation_epochs=12
cascade_candidate_change_fraction=0.010000
cascade_candidate_stagnation_epochs=12
cascade_max_out_epochs=150
cascade_min_out_epochs=50
cascade_max_cand_epochs=150
cascade_min_cand_epochs=50
cascade_num_candidate_groups=2
bit_fail_limit=3.49999994039535522461e-01
cascade_candidate_limit=1.00000000000000000000e+03
cascade_weight_multiplier=4.00000005960464477539e-01
cascade_activation_functions_count=10
cascade_activation_functions=3 5 7 8 10 11 14 15 16 17 
cascade_activation_steepnesses_count=4
cascade_activation_steepnesses=2.50000000000000000000e-01 5.00000000000000000000e-01 7.50000000000000000000e-01 1.00000000000000000000e+00 
layer_sizes=2 9 9 2 
scale_included=0
neurons (num_inputs, activation_function, activation_steepness)=(0, 0, 0.00000000000000000000e+00) (0, 0, 0.00000000000000000000e+00) (2, 5, 5.00000000000000000000e-01) (2, 5, 5.00000000000000000000e-01) (2, 5, 5.00000000000000000000e-01) (2, 5, 5.00000000000000000000e-01) (2, 5, 5.00000000000000000000e-01) (2, 5, 5.00000000000000000000e-01) (2, 5, 5.00000000000000000000e-01) (2, 5, 5.00000000000000000000e-01) (0, 5, 0.00000000000000000000e+00) (9, 0, 5.00000000000000000000e-01) (9, 0, 5.00000000000000000000e-01) (9, 0, 5.00000000000000000000e-01) (9, 0, 5.00000000000000000000e-01) (9, 0, 5.00000000000000000000e-01) (9, 0, 5.00000000000000000000e-01) (9, 0, 5.00000000000000000000e-01) (9, 0, 5.00000000000000000000e-01) (0, 0, 0.00000000000000000000e+00) (9, 0, 5.00000000000000000000e-01) (0, 0, 0.00000000000000000000e+00) 
connections (connected_to_neuron, weight)=(0, -3.52932989597320556641e-01) (1, -5.73894023895263671875e-01) (0, 5.01670777797698974609e-01) (1, 4.19765114784240722656e-01) (0, -3.05083364248275756836e-01) (1, -2.74203065782785415649e-02) (0, 2.30476289987564086914e-01) (1, 2.37593263387680053711e-01) (0, 8.60860049724578857422e-01) (1, -3.17086172103881835938e+00) (0, -3.50212514400482177734e-01) (1, -5.43944001197814941406e-01) (0, 6.82146906852722167969e-01) (1, -1.75772190093994140625e+00) (0, 4.52291697263717651367e-01) (1, 4.33697819709777832031e-01) (2, 2.78341919183731079102e-01) (3, -3.88491868972778320312e-01) (4, -3.64790633320808410645e-02) (5, 9.45913791656494140625e-01) (6, 1.19800187647342681885e-01) (7, 1.97253033518791198730e-01) (8, 9.50831472873687744141e-02) (9, -3.73027086257934570312e-01) (10, 2.93173104524612426758e-01) (2, -8.91570091247558593750e-01) (3, 4.16827082633972167969e-01) (4, -1.59949690103530883789e-01) (5, 4.13919299840927124023e-01) (6, 1.74973666667938232422e+00) (7, -8.15878033638000488281e-01) (8, 1.63535654544830322266e+00) (9, 4.08037483692169189453e-01) (10, 1.44659578800201416016e+00) (2, -3.44769537448883056641e-01) (3, 8.31166267395019531250e-01) (4, 4.89537380635738372803e-02) (5, 2.90708005428314208984e-01) (6, 7.44301974773406982422e-01) (7, -4.02518332004547119141e-01) (8, 8.27393710613250732422e-01) (9, 9.05646204948425292969e-01) (10, 6.59139692783355712891e-01) (2, 8.50326120853424072266e-02) (3, 2.58909344673156738281e-01) (4, -6.91311538219451904297e-01) (5, 8.19027543067932128906e-01) (6, 4.11501288414001464844e-01) (7, 4.03871946036815643311e-02) (8, 3.71955990791320800781e-01) (9, 2.05867841839790344238e-01) (10, 3.33988356590270996094e+00) (2, 1.73969233036041259766e+00) (3, -2.86953914910554885864e-02) (4, 6.74070358276367187500e-01) (5, -1.52234509587287902832e-02) (6, -7.91785657405853271484e-01) (7, 1.70732736587524414062e+00) (8, -7.26387202739715576172e-01) (9, 6.80525600910186767578e-02) (10, -6.61176502704620361328e-01) (2, 1.65446221828460693359e+00) (3, 2.12432425469160079956e-02) (4, 7.01372623443603515625e-01) (5, 6.36568516492843627930e-02) (6, -7.36884295940399169922e-01) (7, 1.62606394290924072266e+00) (8, -6.66602313518524169922e-01) (9, 3.74266714788973331451e-03) (10, -6.15356504917144775391e-01) (2, 3.36565166711807250977e-01) (3, -3.60621631145477294922e-01) (4, -8.02698582410812377930e-02) (5, 9.93914842605590820312e-01) (6, 1.60425141453742980957e-01) (7, 2.56921410560607910156e-01) (8, 1.66030168533325195312e-01) (9, -2.97364771366119384766e-01) (10, -2.25063577294349670410e-01) (2, -2.59734362363815307617e-01) (3, 8.24840068817138671875e-01) (4, 3.59583757817745208740e-02) (5, 3.08781087398529052734e-01) (6, 8.89543354511260986328e-01) (7, -3.20147037506103515625e-01) (8, 7.18871414661407470703e-01) (9, 8.40032100677490234375e-01) (10, 6.06462895870208740234e-01) (11, -1.10896147787570953369e-01) (12, 1.81128215789794921875e+00) (13, 6.46302938461303710938e-01) (14, 7.34992027282714843750e-02) (15, -9.29826378822326660156e-01) (16, -8.73973011970520019531e-01) (17, -8.24523493647575378418e-02) (18, 6.56699299812316894531e-01) (19, 1.44069254398345947266e+00) 
