FANN_FLO_2.1
num_layers=4
learning_rate=0.700000
connection_rate=1.000000
network_type=0
learning_momentum=0.000000
training_algorithm=2
train_error_function=1
train_stop_function=0
cascade_output_change_fraction=0.010000
quickprop_decay=-0.000100
quickprop_mu=1.750000
rprop_increase_factor=1.200000
rprop_decrease_factor=0.500000
rprop_delta_min=0.000000
rprop_delta_max=50.000000
rprop_delta_zero=0.100000
cascade_output_stagnation_epochs=12
cascade_candidate_change_fraction=0.010000
cascade_candidate_stagnation_epochs=12
cascade_max_out_epochs=150
cascade_min_out_epochs=50
cascade_max_cand_epochs=150
cascade_min_cand_epochs=50
cascade_num_candidate_groups=2
bit_fail_limit=3.49999994039535522461e-01
cascade_candidate_limit=1.00000000000000000000e+03
cascade_weight_multiplier=4.00000005960464477539e-01
cascade_activation_functions_count=10
cascade_activation_functions=3 5 7 8 10 11 14 15 16 17 
cascade_activation_steepnesses_count=4
cascade_activation_steepnesses=2.50000000000000000000e-01 5.00000000000000000000e-01 7.50000000000000000000e-01 1.00000000000000000000e+00 
layer_sizes=2 9 9 2 
scale_included=0
neurons (num_inputs, activation_function, activation_steepness)=(0, 0, 0.00000000000000000000e+00) (0, 0, 0.00000000000000000000e+00) (2, 5, 5.00000000000000000000e-01) (2, 5, 5.00000000000000000000e-01) (2, 5, 5.00000000000000000000e-01) (2, 5, 5.00000000000000000000e-01) (2, 5, 5.00000000000000000000e-01) (2, 5, 5.00000000000000000000e-01) (2, 5, 5.00000000000000000000e-01) (2, 5, 5.00000000000000000000e-01) (0, 5, 0.00000000000000000000e+00) (9, 0, 5.00000000000000000000e-01) (9, 0, 5.00000000000000000000e-01) (9, 0, 5.00000000000000000000e-01) (9, 0, 5.00000000000000000000e-01) (9, 0, 5.00000000000000000000e-01) (9, 0, 5.00000000000000000000e-01) (9, 0, 5.00000000000000000000e-01) (9, 0, 5.00000000000000000000e-01) (0, 0, 0.00000000000000000000e+00) (9, 0, 5.00000000000000000000e-01) (0, 0, 0.00000000000000000000e+00) 
connections (connected_to_neuron, weight)=(0, -3.32885712385177612305e-01) (1, 1.28675830364227294922e+00) (0, 1.95079818367958068848e-01) (1, 7.86396712064743041992e-02) (0, 1.07307933270931243896e-01) (1, 3.39405596256256103516e-01) (0, 1.97776451706886291504e-01) (1, 6.52134567499160766602e-02) (0, 1.41727179288864135742e-01) (1, 7.73539602756500244141e-01) (0, 8.94991904497146606445e-02) (1, 3.46895873546600341797e-01) (0, 2.18491896986961364746e-01) (1, -1.20502151548862457275e-01) (0, -4.02236312627792358398e-01) (1, 1.35091769695281982422e+00) (2, -1.02308857440948486328e+00) (3, 6.74679577350616455078e-01) (4, 2.65624940395355224609e-01) (5, 3.63358527421951293945e-01) (6, 1.55436682701110839844e+00) (7, 2.50999212265014648438e-01) (8, 4.04812633991241455078e-01) (9, -1.20340406894683837891e+00) (10, 1.29998171329498291016e+00) (2, -5.78768067061901092529e-02) (3, 6.87876880168914794922e-01) (4, -3.42898517847061157227e-01) (5, 9.71309766173362731934e-02) (6, 5.01499295234680175781e-01) (7, -4.85511928796768188477e-01) (8, 1.79282438755035400391e+00) (9, -2.39470899105072021484e-01) (10, 2.99704641103744506836e-01) (2, -4.85292464494705200195e-01) (3, 1.38944816589355468750e+00) (4, 8.66752117872238159180e-02) (5, 2.46282905340194702148e-01) (6, 7.70444631576538085938e-01) (7, 6.51975199580192565918e-02) (8, 9.45663928985595703125e-01) (9, -4.94145750999450683594e-01) (10, 6.37729704380035400391e-01) (2, -1.03989577293395996094e+00) (3, 7.58059024810791015625e-01) (4, 2.54801869392395019531e-01) (5, 5.16056239604949951172e-01) (6, 1.45252811908721923828e+00) (7, 3.31282824277877807617e-01) (8, 3.56178611516952514648e-01) (9, -1.29435670375823974609e+00) (10, 1.26794457435607910156e+00) (2, 2.09797191619873046875e+00) (3, -1.12345062196254730225e-01) (4, 2.10215002298355102539e-01) (5, 6.93310648202896118164e-02) (6, -6.95689737796783447266e-01) (7, 2.14319661259651184082e-01) (8, 1.18492254987359046936e-02) (9, 2.38774466514587402344e+00) (10, -4.84358489513397216797e-01) (2, 2.02517628669738769531e+00) (3, -1.86974436044692993164e-01) (4, 2.16710373759269714355e-01) (5, 4.97140325605869293213e-02) (6, -6.54855430126190185547e-01) (7, 2.81816303730010986328e-01) (8, -3.49677056074142456055e-02) (9, 2.33293437957763671875e+00) (10, -5.15479505062103271484e-01) (2, -1.37284696102142333984e-01) (3, 2.63808578252792358398e-01) (4, 8.83328437805175781250e-01) (5, 1.49862444400787353516e+00) (6, 6.23496234416961669922e-01) (7, 8.43191504478454589844e-01) (8, 1.54166251420974731445e-01) (9, -2.53203272819519042969e-01) (10, 5.41623711585998535156e-01) (2, -1.07222282886505126953e+00) (3, 6.10322713851928710938e-01) (4, 2.12184220552444458008e-01) (5, 5.22190988063812255859e-01) (6, 1.56819033622741699219e+00) (7, 1.87300398945808410645e-01) (8, 3.30909758806228637695e-01) (9, -1.27532255649566650391e+00) (10, 1.25164604187011718750e+00) (11, 1.54880881309509277344e+00) (12, 5.65231382846832275391e-01) (13, 6.29816710948944091797e-01) (14, 1.61688446998596191406e+00) (15, -1.19266796112060546875e+00) (16, -8.41405212879180908203e-01) (17, 6.54415309429168701172e-01) (18, 1.55143523216247558594e+00) (19, 1.14472484588623046875e+00) 
